{"learner":{"attributes":{"scikit_learn":"{\"_estimator_type\": \"classifier\"}"},"feature_names":[],"feature_types":[],"gradient_booster":{"model":{"cats":{"enc":[],"feature_segments":[],"sorted_idx":[]},"gbtree_model_param":{"num_parallel_tree":"1","num_trees":"284"},"iteration_indptr":[0,1,2,3,4,5,6,7,8,9,10,11,12,13,14,15,16,17,18,19,20,21,22,23,24,25,26,27,28,29,30,31,32,33,34,35,36,37,38,39,40,41,42,43,44,45,46,47,48,49,50,51,52,53,54,55,56,57,58,59,60,61,62,63,64,65,66,67,68,69,70,71,72,73,74,75,76,77,78,79,80,81,82,83,84,85,86,87,88,89,90,91,92,93,94,95,96,97,98,99,100,101,102,103,104,105,106,107,108,109,110,111,112,113,114,115,116,117,118,119,120,121,122,123,124,125,126,127,128,129,130,131,132,133,134,135,136,137,138,139,140,141,142,143,144,145,146,147,148,149,150,151,152,153,154,155,156,157,158,159,160,161,162,163,164,165,166,167,168,169,170,171,172,173,174,175,176,177,178,179,180,181,182,183,184,185,186,187,188,189,190,191,192,193,194,195,196,197,198,199,200,201,202,203,204,205,206,207,208,209,210,211,212,213,214,215,216,217,218,219,220,221,222,223,224,225,226,227,228,229,230,231,232,233,234,235,236,237,238,239,240,241,242,243,244,245,246,247,248,249,250,251,252,253,254,255,256,257,258,259,260,261,262,263,264,265,266,267,268,269,270,271,272,273,274,275,276,277,278,279,280,281,282,283,284],"tree_info":[0,0,0,0,0,0,0,0,0,0,0,0,0,0,0,0,0,0,0,0,0,0,0,0,0,0,0,0,0,0,0,0,0,0,0,0,0,0,0,0,0,0,0,0,0,0,0,0,0,0,0,0,0,0,0,0,0,0,0,0,0,0,0,0,0,0,0,0,0,0,0,0,0,0,0,0,0,0,0,0,0,0,0,0,0,0,0,0,0,0,0,0,0,0,0,0,0,0,0,0,0,0,0,0,0,0,0,0,0,0,0,0,0,0,0,0,0,0,0,0,0,0,0,0,0,0,0,0,0,0,0,0,0,0,0,0,0,0,0,0,0,0,0,0,0,0,0,0,0,0,0,0,0,0,0,0,0,0,0,0,0,0,0,0,0,0,0,0,0,0,0,0,0,0,0,0,0,0,0,0,0,0,0,0,0,0,0,0,0,0,0,0,0,0,0,0,0,0,0,0,0,0,0,0,0,0,0,0,0,0,0,0,0,0,0,0,0,0,0,0,0,0,0,0,0,0,0,0,0,0,0,0,0,0,0,0,0,0,0,0,0,0,0,0,0,0,0,0,0,0,0,0,0,0,0,0,0,0,0,0,0,0,0,0,0,0,0,0,0,0,0,0,0,0,0,0,0,0,0,0,0,0,0,0],"trees":[{"base_weights":[-1.5255008E-2,-5.294144E-1,1.2589839E0,-6.212882E-1,3.1700523E0,2.3549144E0,3.866576E-1,-2.5216094E-1,-9.8109245E-1,1.4929626E0,1.697972E-1,1.575624E0,3.8231533E0,1.9864477E-1,1.7073208E-1,-4.3925333E-1,3.2474923E-1,-4.5117E-2,-6.8433005E-1,1.1260059E-1,4.9270344E-1,9.785276E-1,2.9928575E0,1.635399E-1,5.480532E-2,1.1277246E0,-5.929872E-1,-5.9178704E-1,2.8498557E-1,-3.2850895E-2,5.3687793E-1,1.7341662E-2,-3.1533282E-2,6.5416165E-2,-2.6108049E-2,1.7052183E0,-2.8611932E-2,1.4484754E-1,1.8437266E0,6.571008E-1,2.2140555E0,-3.884028E-2,-1.8912598E-1,-3.2898614E-3,-3.142077E-2,4.2649474E-2,-5.3215385E-3,3.5100546E-2,-2.3935365E-2,1.1532476E-1,4.2186886E-2,-2.0949611E-2,1.4727774E-1,2.3379901E-2,1.250949E-1,7.046323E-2,7.721437E-3,1.0829949E-1,3.2375257E-2,3.013096E-4,-3.242761E-2],"categories":[],"categories_nodes":[],"categories_segments":[],"categories_sizes":[],"default_left":[0,0,0,0,0,0,0,0,0,0,0,0,0,0,0,0,0,0,0,0,0,0,0,0,0,0,0,0,0,0,0,0,0,0,0,0,0,0,0,0,0,0,0,0,0,0,0,0,0,0,0,0,0,0,0,0,0,0,0,0,0],"id":0,"left_children":[1,3,5,7,9,11,13,15,17,19,-1,21,23,25,-1,27,29,-1,31,-1,33,35,37,-1,-1,39,41,43,45,-1,47,-1,-1,-1,-1,49,51,-1,53,55,57,-1,59,-1,-1,-1,-1,-1,-1,-1,-1,-1,-1,-1,-1,-1,-1,-1,-1,-1,-1],"loss_changes":[7.333361E2,2.7302637E2,3.067379E2,1.03215576E2,2.3841476E1,1.569386E2,1.25408356E2,4.1791588E1,1.1495758E1,8.961899E0,0E0,7.724599E1,8.5112915E0,1.2772859E2,0E0,3.2404102E1,2.2916275E1,0E0,8.972214E0,0E0,8.100307E0,4.992286E1,9.203964E0,0E0,0E0,3.935473E1,1.2785641E1,2.027378E1,1.588325E1,0E0,2.8052052E1,0E0,0E0,0E0,0E0,2.6420677E1,5.1983273E1,0E0,1.3860157E1,2.7641598E1,1.1309044E1,0E0,5.1495485E0,0E0,0E0,0E0,0E0,0E0,0E0,0E0,0E0,0E0,0E0,0E0,0E0,0E0,0E0,0E0,0E0,0E0,0E0],"parents":[2147483647,0,0,1,1,2,2,3,3,4,4,5,5,6,6,7,7,8,8,9,9,11,11,12,12,13,13,15,15,16,16,18,18,20,20,21,21,22,22,25,25,26,26,27,27,28,28,30,30,35,35,36,36,38,38,39,39,40,40,42,42],"right_children":[2,4,6,8,10,12,14,16,18,20,-1,22,24,26,-1,28,30,-1,32,-1,34,36,38,-1,-1,40,42,44,46,-1,48,-1,-1,-1,-1,50,52,-1,54,56,58,-1,60,-1,-1,-1,-1,-1,-1,-1,-1,-1,-1,-1,-1,-1,-1,-1,-1,-1,-1],"split_conditions":[4.3E1,3E0,1E0,2E0,4.957273E4,5.1E1,3E0,1E0,1.0819711E5,-1.1827635E1,1.697972E-1,1E0,6.9E1,4.158883E0,1.7073208E-1,4E1,9.278666E4,-4.5117E-2,1.1092996E5,1.1260059E-1,6.37E2,2E0,2E0,1.635399E-1,5.480532E-2,1E0,-5.711225E-1,-7.313166E-1,-4.4522816E-1,-3.2850895E-2,1.439663E5,1.7341662E-2,-3.1533282E-2,6.5416165E-2,-2.6108049E-2,-6.6829056E-1,3E0,1.4484754E-1,4.59512E0,6.833296E4,1.3873195E5,-3.884028E-2,6.8E1,-3.2898614E-3,-3.142077E-2,4.2649474E-2,-5.3215385E-3,3.5100546E-2,-2.3935365E-2,1.1532476E-1,4.2186886E-2,-2.0949611E-2,1.4727774E-1,2.3379901E-2,1.250949E-1,7.046323E-2,7.721437E-3,1.0829949E-1,3.2375257E-2,3.013096E-4,-3.242761E-2],"split_indices":[0,1,2,1,6,0,1,5,6,7,0,5,0,4,0,0,6,0,6,0,10,1,1,0,0,5,7,7,7,0,6,0,0,0,0,7,1,0,4,6,6,0,0,0,0,0,0,0,0,0,0,0,0,0,0,0,0,0,0,0,0],"split_type":[0,0,0,0,0,0,0,0,0,0,0,0,0,0,0,0,0,0,0,0,0,0,0,0,0,0,0,0,0,0,0,0,0,0,0,0,0,0,0,0,0,0,0,0,0,0,0,0,0,0,0,0,0,0,0,0,0,0,0,0,0],"sum_hessian":[1.1173032E3,7.964982E2,3.2080502E2,7.78009E2,1.8489267E1,1.4142668E2,1.7937834E2,3.848687E2,3.9314023E2,7.460582E0,1.1028687E1,9.3743835E1,4.768285E1,1.7175557E2,7.6227684E0,2.908005E2,9.406821E1,2.8869208E2,1.0444814E2,2.594985E0,4.865597E0,6.714524E1,2.6598597E1,4.5087864E1,2.594985E0,7.882267E1,9.29329E1,2.4036049E2,5.044002E1,1.459679E1,7.947141E1,6.325276E0,9.812287E1,2.2706118E0,2.594985E0,3.8600403E1,2.8544834E1,1.7191776E1,9.40682E0,5.611655E1,2.270612E1,4.962909E1,4.3303814E1,5.8711536E1,1.8164896E2,1.751615E1,3.2923874E1,6.2441826E1,1.7029589E1,1.3948045E1,2.4652357E1,2.594985E1,2.594985E0,5.18997E0,4.2168508E0,1.6705215E1,3.9411335E1,1.7191776E1,5.5143433E0,3.3248245E1,1.0055567E1],"tree_param":{"num_deleted":"0","num_feature":"11","num_nodes":"61","size_leaf_vector":"1"}},{"base_weights":[5.9390506E-3,-3.9668927E-1,1.7173492E0,-5.062131E-1,3.1321454E0,2.5806866E0,8.608753E-1,-9.8827384E-2,-9.257649E-1,1.8837267E0,1.5692148E-1,3.0655031E0,1.5639764E0,6.57849E-1,1.4890574E-1,-4.135057E-1,5.053515E-1,-4.548909E-2,-6.603184E-1,1.2805898E-1,1.1068512E0,2.5874836E0,1.4670116E-1,2.2736876E-1,1.6104993E-1,1.419878E0,-2.638402E-1,-5.8086854E-1,1.00570396E-1,1.1965381E0,-1.2098086E-1,-3.233449E-2,1.4762497E-1,-2.666824E-3,9.4764024E-2,1.1746684E-1,1.3320706E0,-3.520795E-2,5.4578353E-2,9.569488E-1,9.76561E-2,-2.8821843E-2,3.9476618E-1,1.7881171E-3,-3.2727778E-2,-3.446804E-2,1.35482475E-2,3.6225405E-2,1.3146526E-1,-1.7467609E-2,3.7706222E-2,3.7980694E-2,-6.2244944E-3,5.9247133E-3,1.05307706E-1,9.370733E-2,1.356361E-2,4.360415E-2,-5.34417E-3],"categories":[],"categories_nodes":[],"categories_segments":[],"categories_sizes":[],"default_left":[0,0,0,0,0,0,0,0,0,0,0,0,0,0,0,0,0,0,0,0,0,0,0,0,0,0,0,0,0,0,0,0,0,0,0,0,0,0,0,0,0,0,0,0,0,0,0,0,0,0,0,0,0,0,0,0,0,0,0],"id":1,"left_children":[1,3,5,7,9,11,13,15,17,19,-1,21,23,25,-1,27,29,-1,31,-1,33,35,-1,37,-1,39,41,43,45,47,49,-1,51,-1,-1,-1,53,-1,-1,55,-1,-1,57,-1,-1,-1,-1,-1,-1,-1,-1,-1,-1,-1,-1,-1,-1,-1,-1],"loss_changes":[7.840584E2,3.576076E2,1.5801978E2,1.5276093E2,1.5296661E1,4.8156006E1,5.860327E1,8.6685135E1,1.9026215E1,7.273529E0,0E0,6.7956543E0,1.1259446E2,7.332063E1,0E0,2.5837406E1,6.7774216E1,0E0,1.6657051E1,0E0,1.186209E1,7.9790955E0,0E0,2.9512257E1,0E0,2.2300537E1,1.3816685E1,2.9204926E1,1.5879959E1,4.4748184E1,2.5892054E1,0E0,5.3695545E0,0E0,0E0,0E0,1.12924795E1,0E0,0E0,3.1801998E1,0E0,0E0,6.8257523E0,0E0,0E0,0E0,0E0,0E0,0E0,0E0,0E0,0E0,0E0,0E0,0E0,0E0,0E0,0E0,0E0],"parents":[2147483647,0,0,1,1,2,2,3,3,4,4,5,5,6,6,7,7,8,8,9,9,11,11,12,12,13,13,15,15,16,16,18,18,20,20,21,21,23,23,25,25,26,26,27,27,28,28,29,29,30,30,32,32,36,36,39,39,42,42],"right_children":[2,4,6,8,10,12,14,16,18,20,-1,22,24,26,-1,28,30,-1,32,-1,34,36,-1,38,-1,40,42,44,46,48,50,-1,52,-1,-1,-1,54,-1,-1,56,-1,-1,58,-1,-1,-1,-1,-1,-1,-1,-1,-1,-1,-1,-1,-1,-1,-1,-1],"split_conditions":[1E0,3E0,1E0,2E0,4.957273E4,2E0,3E0,3.9E1,-5.711225E-1,-1.1827635E1,1.5692148E-1,5E1,4.691348E0,4.0943446E0,1.4890574E-1,1E0,1E0,-4.548909E-2,4.3E1,1.2805898E-1,4.8121843E0,6.818523E-1,1.4670116E-1,-6.6829056E-1,1.6104993E-1,1E0,-3.8944462E-1,7.149779E4,1.0016951E5,4.5E1,1E0,-3.233449E-2,-2.501687E-1,-2.666824E-3,9.4764024E-2,1.1746684E-1,1E0,-3.520795E-2,5.4578353E-2,-9.2633086E-1,9.76561E-2,-2.8821843E-2,1.1556921E5,1.7881171E-3,-3.2727778E-2,-3.446804E-2,1.35482475E-2,3.6225405E-2,1.3146526E-1,-1.7467609E-2,3.7706222E-2,3.7980694E-2,-6.2244944E-3,5.9247133E-3,1.05307706E-1,9.370733E-2,1.356361E-2,4.360415E-2,-5.34417E-3],"split_indices":[8,1,2,1,6,1,1,0,7,7,0,0,4,4,0,5,2,0,0,0,4,7,0,7,0,5,7,6,6,0,5,0,7,0,0,0,5,0,0,7,0,0,6,0,0,0,0,0,0,0,0,0,0,0,0,0,0,0,0],"split_type":[0,0,0,0,0,0,0,0,0,0,0,0,0,0,0,0,0,0,0,0,0,0,0,0,0,0,0,0,0,0,0,0,0,0,0,0,0,0,0,0,0,0,0,0,0,0,0,0,0,0,0,0,0,0,0,0,0,0,0],"sum_hessian":[1.1358744E3,9.2016376E2,2.1571059E2,8.932952E2,2.6868507E1,1.06422295E2,1.0928829E2,4.5384567E2,4.394496E2,1.0480353E1,1.6388153E1,7.069594E1,3.5726357E1,1.02859344E2,6.428949E0,2.9862598E2,1.5521968E2,2.6664566E2,1.7280394E2,2.9557173E0,7.5246363E0,3.809038E1,3.2605553E1,2.3333265E1,1.2393091E1,5.6010654E1,4.684869E1,2.251848E2,7.344118E1,7.335674E1,8.186294E1,1.5084671E2,2.1957226E1,4.239655E0,3.284981E0,3.0940449E1,7.149934E0,1.1838727E1,1.1494538E1,3.8753075E1,1.7257582E1,2.8317827E1,1.8530863E1,5.6239037E1,1.6894577E2,1.3807346E1,5.9633827E1,6.420013E1,9.156616E0,6.386286E1,1.8000078E1,5.5592465E0,1.639798E1,4.15611E0,2.993824E0,1.1827554E1,2.692552E1,7.7870584E0,1.0743805E1],"tree_param":{"num_deleted":"0","num_feature":"11","num_nodes":"59","size_leaf_vector":"1"}},{"base_weights":[4.870728E-3,-3.6568895E-1,1.5277857E0,-4.5458058E-1,1.3001635E0,2.2884824E0,7.024008E-1,-1.2101427E-1,-7.77059E-1,1.1750706E-1,-6.1854616E-2,1.736827E0,1.2228565E-1,5.012588E-1,1.335964E-1,-3.3754689E-1,5.4049087E-1,-9.0700364E-1,7.86656E-1,9.992612E-2,-6.276814E-1,2.1800945E0,8.5381585E-1,1.1277752E0,-1.9234592E-1,-5.126469E-1,2.4837328E-1,-1.6964766E-1,1.024859E0,-1.0251858E0,-5.928679E-1,1.3013285E-1,-2.932227E-1,-3.3920858E-2,3.2357592E-2,1.762372E0,1.1707594E-1,6.341521E-2,1.3390344E-1,7.0141035E-1,8.350222E-2,2.815669E-1,-2.3947893E-2,-2.7953433E-3,-2.8764127E-2,2.958703E-2,-1.0628926E-2,-3.8047757E-2,2.1049757E-3,5.087873E-2,-1.9942697E-2,-4.5174275E-2,-2.8126433E-2,-3.4000214E-2,-1.0748102E-2,2.4907114E-2,-2.6095428E-2,8.578016E-2,3.7273208E-3,-3.497469E-2,4.764776E-2,7.590921E-2,9.186143E-3,-6.0088634E-3,4.608243E-2],"categories":[],"categories_nodes":[],"categories_segments":[],"categories_sizes":[],"default_left":[0,0,0,0,0,0,0,0,0,0,0,0,0,0,0,0,0,0,0,0,0,0,0,0,0,0,0,0,0,0,0,0,0,0,0,0,0,0,0,0,0,0,0,0,0,0,0,0,0,0,0,0,0,0,0,0,0,0,0,0,0,0,0,0,0],"id":2,"left_children":[1,3,5,7,9,11,13,15,17,-1,19,21,-1,23,-1,25,27,29,31,-1,33,35,37,39,41,43,45,47,49,51,53,-1,55,-1,-1,57,-1,59,-1,61,-1,63,-1,-1,-1,-1,-1,-1,-1,-1,-1,-1,-1,-1,-1,-1,-1,-1,-1,-1,-1,-1,-1,-1,-1],"loss_changes":[6.342069E2,1.3444025E2,1.3648279E2,9.229042E1,9.5984955E1,3.603961E1,5.2426563E1,6.0822067E1,8.940808E1,0E0,3.6850124E1,2.3304886E1,0E0,4.3752663E1,0E0,3.291286E1,3.62172E1,1.4371216E1,8.707959E1,0E0,6.3095913E0,6.2593384E0,4.3102432E1,1.84329E1,8.969323E0,1.9654861E1,1.7525917E1,7.1701884E0,1.933384E1,5.558014E0,8.273594E0,0E0,7.610856E0,0E0,0E0,1.4025116E1,0E0,1.896969E1,0E0,1.965849E1,0E0,8.035703E0,0E0,0E0,0E0,0E0,0E0,0E0,0E0,0E0,0E0,0E0,0E0,0E0,0E0,0E0,0E0,0E0,0E0,0E0,0E0,0E0,0E0,0E0,0E0],"parents":[2147483647,0,0,1,1,2,2,3,3,4,4,5,5,6,6,7,7,8,8,10,10,11,11,13,13,15,15,16,16,17,17,18,18,20,20,21,21,22,22,23,23,24,24,25,25,26,26,27,27,28,28,29,29,30,30,32,32,35,35,37,37,39,39,41,41],"right_children":[2,4,6,8,10,12,14,16,18,-1,20,22,-1,24,-1,26,28,30,32,-1,34,36,38,40,42,44,46,48,50,52,54,-1,56,-1,-1,58,-1,60,-1,62,-1,64,-1,-1,-1,-1,-1,-1,-1,-1,-1,-1,-1,-1,-1,-1,-1,-1,-1,-1,-1,-1,-1,-1,-1],"split_conditions":[1E0,4.5108595E0,1E0,3.8286414E0,4.5E1,5E1,4.7957907E0,1E0,4.5E1,1.1750706E-1,1E0,3.9318256E0,1.2228565E-1,4.0775375E0,1.335964E-1,4E1,3.4E1,1.0791594E5,1E0,9.992612E-2,5.075174E0,1E0,4.6051702E0,1E0,1E0,7.149779E4,1E0,9.958013E4,1.4913445E5,4.406719E0,4.304065E0,1.3013285E-1,6.3E1,-3.3920858E-2,3.2357592E-2,6.659584E-1,1.1707594E-1,-4.9481952E-1,1.3390344E-1,-9.2633086E-1,8.350222E-2,1.0668352E5,-2.3947893E-2,-2.7953433E-3,-2.8764127E-2,2.958703E-2,-1.0628926E-2,-3.8047757E-2,2.1049757E-3,5.087873E-2,-1.9942697E-2,-4.5174275E-2,-2.8126433E-2,-3.4000214E-2,-1.0748102E-2,2.4907114E-2,-2.6095428E-2,8.578016E-2,3.7273208E-3,-3.497469E-2,4.764776E-2,7.590921E-2,9.186143E-3,-6.0088634E-3,4.608243E-2],"split_indices":[8,4,2,4,0,0,4,5,0,0,2,4,0,4,0,0,0,6,2,0,4,5,4,5,3,6,2,6,6,4,4,0,0,0,0,7,0,7,0,7,0,6,0,0,0,0,0,0,0,0,0,0,0,0,0,0,0,0,0,0,0,0,0,0,0],"split_type":[0,0,0,0,0,0,0,0,0,0,0,0,0,0,0,0,0,0,0,0,0,0,0,0,0,0,0,0,0,0,0,0,0,0,0,0,0,0,0,0,0,0,0,0,0,0,0,0,0,0,0,0,0,0,0,0,0,0,0,0,0,0,0,0,0],"sum_hessian":[1.121831E3,9.02896E2,2.1893515E2,8.578475E2,4.504852E1,1.13009735E2,1.05925415E2,4.2235046E2,4.3549698E2,2.0726246E1,2.4322273E1,6.3296455E1,4.9713276E1,9.9184715E1,6.7406993E0,3.1856372E2,1.0378675E2,4.024716E2,3.30254E1,3.9320095E0,2.0390263E1,4.1163597E1,2.213286E1,5.178374E1,4.740097E1,2.4536296E2,7.3200745E1,4.234862E1,6.1438133E1,2.908037E2,1.11667885E2,9.814116E0,2.3211285E1,1.8348953E1,2.0413108E0,2.713999E1,1.4023605E1,1.7364832E1,4.7680283E0,3.6114822E1,1.56689205E1,2.1334497E1,2.6066473E1,7.089195E1,1.7447101E2,3.7918217E1,3.5282528E1,8.935691E0,3.341293E1,5.4410057E1,7.028076E0,2.4511136E2,4.5692345E1,6.583338E1,4.5834503E1,6.115147E0,1.7096138E1,2.2792105E1,4.3478866E0,9.5818205E0,7.783012E0,9.965498E0,2.6149323E1,1.4626176E1,6.7083225E0],"tree_param":{"num_deleted":"0","num_feature":"11","num_nodes":"65","size_leaf_vector":"1"}},{"base_weights":[-4.308684E-3,-4.8999947E-1,1.0851045E0,-5.660388E-1,2.1268513E0,1.901525E0,3.2095236E-1,-2.1778555E-1,-9.2660195E-1,9.684986E-1,1.1631913E-1,1.3453287E0,2.8475335E0,1.4156412E-1,1.3030316E-1,-4.0718374E-1,3.1728452E-1,-4.4909008E-2,-6.932567E-1,8.483793E-2,1.2704244E-1,1.856775E0,4.7776502E-1,1.211762E-1,3.3968605E-2,6.235307E-1,-5.265227E-1,2.3999287E-1,-6.2743795E-1,-2.9448643E-2,5.416114E-1,-3.4800787E-2,-3.9233762E-1,3.8994566E-2,-2.8420428E-2,1.4136351E0,1.0927972E-1,-1.734963E-1,1.3026133E-1,-1.2550403E-1,1.0798783E0,-4.161373E-2,4.722788E-2,-2.3926638E-2,2.0520268E-2,-2.9097516E-2,2.5046118E-2,3.378504E-2,-2.3000736E-2,-2.5928623E-4,-2.8320907E-2,9.30953E-2,3.3901997E-2,-2.9351205E-2,1.9620556E-2,-1.6998222E-2,3.0496707E-2,3.015512E-2,7.314934E-2,1.213239E-2,-3.4175213E-2],"categories":[],"categories_nodes":[],"categories_segments":[],"categories_sizes":[],"default_left":[0,0,0,0,0,0,0,0,0,0,0,0,0,0,0,0,0,0,0,0,0,0,0,0,0,0,0,0,0,0,0,0,0,0,0,0,0,0,0,0,0,0,0,0,0,0,0,0,0,0,0,0,0,0,0,0,0,0,0,0,0],"id":3,"left_children":[1,3,5,7,9,11,13,15,17,19,-1,21,23,25,-1,27,29,-1,31,-1,33,35,37,-1,-1,39,41,43,45,-1,47,-1,49,-1,-1,51,-1,53,-1,55,57,-1,59,-1,-1,-1,-1,-1,-1,-1,-1,-1,-1,-1,-1,-1,-1,-1,-1,-1,-1],"loss_changes":[6.0341406E2,1.5815346E2,2.187757E2,9.614273E1,1.4798271E1,8.551709E1,9.1880455E1,3.9815155E1,1.2796967E1,8.576955E0,0E0,4.7403152E1,6.2395325E0,5.601321E1,0E0,4.144068E1,2.4075466E1,0E0,6.2944107E0,0E0,4.952431E0,1.9617844E1,7.2717415E1,0E0,0E0,3.463203E1,1.99425E1,1.5663754E1,1.9797417E1,0E0,2.5725851E1,0E0,5.72665E0,0E0,0E0,2.06389E1,0E0,1.2184069E1,0E0,9.829115E0,1.3862305E1,0E0,7.4810777E0,0E0,0E0,0E0,0E0,0E0,0E0,0E0,0E0,0E0,0E0,0E0,0E0,0E0,0E0,0E0,0E0,0E0,0E0],"parents":[2147483647,0,0,1,1,2,2,3,3,4,4,5,5,6,6,7,7,8,8,9,9,11,11,12,12,13,13,15,15,16,16,18,18,20,20,21,21,22,22,25,25,26,26,27,27,28,28,30,30,32,32,35,35,37,37,39,39,40,40,42,42],"right_children":[2,4,6,8,10,12,14,16,18,20,-1,22,24,26,-1,28,30,-1,32,-1,34,36,38,-1,-1,40,42,44,46,-1,48,-1,50,-1,-1,52,-1,54,-1,56,58,-1,60,-1,-1,-1,-1,-1,-1,-1,-1,-1,-1,-1,-1,-1,-1,-1,-1,-1,-1],"split_conditions":[4.3E1,3E0,1E0,2E0,-8.445757E0,5.1E1,3E0,1E0,-6.4275855E-1,-1.1781475E1,1.1631913E-1,2E0,6.9E1,2E0,1.3030316E-1,-6.9539726E-1,9.739218E4,-4.4909008E-2,3.7E1,8.483793E-2,6.2E2,1E0,3E0,1.211762E-1,3.3968605E-2,1E0,-8.445757E0,3.1E1,1.7060078E5,-2.9448643E-2,1.4649877E5,-3.4800787E-2,1E0,3.8994566E-2,-2.8420428E-2,-6.150652E-1,1.0927972E-1,8.600621E4,1.3026133E-1,1E0,1E0,-4.161373E-2,6.2E1,-2.3926638E-2,2.0520268E-2,-2.9097516E-2,2.5046118E-2,3.378504E-2,-2.3000736E-2,-2.5928623E-4,-2.8320907E-2,9.30953E-2,3.3901997E-2,-2.9351205E-2,1.9620556E-2,-1.6998222E-2,3.0496707E-2,3.015512E-2,7.314934E-2,1.213239E-2,-3.4175213E-2],"split_indices":[0,1,2,1,7,0,1,5,7,7,0,1,0,1,0,7,6,0,0,0,10,5,1,0,0,8,7,0,6,0,6,0,3,0,0,7,0,6,0,5,5,0,0,0,0,0,0,0,0,0,0,0,0,0,0,0,0,0,0,0,0],"split_type":[0,0,0,0,0,0,0,0,0,0,0,0,0,0,0,0,0,0,0,0,0,0,0,0,0,0,0,0,0,0,0,0,0,0,0,0,0,0,0,0,0,0,0,0,0,0,0,0,0,0,0,0,0,0,0,0,0,0,0,0,0],"sum_hessian":[1.1384103E3,7.877566E2,3.506537E2,7.6627423E2,2.1482365E1,1.688093E2,1.8184439E2,3.9060696E2,3.7566727E2,8.785869E0,1.2696497E1,1.078324E2,6.0976894E1,1.719369E2,9.907482E0,2.8866687E2,1.01940094E2,2.240529E2,1.5161436E2,3.234574E0,5.5512943E0,6.712225E1,4.0710144E1,5.856334E1,2.4135544E0,9.9920006E1,7.20169E1,7.327426E1,2.153926E2,1.7902767E1,8.403732E1,1.01288994E2,5.0325363E1,2.696457E0,2.8548374E0,4.4462303E1,2.265995E1,3.344652E1,7.263624E0,3.810335E1,6.181665E1,3.8994953E1,3.3021946E1,1.7087305E1,5.618696E1,2.0376707E2,1.1625525E1,6.755257E1,1.648476E1,2.1989466E1,2.8335897E1,1.750599E1,2.6956312E1,1.8272846E1,1.5173676E1,2.9044361E1,9.05899E0,4.201312E1,1.9803532E1,2.6288216E1,6.7337317E0],"tree_param":{"num_deleted":"0","num_feature":"11","num_nodes":"61","size_leaf_vector":"1"}},{"base_weights":[1.0113211E-2,-4.8354226E-1,1.0384601E0,-5.5895585E-1,2.1604617E0,1.8038315E0,2.9366466E-1,-1.8618234E-1,-9.4247055E-1,4.12266E-2,1.10391505E-1,1.2947233E0,1.11169904E-1,1.3457996E-1,1.1213601E-1,-3.7279195E-1,3.555039E-1,-4.4912636E-2,-3.0185081E-2,1.7607329E0,4.866829E-1,7.6313126E-1,-4.543579E-1,2.0516123E-1,-5.965048E-1,-2.5812065E-2,5.96678E-1,1.3508054E0,1.0178081E-1,-1.8941978E-1,1.2134833E-1,4.3350005E-1,1.5052854E0,-3.8488347E-2,-2.7699764E-3,2.5189346E-2,-6.956387E-3,-2.774597E-2,3.0122444E-2,3.4685086E-2,-2.0091547E-2,8.7429315E-2,3.2506626E-2,-3.0693604E-2,1.7588688E-2,5.5315353E-2,-7.2847883E-4,-2.3759732E-2,7.106709E-2,1.4712382E-2,-1.9467872E-2],"categories":[],"categories_nodes":[],"categories_segments":[],"categories_sizes":[],"default_left":[0,0,0,0,0,0,0,0,0,0,0,0,0,0,0,0,0,0,0,0,0,0,0,0,0,0,0,0,0,0,0,0,0,0,0,0,0,0,0,0,0,0,0,0,0,0,0,0,0,0,0],"id":4,"left_children":[1,3,5,7,9,11,13,15,17,-1,-1,19,-1,21,-1,23,25,-1,-1,27,29,31,33,35,37,-1,39,41,-1,43,-1,45,47,-1,49,-1,-1,-1,-1,-1,-1,-1,-1,-1,-1,-1,-1,-1,-1,-1,-1],"loss_changes":[5.686144E2,1.5211073E2,2.0656458E2,1.0513426E2,9.647797E0,7.594122E1,7.053454E1,3.801728E1,1.0060547E1,0E0,0E0,4.2414352E1,0E0,6.508003E1,0E0,3.6227276E1,2.3110785E1,0E0,0E0,1.7156143E1,7.198291E1,2.0132751E1,1.9368214E1,1.1854982E1,1.9447052E1,0E0,2.04396E1,1.8768684E1,0E0,1.2061014E1,0E0,2.4411423E1,1.192799E1,0E0,8.051661E0,0E0,0E0,0E0,0E0,0E0,0E0,0E0,0E0,0E0,0E0,0E0,0E0,0E0,0E0,0E0,0E0],"parents":[2147483647,0,0,1,1,2,2,3,3,4,4,5,5,6,6,7,7,8,8,11,11,13,13,15,15,16,16,19,19,20,20,21,21,22,22,23,23,24,24,26,26,27,27,29,29,31,31,32,32,34,34],"right_children":[2,4,6,8,10,12,14,16,18,-1,-1,20,-1,22,-1,24,26,-1,-1,28,30,32,34,36,38,-1,40,42,-1,44,-1,46,48,-1,50,-1,-1,-1,-1,-1,-1,-1,-1,-1,-1,-1,-1,-1,-1,-1,-1],"split_conditions":[4.3E1,3E0,1E0,2E0,-9.02922E0,5.1E1,3E0,1E0,-6.4275855E-1,4.12266E-2,1.10391505E-1,2E0,1.11169904E-1,4.158883E0,1.1213601E-1,7.149779E4,9.916584E4,-4.4912636E-2,-3.0185081E-2,1E0,3E0,1E0,-8.68017E-1,1E0,1.7540612E5,-2.5812065E-2,1.4649877E5,-6.6829056E-1,1.0178081E-1,8.600621E4,1.2134833E-1,6.833296E4,8.754106E4,-3.8488347E-2,6.2E1,2.5189346E-2,-6.956387E-3,-2.774597E-2,3.0122444E-2,3.4685086E-2,-2.0091547E-2,8.7429315E-2,3.2506626E-2,-3.0693604E-2,1.7588688E-2,5.5315353E-2,-7.2847883E-4,-2.3759732E-2,7.106709E-2,1.4712382E-2,-1.9467872E-2],"split_indices":[0,1,2,1,7,0,1,5,7,0,0,1,0,4,0,6,6,0,0,5,1,5,7,2,6,0,6,7,0,6,0,6,6,0,0,0,0,0,0,0,0,0,0,0,0,0,0,0,0,0,0],"split_type":[0,0,0,0,0,0,0,0,0,0,0,0,0,0,0,0,0,0,0,0,0,0,0,0,0,0,0,0,0,0,0,0,0,0,0,0,0,0,0,0,0,0,0,0,0,0,0,0,0,0,0],"sum_hessian":[1.1181042E3,7.558095E2,3.6229474E2,7.3561646E2,2.0193018E1,1.77978E2,1.8431676E2,3.7378537E2,3.6183112E2,6.91256E0,1.3280458E1,1.1391367E2,6.4064316E1,1.7387091E2,1.0445851E1,2.7824307E2,9.554228E1,2.1815721E2,1.436739E2,7.1499664E1,4.241401E1,8.396376E1,8.990715E1,7.766964E1,2.0057344E2,1.8608665E1,7.693362E1,4.6675106E1,2.482456E1,3.3913933E1,8.500076E0,5.923733E1,2.4726429E1,4.3453087E1,4.6454063E1,3.7104675E1,4.0564964E1,1.9078883E2,9.78461E0,6.3228867E1,1.3704745E1,1.8916098E1,2.7759008E1,1.7774914E1,1.6139019E1,1.9157816E1,4.0079514E1,2.0596936E0,2.2666735E1,2.6437925E1,2.0016136E1],"tree_param":{"num_deleted":"0","num_feature":"11","num_nodes":"51","size_leaf_vector":"1"}},{"base_weights":[-2.0051114E-2,-4.8221985E-1,9.4079745E-1,-5.584556E-1,2.0090964E0,1.6000584E0,3.0132908E-1,-2.4144001E-1,-9.0182847E-1,1.0989276E0,9.988955E-2,9.293241E-1,2.163293E0,1.510264E-1,1.0393863E-1,5.2400447E-2,-5.475837E-1,-4.4075597E-2,-7.0046836E-1,8.599279E-2,1.1356801E-2,5.6077844E-1,7.169107E-2,1.7887667E0,2.5572815E0,9.468539E-1,-4.0472007E-1,-1.5020828E-1,6.533119E-1,-7.566544E-1,-2.5176015E-1,-3.557434E-2,-1.669722E-2,4.1360608E-1,9.621531E-2,8.838948E-2,9.6271646E-1,1.1078839E-1,3.5790734E-2,5.981126E-1,1.644227E0,-8.7402165E-1,-9.6035175E-2,-1.4946171E-2,1.8470494E-2,9.799952E-2,2.1998746E-2,-3.298049E-2,3.3155352E-2,1.2691984E-2,-1.8958045E-2,3.7778772E-2,-1.6473303E-2,1.4531212E-2,9.9168256E-2,-3.2123195E-3,4.1375104E-2,7.942786E-2,2.7687766E-2,3.0115075E-2,-4.068232E-2,2.9409279E-3,-3.3444252E-2],"categories":[],"categories_nodes":[],"categories_segments":[],"categories_sizes":[],"default_left":[0,0,0,0,0,0,0,0,0,0,0,0,0,0,0,0,0,0,0,0,0,0,0,0,0,0,0,0,0,0,0,0,0,0,0,0,0,0,0,0,0,0,0,0,0,0,0,0,0,0,0,0,0,0,0,0,0,0,0,0,0,0,0],"id":5,"left_children":[1,3,5,7,9,11,13,15,17,19,-1,21,23,25,-1,27,29,-1,31,-1,-1,33,-1,35,37,39,41,43,45,47,49,-1,-1,51,-1,-1,53,-1,-1,55,57,59,61,-1,-1,-1,-1,-1,-1,-1,-1,-1,-1,-1,-1,-1,-1,-1,-1,-1,-1,-1,-1],"loss_changes":[4.99426E2,1.4534404E2,1.535073E2,8.007219E1,5.5366364E0,6.5846466E1,6.133909E1,3.465145E1,1.0569977E1,6.4278135E0,0E0,2.359536E1,9.721283E0,7.812603E1,0E0,2.4119211E1,1.147287E1,0E0,7.0420456E0,0E0,0E0,1.4204971E1,0E0,1.2761765E1,5.986969E0,1.6667427E1,1.501133E1,1.8641249E1,9.302162E0,6.9617577E0,9.206197E0,0E0,0E0,2.2593998E1,0E0,0E0,1.4198742E1,0E0,0E0,1.34907E1,4.898758E0,7.6282578E0,7.621482E0,0E0,0E0,0E0,0E0,0E0,0E0,0E0,0E0,0E0,0E0,0E0,0E0,0E0,0E0,0E0,0E0,0E0,0E0,0E0,0E0],"parents":[2147483647,0,0,1,1,2,2,3,3,4,4,5,5,6,6,7,7,8,8,9,9,11,11,12,12,13,13,15,15,16,16,18,18,21,21,23,23,24,24,25,25,26,26,27,27,28,28,29,29,30,30,33,33,36,36,39,39,40,40,41,41,42,42],"right_children":[2,4,6,8,10,12,14,16,18,20,-1,22,24,26,-1,28,30,-1,32,-1,-1,34,-1,36,38,40,42,44,46,48,50,-1,-1,52,-1,-1,54,-1,-1,56,58,60,62,-1,-1,-1,-1,-1,-1,-1,-1,-1,-1,-1,-1,-1,-1,-1,-1,-1,-1,-1,-1],"split_conditions":[4.3E1,3E0,1E0,2E0,-9.02922E0,4.8E1,3E0,1E0,-7.9174232E0,-1.1827635E1,9.988955E-2,1E0,5.4E1,4.0775375E0,1.0393863E-1,3.9E1,3.6E1,-4.4075597E-2,3.7E1,8.599279E-2,1.1356801E-2,3E0,7.169107E-2,2E0,6.9E1,1E0,-9.542269E0,1E0,-1.1979722E1,1.8116644E5,-4.5773813E-1,-3.557434E-2,-1.669722E-2,2E0,9.621531E-2,8.838948E-2,3E0,1.1078839E-1,3.5790734E-2,4.7E1,1.3873195E5,4.158883E0,6.8E1,-1.4946171E-2,1.8470494E-2,9.799952E-2,2.1998746E-2,-3.298049E-2,3.3155352E-2,1.2691984E-2,-1.8958045E-2,3.7778772E-2,-1.6473303E-2,1.4531212E-2,9.9168256E-2,-3.2123195E-3,4.1375104E-2,7.942786E-2,2.7687766E-2,3.0115075E-2,-4.068232E-2,2.9409279E-3,-3.3444252E-2],"split_indices":[0,1,2,1,7,0,1,2,7,7,0,5,0,4,0,0,0,0,0,0,0,1,0,1,0,5,7,5,7,6,7,0,0,1,0,0,1,0,0,0,6,4,0,0,0,0,0,0,0,0,0,0,0,0,0,0,0,0,0,0,0,0,0],"split_type":[0,0,0,0,0,0,0,0,0,0,0,0,0,0,0,0,0,0,0,0,0,0,0,0,0,0,0,0,0,0,0,0,0,0,0,0,0,0,0,0,0,0,0,0,0,0,0,0,0,0,0,0,0,0,0,0,0,0,0,0,0,0,0],"sum_hessian":[1.1226239E3,7.583536E2,3.642704E2,7.365893E2,2.176423E1,1.7861983E2,1.8565056E2,3.838795E2,3.5270984E2,7.728151E0,1.403608E1,8.273905E1,9.588077E1,1.7477808E2,1.0872494E1,1.9629855E2,1.8758093E2,1.9478825E2,1.5792157E2,2.8599997E0,4.868151E0,5.7717346E1,2.5021706E1,5.1994682E1,4.3886086E1,7.157669E1,1.0320138E2,1.4736252E2,4.8936043E1,1.08993164E2,7.858777E1,1.0259608E2,5.5325497E1,5.439091E1,3.3264368E0,3.5770325E1,1.622436E1,4.070273E1,3.1833553E0,4.8953674E1,2.2623014E1,4.022097E1,6.298041E1,1.09270004E2,3.8092514E1,2.0939293E0,4.6842113E1,1.0693657E2,2.0565894E0,2.0963812E1,5.7623955E1,3.3670776E1,2.0720133E1,1.2211851E1,4.0125093E0,1.8437048E1,3.0516628E1,1.7018747E1,5.6042676E0,2.1147516E0,3.8106216E1,5.1710865E1,1.1269547E1],"tree_param":{"num_deleted":"0","num_feature":"11","num_nodes":"63","size_leaf_vector":"1"}},{"base_weights":[9.189158E-3,-4.6923634E-1,8.633069E-1,-5.500646E-1,1.8521128E0,1.4338717E0,2.7386823E-1,-2.3312289E-1,-8.973301E-1,1.0897295E0,1.0240003E-1,8.5470617E-1,2.0146203E0,1.4826411E-1,9.3426906E-2,-4.2280015E-1,3.202406E-1,-4.319819E-2,-6.889688E-1,6.665609E-2,-7.356089E-3,1.2756667E0,2.609746E-1,1.6677859E0,2.4043403E0,8.403253E-1,-4.301287E-1,9.527833E-2,-6.13074E-1,-3.3659704E-2,4.8863617E-1,-3.3888653E-2,-3.9038008E-1,6.627447E-2,9.351227E-1,-2.4829885E-1,1.01029135E-1,7.936943E-2,1.0644491E0,1.0342233E-1,2.876998E-2,5.121186E-1,1.538378E0,-3.5121094E-2,9.2645315E-4,-2.2080256E-2,1.3493739E-2,-2.8934011E-2,2.5775973E-2,2.9192703E-2,-2.0746363E-2,1.7471745E-3,-2.790288E-2,1.9573454E-2,6.380899E-2,-1.5598701E-2,4.1658327E-2,2.3383273E-2,9.3482286E-2,6.2017128E-2,2.8676197E-3,7.674083E-2,1.4176427E-2,2.245611E-2,-1.8286819E-2],"categories":[],"categories_nodes":[],"categories_segments":[],"categories_sizes":[],"default_left":[0,0,0,0,0,0,0,0,0,0,0,0,0,0,0,0,0,0,0,0,0,0,0,0,0,0,0,0,0,0,0,0,0,0,0,0,0,0,0,0,0,0,0,0,0,0,0,0,0,0,0,0,0,0,0,0,0,0,0,0,0,0,0,0,0],"id":6,"left_children":[1,3,5,7,9,11,13,15,17,19,-1,21,23,25,-1,27,29,-1,31,-1,-1,33,35,37,39,41,43,45,47,-1,49,-1,51,-1,53,55,-1,-1,57,-1,-1,59,61,-1,63,-1,-1,-1,-1,-1,-1,-1,-1,-1,-1,-1,-1,-1,-1,-1,-1,-1,-1,-1,-1],"loss_changes":[4.536592E2,1.3453853E2,1.3365836E2,7.556212E1,8.595451E0,6.632211E1,4.859338E1,3.8055943E1,9.008087E0,8.46586E0,0E0,2.5417084E1,9.54422E0,7.503796E1,0E0,2.6623817E1,1.8057339E1,0E0,4.823967E0,0E0,0E0,5.0337906E0,4.9233868E1,6.1976166E0,4.779236E0,1.8748547E1,1.8300877E1,1.0704875E1,2.0674934E1,0E0,1.7546558E1,0E0,5.1853976E0,0E0,8.043158E0,6.1849694E0,0E0,0E0,9.671268E0,0E0,0E0,2.574306E1,9.253773E0,0E0,1.2412535E1,0E0,0E0,0E0,0E0,0E0,0E0,0E0,0E0,0E0,0E0,0E0,0E0,0E0,0E0,0E0,0E0,0E0,0E0,0E0,0E0],"parents":[2147483647,0,0,1,1,2,2,3,3,4,4,5,5,6,6,7,7,8,8,9,9,11,11,12,12,13,13,15,15,16,16,18,18,21,21,22,22,23,23,24,24,25,25,26,26,27,27,28,28,30,30,32,32,34,34,35,35,38,38,41,41,42,42,44,44],"right_children":[2,4,6,8,10,12,14,16,18,20,-1,22,24,26,-1,28,30,-1,32,-1,-1,34,36,38,40,42,44,46,48,-1,50,-1,52,-1,54,56,-1,-1,58,-1,-1,60,62,-1,64,-1,-1,-1,-1,-1,-1,-1,-1,-1,-1,-1,-1,-1,-1,-1,-1,-1,-1,-1,-1],"split_conditions":[4.2E1,3E0,1E0,2E0,-2.2163135E-1,4.8E1,3E0,1E0,-6.4275855E-1,6.92E2,1.0240003E-1,2E0,5.4E1,4.0943446E0,9.3426906E-2,-6.9539726E-1,9.035512E4,-4.319819E-2,3.7E1,6.665609E-2,-7.356089E-3,-1.1329145E-1,3E0,2E0,6.8E1,1E0,-3.8944462E-1,3.1E1,1.7060078E5,-3.3659704E-2,1.4524162E5,-3.3888653E-2,1.171523E5,6.627447E-2,1E0,1.5239027E5,1.01029135E-1,7.936943E-2,3E0,1.0342233E-1,2.876998E-2,-1.0490444E0,1.3873195E5,-3.5121094E-2,1E0,-2.2080256E-2,1.3493739E-2,-2.8934011E-2,2.5775973E-2,2.9192703E-2,-2.0746363E-2,1.7471745E-3,-2.790288E-2,1.9573454E-2,6.380899E-2,-1.5598701E-2,4.1658327E-2,2.3383273E-2,9.3482286E-2,6.2017128E-2,2.8676197E-3,7.674083E-2,1.4176427E-2,2.245611E-2,-1.8286819E-2],"split_indices":[0,1,2,1,7,0,1,5,7,10,0,1,0,4,0,7,6,0,0,0,0,7,1,1,0,5,7,0,6,0,6,0,6,0,5,6,0,0,1,0,0,7,6,0,3,0,0,0,0,0,0,0,0,0,0,0,0,0,0,0,0,0,0,0,0],"split_type":[0,0,0,0,0,0,0,0,0,0,0,0,0,0,0,0,0,0,0,0,0,0,0,0,0,0,0,0,0,0,0,0,0,0,0,0,0,0,0,0,0,0,0,0,0,0,0,0,0,0,0,0,0,0,0,0,0,0,0,0,0,0,0,0,0],"sum_hessian":[1.1081996E3,7.1060944E2,3.9759018E2,6.874363E2,2.3173166E1,2.013016E2,1.9628857E2,3.6028406E2,3.2715222E2,1.1558021E1,1.1615146E1,1.0202572E2,9.927589E1,1.855592E2,1.0729368E1,2.6848944E2,9.179462E1,1.9206476E2,1.3508748E2,8.030982E0,3.5270388E0,5.902673E1,4.299899E1,5.532152E1,4.395437E1,8.427238E1,1.0128683E2,7.225432E1,1.9623514E2,1.1408943E1,8.038567E1,9.365999E1,4.1427483E1,2.8566532E1,3.0460197E1,3.554386E1,7.455127E0,3.792882E1,1.73927E1,4.1454792E1,2.499574E0,5.8500538E1,2.5771837E1,5.111193E1,5.0174896E1,1.9012817E1,5.32415E1,1.8424E2,1.1995133E1,6.631696E1,1.4068706E1,1.6655586E1,2.4771896E1,1.8187084E1,1.2273112E1,3.290104E1,2.6428227E0,1.3255746E1,4.136954E0,1.7474068E1,4.102647E1,2.006198E1,5.709858E0,2.2466232E1,2.7708664E1],"tree_param":{"num_deleted":"0","num_feature":"11","num_nodes":"65","size_leaf_vector":"1"}},{"base_weights":[-4.8184646E-3,-3.2587638E-1,1.1253756E0,-4.200886E-1,1.9919088E0,1.5992522E0,5.8184594E-1,-7.598864E-2,-8.1885505E-1,1.4388893E0,1.0035356E-1,7.684224E-2,1.0233035E0,4.3452016E-1,9.195616E-2,2.9779315E-1,-4.56315E-1,-4.1337725E-2,-6.11524E-1,9.3671335E-3,7.525381E-2,1.5570949E-1,9.494179E-2,8.8914454E-1,-2.8258425E-1,-4.83527E-2,1.0297298E0,-6.619034E-1,1.4784177E-1,-3.5404373E-2,-4.0686658E-1,-3.191006E-2,4.2670954E-2,5.796287E-1,6.107389E-2,-3.829774E-2,1.1125288E-2,-8.746421E-3,1.6631942E-2,3.1828016E-2,8.529568E-2,-1.1863823E-2,-3.4027785E-2,-1.2531634E-2,2.7970457E-2,-3.4800041E-3,-2.6907902E-2,5.9557106E-2,1.0713831E-4,-1.836301E-2,2.4171207E-2],"categories":[],"categories_nodes":[],"categories_segments":[],"categories_sizes":[],"default_left":[0,0,0,0,0,0,0,0,0,0,0,0,0,0,0,0,0,0,0,0,0,0,0,0,0,0,0,0,0,0,0,0,0,0,0,0,0,0,0,0,0,0,0,0,0,0,0,0,0,0,0],"id":7,"left_children":[1,3,5,7,9,11,13,15,17,19,-1,-1,21,23,-1,25,27,-1,29,-1,-1,31,-1,33,35,37,39,41,43,-1,45,-1,-1,47,-1,-1,49,-1,-1,-1,-1,-1,-1,-1,-1,-1,-1,-1,-1,-1,-1],"loss_changes":[3.994544E2,1.8804099E2,6.1797516E1,1.13091736E2,4.4004974E0,1.6754272E1,2.6673958E1,6.322133E1,1.3320587E1,7.2960014E0,0E0,0E0,4.4996952E1,3.5044357E1,0E0,5.6906624E1,2.746733E1,0E0,8.408005E0,0E0,0E0,2.140759E1,0E0,1.09284935E1,7.9246225E0,1.1234811E1,1.7882607E1,9.490547E0,1.3602413E1,0E0,7.5677414E0,0E0,0E0,2.1871922E1,0E0,0E0,7.9794693E0,0E0,0E0,0E0,0E0,0E0,0E0,0E0,0E0,0E0,0E0,0E0,0E0,0E0,0E0],"parents":[2147483647,0,0,1,1,2,2,3,3,4,4,5,5,6,6,7,7,8,8,9,9,12,12,13,13,15,15,16,16,18,18,21,21,23,23,24,24,25,25,26,26,27,27,28,28,30,30,33,33,36,36],"right_children":[2,4,6,8,10,12,14,16,18,20,-1,-1,22,24,-1,26,28,-1,30,-1,-1,32,-1,34,36,38,40,42,44,-1,46,-1,-1,48,-1,-1,50,-1,-1,-1,-1,-1,-1,-1,-1,-1,-1,-1,-1,-1,-1],"split_conditions":[1E0,3E0,1E0,2E0,-2.2163135E-1,2E0,3E0,1E0,-7.9174232E0,4.59512E0,1.0035356E-1,7.684224E-2,4.691348E0,4.0943446E0,9.195616E-2,3.713572E0,1E0,-4.1337725E-2,4.248495E0,9.3671335E-3,7.525381E-2,-6.6829056E-1,9.494179E-2,1E0,4.543295E0,1E0,3.8286414E0,7.670587E4,3.637586E0,-3.5404373E-2,1E0,-3.191006E-2,4.2670954E-2,6.625071E4,6.107389E-2,-3.829774E-2,8.600621E4,-8.746421E-3,1.6631942E-2,3.1828016E-2,8.529568E-2,-1.1863823E-2,-3.4027785E-2,-1.2531634E-2,2.7970457E-2,-3.4800041E-3,-2.6907902E-2,5.9557106E-2,1.0713831E-4,-1.836301E-2,2.4171207E-2],"split_indices":[8,1,2,1,7,1,1,2,7,4,0,0,4,4,0,4,5,0,4,0,0,7,0,5,4,5,4,6,4,0,3,0,0,6,0,0,6,0,0,0,0,0,0,0,0,0,0,0,0,0,0],"split_type":[0,0,0,0,0,0,0,0,0,0,0,0,0,0,0,0,0,0,0,0,0,0,0,0,0,0,0,0,0,0,0,0,0,0,0,0,0,0,0,0,0,0,0,0,0,0,0,0,0,0,0],"sum_hessian":[1.0988461E3,8.5630457E2,2.4254155E2,8.2364417E2,3.266034E1,1.2853548E2,1.1400608E2,4.427666E2,3.808776E2,1.6063671E1,1.6596668E1,8.809555E1,4.043993E1,1.0572299E2,8.283085E0,2.2341402E2,2.1935257E2,2.0398955E2,1.7688806E2,4.14642E0,1.1917252E1,2.4626074E1,1.5813856E1,6.455622E1,4.1166767E1,1.5231534E2,7.109869E1,1.6358923E2,5.5763336E1,7.987365E1,9.701441E1,1.20106535E1,1.2615419E1,4.3411377E1,2.1144846E1,1.2289644E1,2.8877123E1,1.12270386E2,4.0044952E1,5.791218E1,1.3186504E1,4.89723E1,1.1461693E2,3.0280874E1,2.5482462E1,4.1988155E1,5.5026253E1,1.6911505E1,2.6499874E1,1.6222015E1,1.2655108E1],"tree_param":{"num_deleted":"0","num_feature":"11","num_nodes":"51","size_leaf_vector":"1"}},{"base_weights":[-1.2917822E-3,-4.3651915E-1,8.4502995E-1,-5.1379347E-1,1.6119295E0,1.3966757E0,2.8659523E-1,-1.9419989E-1,-8.679446E-1,7.080508E-1,8.463904E-2,8.445089E-1,1.8307897E0,1.6749309E-1,8.74056E-2,9.410493E-2,-4.9560958E-1,-4.2726416E-2,-2.7716925E-2,6.50061E-2,1.528841E-3,5.0309405E-2,2.6828486E-1,1.527318E0,8.973592E-2,5.459862E-1,-3.8714573E-1,-8.2979314E-2,8.357398E-1,-6.311944E-1,-7.9685025E-2,-3.483884E-1,9.244343E-2,7.519375E-2,8.332124E-1,1.7303975E-1,1.3716115E0,-3.8331077E-2,1.7518476E-1,9.795146E-3,-1.3395242E-2,4.1075516E-2,-1.1901311E-2,-8.995107E-3,-3.5911378E-2,-2.3940293E-2,1.1226481E-2,-2.254268E-2,5.0774686E-2,-1.151355E-2,6.085303E-2,3.635191E-2,-7.583754E-3,-1.8934077E-2,6.429329E-2,1.627161E-2,-2.559175E-2],"categories":[],"categories_nodes":[],"categories_segments":[],"categories_sizes":[],"default_left":[0,0,0,0,0,0,0,0,0,0,0,0,0,0,0,0,0,0,0,0,0,0,0,0,0,0,0,0,0,0,0,0,0,0,0,0,0,0,0,0,0,0,0,0,0,0,0,0,0,0,0,0,0,0,0,0,0],"id":8,"left_children":[1,3,5,7,9,11,13,15,17,19,-1,21,23,25,-1,27,29,-1,-1,-1,-1,-1,31,33,-1,35,37,39,41,43,45,47,-1,-1,49,51,53,-1,55,-1,-1,-1,-1,-1,-1,-1,-1,-1,-1,-1,-1,-1,-1,-1,-1,-1,-1],"loss_changes":[4.10696E2,1.1738246E2,1.1624924E2,8.022792E1,8.93029E0,4.4052704E1,4.0637505E1,3.2603943E1,1.0155151E1,5.7876487E0,0E0,1.7733715E1,7.239197E0,3.7759514E1,0E0,2.5328957E1,1.0288101E1,0E0,0E0,0E0,0E0,0E0,4.2444515E1,9.920456E0,0E0,3.2625744E1,2.2175478E1,1.1989895E1,6.652296E0,1.3159233E1,8.181913E0,8.93038E0,0E0,0E0,1.3523243E1,1.8788364E1,1.131369E1,0E0,6.4900284E0,0E0,0E0,0E0,0E0,0E0,0E0,0E0,0E0,0E0,0E0,0E0,0E0,0E0,0E0,0E0,0E0,0E0,0E0],"parents":[2147483647,0,0,1,1,2,2,3,3,4,4,5,5,6,6,7,7,8,8,9,9,11,11,12,12,13,13,15,15,16,16,22,22,23,23,25,25,26,26,27,27,28,28,29,29,30,30,31,31,34,34,35,35,36,36,38,38],"right_children":[2,4,6,8,10,12,14,16,18,20,-1,22,24,26,-1,28,30,-1,-1,-1,-1,-1,32,34,-1,36,38,40,42,44,46,48,-1,-1,50,52,54,-1,56,-1,-1,-1,-1,-1,-1,-1,-1,-1,-1,-1,-1,-1,-1,-1,-1,-1,-1],"split_conditions":[4.3E1,3E0,1E0,2E0,-8.445757E0,4.8E1,3E0,1E0,-6.7597194E0,-1.1781475E1,8.463904E-2,2E0,5.4E1,2E0,8.74056E-2,4E1,1E0,-4.2726416E-2,-2.7716925E-2,6.50061E-2,1.528841E-3,5.0309405E-2,3E0,2E0,8.973592E-2,1E0,-9.2633086E-1,1E0,7.69E2,-3.8944462E-1,3.3E1,1.5207694E5,9.244343E-2,7.519375E-2,-6.6829056E-1,6.625071E4,9.525272E4,-3.8331077E-2,1.3800806E5,9.795146E-3,-1.3395242E-2,4.1075516E-2,-1.1901311E-2,-8.995107E-3,-3.5911378E-2,-2.3940293E-2,1.1226481E-2,-2.254268E-2,5.0774686E-2,-1.151355E-2,6.085303E-2,3.635191E-2,-7.583754E-3,-1.8934077E-2,6.429329E-2,1.627161E-2,-2.559175E-2],"split_indices":[0,1,2,1,7,0,1,2,7,7,0,1,0,1,0,0,5,0,0,0,0,0,1,1,0,5,7,3,10,7,0,6,0,0,7,6,6,0,6,0,0,0,0,0,0,0,0,0,0,0,0,0,0,0,0,0,0],"split_type":[0,0,0,0,0,0,0,0,0,0,0,0,0,0,0,0,0,0,0,0,0,0,0,0,0,0,0,0,0,0,0,0,0,0,0,0,0,0,0,0,0,0,0,0,0,0,0,0,0,0,0,0,0,0,0,0,0],"sum_hessian":[1.112983E3,7.353222E2,3.776608E2,7.093137E2,2.60085E1,1.8923013E2,1.8843066E2,3.736617E2,3.3565198E2,9.169087E0,1.683941E1,8.4586525E1,1.046436E2,1.7786285E2,1.0567817E1,1.9133421E2,1.823275E2,1.8444197E2,1.5121002E2,3.4445384E0,5.7245493E0,5.104681E1,3.3539715E1,5.734418E1,4.729942E1,1.05728134E2,7.213472E1,1.5517123E2,3.616298E1,1.3711319E2,4.5214306E1,2.612619E1,7.4135246E0,3.9626522E1,1.7717663E1,7.3663086E1,3.2065052E1,3.6628143E1,3.5506573E1,6.656425E1,8.860699E1,3.1935474E1,4.227504E0,5.0016327E1,8.709686E1,1.842399E1,2.6790318E1,2.3834612E1,2.2915778E0,6.6251006E0,1.1092562E1,2.4279749E1,4.9383335E1,2.6712925E0,2.9393759E1,2.8276606E1,7.229968E0],"tree_param":{"num_deleted":"0","num_feature":"11","num_nodes":"57","size_leaf_vector":"1"}},{"base_weights":[-2.773128E-3,-4.412617E-1,7.20003E-1,-5.1115227E-1,1.5308782E0,1.1740643E0,2.4054003E-1,-2.0496221E-1,-8.70239E-1,9.150964E-1,8.419875E-2,8.7610686E-1,1.8956153E0,1.0830664E-1,7.8839704E-2,-4.088521E-1,3.58908E-1,-4.132776E-2,-2.8288456E-2,7.857951E-2,4.4687533E-1,1.1924416E0,3.3498022E-1,8.213048E-2,2.4625925E-2,6.18801E-1,-4.587569E-1,2.643452E-2,-5.8323365E-1,-1.4541219E-1,2.8194526E-2,-1.2872559E-2,4.560697E-2,9.039327E-1,7.085728E-2,-1.6460736E-1,9.018178E-2,3.6973435E-1,4.608187E-2,-3.4981895E-2,-9.142364E-2,-1.8762521E-2,7.26283E-3,-1.500523E-2,-3.3318892E-2,8.5377265E-3,-2.0843728E-2,5.884933E-2,2.2876699E-2,-2.5706913E-2,1.0542271E-2,4.4585492E-2,2.4658148E-3,7.235425E-3,-2.3609845E-2],"categories":[],"categories_nodes":[],"categories_segments":[],"categories_sizes":[],"default_left":[0,0,0,0,0,0,0,0,0,0,0,0,0,0,0,0,0,0,0,0,0,0,0,0,0,0,0,0,0,0,0,0,0,0,0,0,0,0,0,0,0,0,0,0,0,0,0,0,0,0,0,0,0,0,0],"id":9,"left_children":[1,3,5,7,9,11,13,15,17,19,-1,21,23,25,-1,27,29,-1,-1,-1,31,33,35,-1,-1,37,39,41,43,45,-1,-1,-1,47,-1,49,-1,51,-1,-1,53,-1,-1,-1,-1,-1,-1,-1,-1,-1,-1,-1,-1,-1,-1],"loss_changes":[3.45758E2,9.437402E1,8.940024E1,7.2005905E1,5.3108788E0,4.3771088E1,4.396519E1,4.103739E1,6.4326324E0,4.773265E0,0E0,2.552008E1,5.242874E0,5.4643642E1,0E0,1.9878887E1,1.5407911E1,0E0,0E0,0E0,5.0752554E0,1.2536118E1,5.2849106E1,0E0,0E0,1.1705837E1,1.2522173E1,5.4535847E0,8.7841835E0,4.810593E0,0E0,0E0,0E0,1.0630684E1,0E0,8.880179E0,0E0,1.46274185E1,0E0,0E0,6.0272293E0,0E0,0E0,0E0,0E0,0E0,0E0,0E0,0E0,0E0,0E0,0E0,0E0,0E0,0E0],"parents":[2147483647,0,0,1,1,2,2,3,3,4,4,5,5,6,6,7,7,8,8,9,9,11,11,12,12,13,13,15,15,16,16,20,20,21,21,22,22,25,25,26,26,27,27,28,28,29,29,33,33,35,35,37,37,40,40],"right_children":[2,4,6,8,10,12,14,16,18,20,-1,22,24,26,-1,28,30,-1,-1,-1,32,34,36,-1,-1,38,40,42,44,46,-1,-1,-1,48,-1,50,-1,52,-1,-1,54,-1,-1,-1,-1,-1,-1,-1,-1,-1,-1,-1,-1,-1,-1],"split_conditions":[4.2E1,3E0,1E0,2E0,-2.2163135E-1,5.2E1,3E0,1E0,-5.711225E-1,-1.1827635E1,8.419875E-2,2E0,6.8E1,4.1743875E0,7.8839704E-2,-5.899377E-1,3.3E1,-4.132776E-2,-2.8288456E-2,7.857951E-2,-9.02922E0,1E0,3E0,8.213048E-2,2.4625925E-2,1E0,-5.711225E-1,3.1E1,1E0,1E0,2.8194526E-2,-1.2872559E-2,4.560697E-2,-5.899377E-1,7.085728E-2,-6.150652E-1,9.018178E-2,-9.2633086E-1,4.608187E-2,-3.4981895E-2,6.4E1,-1.8762521E-2,7.26283E-3,-1.500523E-2,-3.3318892E-2,8.5377265E-3,-2.0843728E-2,5.884933E-2,2.2876699E-2,-2.5706913E-2,1.0542271E-2,4.4585492E-2,2.4658148E-3,7.235425E-3,-2.3609845E-2],"split_indices":[0,1,2,1,7,0,1,5,7,7,0,1,0,4,0,7,0,0,0,0,7,5,1,0,0,5,7,0,2,2,0,0,0,7,0,7,0,7,0,0,0,0,0,0,0,0,0,0,0,0,0,0,0,0,0],"split_type":[0,0,0,0,0,0,0,0,0,0,0,0,0,0,0,0,0,0,0,0,0,0,0,0,0,0,0,0,0,0,0,0,0,0,0,0,0,0,0,0,0,0,0,0,0,0,0,0,0,0,0,0,0,0,0],"sum_hessian":[1.0889609E3,6.780164E2,4.1094458E2,6.5552606E2,2.2490335E1,2.1031923E2,2.0062535E2,3.5467157E2,3.0085446E2,1.1295614E1,1.119472E1,1.5041927E2,5.9899963E1,1.867824E2,1.3842967E1,2.6068527E2,9.39863E1,1.7911028E2,1.21744194E2,2.6771164E0,8.618498E0,9.416699E1,5.625227E1,5.5914494E1,3.985469E0,9.8245995E1,8.85364E1,7.48057E1,1.8587958E2,3.66678E1,5.7318497E1,4.2268634E0,4.391634E0,6.2027103E1,3.213989E1,4.4931274E1,1.1320993E1,6.63067E1,3.1939287E1,4.2707394E1,4.5829006E1,1.7234375E1,5.757133E1,9.3504074E1,9.23755E1,1.8684921E1,1.7982882E1,2.4094967E1,3.7932137E1,2.1316122E1,2.3615154E1,1.9552864E1,4.675384E1,2.9841957E1,1.5987048E1],"tree_param":{"num_deleted":"0","num_feature":"11","num_nodes":"55","size_leaf_vector":"1"}},{"base_weights":[2.83202E-2,-3.1762543E-1,8.8906604E-1,-3.9893037E-1,6.894706E-2,1.4020627E0,3.764522E-1,-5.963751E-2,-8.0434215E-1,1.1196325E0,7.532946E-2,5.907285E-1,-2.565967E-2,-2.9241443E-1,4.3316415E-1,-3.9690394E-2,-2.5005374E-2,1.4463822E0,7.8113604E-1,4.6658918E-1,8.081428E-2,-8.232512E-2,-5.0180644E-1,1.8170872E-1,1.0457902E0,1.734091E0,9.7276026E-1,2.4100183E-1,1.0852023E0,7.580803E-1,-5.1086433E-2,2.8181383E-2,-7.33604E-3,2.1737132E-2,-2.21635E-2,2.096719E-2,-8.767595E-3,-2.2263167E-2,5.2884392E-2,8.372154E-2,2.1861816E-2,5.6852424E-3,5.6981996E-2,2.9218959E-2,-1.8303465E-2,-4.0796455E-3,5.3251687E-2,1.9984743E-2,5.1538464E-2,-2.7739193E-2,2.5624339E-2],"categories":[],"categories_nodes":[],"categories_segments":[],"categories_sizes":[],"default_left":[0,0,0,0,0,0,0,0,0,0,0,0,0,0,0,0,0,0,0,0,0,0,0,0,0,0,0,0,0,0,0,0,0,0,0,0,0,0,0,0,0,0,0,0,0,0,0,0,0,0,0],"id":10,"left_children":[1,3,5,7,-1,9,11,13,15,17,-1,19,-1,21,23,-1,-1,25,27,29,-1,31,33,35,37,39,41,43,45,47,49,-1,-1,-1,-1,-1,-1,-1,-1,-1,-1,-1,-1,-1,-1,-1,-1,-1,-1,-1,-1],"loss_changes":[3.247756E2,1.25715485E2,8.169736E1,1.0285968E2,0E0,1.6056335E1,3.396546E1,4.697035E1,9.836014E0,9.37764E0,0E0,2.0994225E1,0E0,1.2185818E1,2.005344E1,0E0,0E0,4.7401047E0,7.759119E0,1.82476E1,0E0,1.0146355E1,4.7741737E0,1.207245E1,1.4326881E1,8.454033E0,6.5086193E0,6.254257E0,7.317295E0,9.728806E0,1.8690327E1,0E0,0E0,0E0,0E0,0E0,0E0,0E0,0E0,0E0,0E0,0E0,0E0,0E0,0E0,0E0,0E0,0E0,0E0,0E0,0E0],"parents":[2147483647,0,0,1,1,2,2,3,3,5,5,6,6,7,7,8,8,9,9,11,11,13,13,14,14,17,17,18,18,19,19,21,21,22,22,23,23,24,24,25,25,26,26,27,27,28,28,29,29,30,30],"right_children":[2,4,6,8,-1,10,12,14,16,18,-1,20,-1,22,24,-1,-1,26,28,30,-1,32,34,36,38,40,42,44,46,48,50,-1,-1,-1,-1,-1,-1,-1,-1,-1,-1,-1,-1,-1,-1,-1,-1,-1,-1,-1,-1],"split_conditions":[4.5E1,3E0,1E0,2E0,6.894706E-2,5.2E1,6.4E1,3.9E1,-6.4275855E-1,1E0,7.532946E-2,3E0,-2.565967E-2,1E0,1E0,-3.9690394E-2,-2.5005374E-2,3.9318256E0,9.092075E4,2E0,8.081428E-2,-1.1246646E1,-1.2045514E1,1E0,9.092075E4,4.3070227E-1,8.232188E4,2E0,3.8501475E0,1E0,-5.899377E-1,2.8181383E-2,-7.33604E-3,2.1737132E-2,-2.21635E-2,2.096719E-2,-8.767595E-3,-2.2263167E-2,5.2884392E-2,8.372154E-2,2.1861816E-2,5.6852424E-3,5.6981996E-2,2.9218959E-2,-1.8303465E-2,-4.0796455E-3,5.3251687E-2,1.9984743E-2,5.1538464E-2,-2.7739193E-2,2.5624339E-2],"split_indices":[0,1,9,1,0,0,0,0,7,3,0,1,0,9,5,0,0,4,6,1,0,7,7,9,6,7,6,1,4,5,7,0,0,0,0,0,0,0,0,0,0,0,0,0,0,0,0,0,0,0,0],"split_type":[0,0,0,0,0,0,0,0,0,0,0,0,0,0,0,0,0,0,0,0,0,0,0,0,0,0,0,0,0,0,0,0,0,0,0,0,0,0,0,0,0,0,0,0,0,0,0,0,0,0,0],"sum_hessian":[1.0887397E3,7.770597E2,3.1168002E2,7.47129E2,2.9930645E1,1.5491461E2,1.5676541E2,4.0735608E2,3.3977298E2,9.4001045E1,6.0913578E1,1.2929701E2,2.7468395E1,2.7694608E2,1.3041E2,1.9265862E2,1.4711436E2,4.6165073E1,4.7835968E1,1.1967018E2,9.626826E0,1.3893828E2,1.380078E2,9.337881E1,3.703119E1,2.7063559E1,1.9101513E1,1.7875343E1,2.9960625E1,7.626355E1,4.340663E1,1.4631806E1,1.24306465E2,3.65642E0,1.3435138E2,5.1089897E1,4.228891E1,4.4746084E0,3.255658E1,2.1419497E1,5.6440635E0,6.5998807E0,1.2501633E1,1.0632811E1,7.2425337E0,4.3336005E0,2.5627024E1,4.9695976E1,2.6567574E1,2.257012E1,2.0836514E1],"tree_param":{"num_deleted":"0","num_feature":"11","num_nodes":"51","size_leaf_vector":"1"}},{"base_weights":[-1.51260495E-2,-4.4127953E-1,6.6166204E-1,-5.0949E-1,6.164086E-2,1.0806912E0,1.851392E-1,-2.3129776E-1,-8.333962E-1,6.143041E-1,1.5377908E0,6.675022E-2,7.2999805E-2,-4.2652467E-1,2.9277793E-1,-4.0567562E-2,-6.2904894E-1,4.9179843E-1,7.954284E-2,4.9811114E-2,7.3032476E-2,4.93849E-1,-4.5235342E-1,-3.0908061E-2,-5.9379697E-1,-2.8437851E-2,4.9413592E-1,-3.1520125E-2,-3.4213403E-1,8.854361E-1,-2.929849E-1,8.011873E-2,4.445177E-1,-3.8950898E-2,3.6748838E-2,9.291245E-3,-1.2200253E-2,-2.7563252E-2,1.5973179E-2,3.190722E-2,-2.5771966E-2,2.9666705E-2,-1.8175833E-2,5.744841E-2,2.8561382E-2,-2.3127556E-2,8.690404E-3,1.0223703E-2,3.4742214E-2,1.1281445E-2,-2.972324E-2],"categories":[],"categories_nodes":[],"categories_segments":[],"categories_sizes":[],"default_left":[0,0,0,0,0,0,0,0,0,0,0,0,0,0,0,0,0,0,0,0,0,0,0,0,0,0,0,0,0,0,0,0,0,0,0,0,0,0,0,0,0,0,0,0,0,0,0,0,0,0,0],"id":11,"left_children":[1,3,5,7,-1,9,11,13,15,17,19,21,-1,23,25,-1,27,29,-1,-1,-1,31,33,35,37,-1,39,-1,41,43,45,-1,47,-1,49,-1,-1,-1,-1,-1,-1,-1,-1,-1,-1,-1,-1,-1,-1,-1,-1],"loss_changes":[3.145725E2,8.861571E1,8.3949646E1,5.8115143E1,0E0,4.6816406E1,3.6795425E1,3.5882774E1,8.102203E0,1.6982285E1,6.27359E0,4.1358078E1,0E0,1.6859344E1,1.911803E1,0E0,4.408684E0,3.245139E1,0E0,0E0,0E0,6.37829E0,2.0023834E1,5.203062E0,1.2438377E1,0E0,2.4790808E1,0E0,4.426544E0,5.908062E0,4.8226757E0,0E0,7.5787563E0,0E0,7.7705903E0,0E0,0E0,0E0,0E0,0E0,0E0,0E0,0E0,0E0,0E0,0E0,0E0,0E0,0E0,0E0,0E0],"parents":[2147483647,0,0,1,1,2,2,3,3,5,5,6,6,7,7,8,8,9,9,10,10,11,11,13,13,14,14,16,16,17,17,21,21,22,22,23,23,24,24,26,26,28,28,29,29,30,30,32,32,34,34],"right_children":[2,4,6,8,-1,10,12,14,16,18,20,22,-1,24,26,-1,28,30,-1,-1,-1,32,34,36,38,-1,40,-1,42,44,46,-1,48,-1,50,-1,-1,-1,-1,-1,-1,-1,-1,-1,-1,-1,-1,-1,-1,-1,-1],"split_conditions":[4.2E1,4.4308167E0,1E0,2E0,6.164086E-2,4.8E1,3E0,1E0,-5.711225E-1,3E0,5.2E1,4.204693E0,7.2999805E-2,7.149779E4,9.704116E4,-4.0567562E-2,4.304065E0,2E0,7.954284E-2,4.9811114E-2,7.3032476E-2,-1.2082664E1,-5.711225E-1,1E0,1.6974264E5,-2.8437851E-2,1.4445375E5,-3.1520125E-2,-3.998788E-1,5.81E2,1.0791594E5,8.011873E-2,1E0,-3.8950898E-2,6.8E1,9.291245E-3,-1.2200253E-2,-2.7563252E-2,1.5973179E-2,3.190722E-2,-2.5771966E-2,2.9666705E-2,-1.8175833E-2,5.744841E-2,2.8561382E-2,-2.3127556E-2,8.690404E-3,1.0223703E-2,3.4742214E-2,1.1281445E-2,-2.972324E-2],"split_indices":[0,4,9,1,0,0,1,5,7,1,0,4,0,6,6,0,4,1,0,0,0,7,7,9,6,0,6,0,7,10,6,0,5,0,0,0,0,0,0,0,0,0,0,0,0,0,0,0,0,0,0],"split_type":[0,0,0,0,0,0,0,0,0,0,0,0,0,0,0,0,0,0,0,0,0,0,0,0,0,0,0,0,0,0,0,0,0,0,0,0,0,0,0,0,0,0,0,0,0,0,0,0,0,0,0],"sum_hessian":[1.0886794E3,6.6825006E2,4.2042935E2,6.460877E2,2.2162365E1,2.2303564E2,1.973937E2,3.484929E2,2.975948E2,1.11556465E2,1.1147919E2,1.8453496E2,1.2858761E1,2.5404358E2,9.444931E1,1.7292967E2,1.2466512E2,1.0320802E2,8.348439E0,4.6369568E1,6.510963E1,1.0126588E2,8.326907E1,7.584558E1,1.7819798E2,1.5727939E1,7.8721375E1,8.476857E1,3.9896553E1,6.864719E1,3.456084E1,2.101006E0,9.916487E1,4.1350197E1,4.191888E1,3.8598797E1,3.7246784E1,1.6667674E2,1.1521251E1,6.344817E1,1.5273206E1,2.7637687E0,3.7132782E1,1.7860184E1,5.0787E1,2.259288E1,1.1967958E1,6.6886246E1,3.2278625E1,3.2434036E1,9.484842E0],"tree_param":{"num_deleted":"0","num_feature":"11","num_nodes":"51","size_leaf_vector":"1"}},{"base_weights":[-6.00964E-4,-2.7000785E-1,8.831395E-1,-3.4614053E-1,1.4159604E0,1.2065288E0,4.7958425E-1,-5.9051916E-2,-7.162598E-1,6.936551E-1,7.471362E-2,9.6743923E-1,6.6071294E-2,3.6149338E-1,7.221557E-2,-2.8982624E-1,3.154218E-1,-3.7549775E-2,-4.6838754E-1,4.8450574E-2,-1.078865E-3,5.2849784E-2,6.36768E-1,7.6405597E-1,-1.4086935E-1,-4.5483854E-1,1.537297E-1,6.7782027E-1,-1.00715704E-1,-2.9748283E-2,-1.6135316E-1,2.5306898E-1,9.666181E-1,1.4009244E0,2.40459E-2,-5.186436E-1,1.4624953E-1,-2.0417024E-3,-2.519653E-2,-2.595399E-2,1.3280021E-2,2.0358535E-2,6.956005E-2,-1.2942954E-2,2.1051105E-2,4.460905E-2,-8.99588E-3,3.820722E-2,-2.7699085E-2,2.9569663E-2,8.9756295E-2,7.150638E-2,4.7077793E-3,2.859308E-2,-2.8559735E-2,-1.5229963E-2,2.2950882E-2],"categories":[],"categories_nodes":[],"categories_segments":[],"categories_sizes":[],"default_left":[0,0,0,0,0,0,0,0,0,0,0,0,0,0,0,0,0,0,0,0,0,0,0,0,0,0,0,0,0,0,0,0,0,0,0,0,0,0,0,0,0,0,0,0,0,0,0,0,0,0,0,0,0,0,0,0,0],"id":12,"left_children":[1,3,5,7,9,11,13,15,17,19,-1,21,-1,23,-1,25,27,-1,29,-1,-1,-1,31,33,35,37,39,41,43,-1,45,47,49,51,-1,53,55,-1,-1,-1,-1,-1,-1,-1,-1,-1,-1,-1,-1,-1,-1,-1,-1,-1,-1,-1,-1],"loss_changes":[2.5665903E2,1.0653329E2,3.2289566E1,8.403519E1,8.655937E0,1.1219498E1,1.626629E1,3.8695274E1,1.5625381E1,4.803267E0,0E0,8.073944E0,0E0,2.138382E1,0E0,2.0337067E1,2.5826641E1,0E0,1.1346462E1,0E0,0E0,0E0,5.3631554E0,6.103821E0,5.243857E0,1.239127E1,9.98779E0,1.6291996E1,1.0445352E1,0E0,4.90331E0,1.39950695E1,5.6062813E0,4.95327E0,0E0,4.7046795E0,6.0012794E0,0E0,0E0,0E0,0E0,0E0,0E0,0E0,0E0,0E0,0E0,0E0,0E0,0E0,0E0,0E0,0E0,0E0,0E0,0E0,0E0],"parents":[2147483647,0,0,1,1,2,2,3,3,4,4,5,5,6,6,7,7,8,8,9,9,11,11,13,13,15,15,16,16,18,18,22,22,23,23,24,24,25,25,26,26,27,27,28,28,30,30,31,31,32,32,33,33,35,35,36,36],"right_children":[2,4,6,8,10,12,14,16,18,20,-1,22,-1,24,-1,26,28,-1,30,-1,-1,-1,32,34,36,38,40,42,44,-1,46,48,50,52,-1,54,56,-1,-1,-1,-1,-1,-1,-1,-1,-1,-1,-1,-1,-1,-1,-1,-1,-1,-1,-1,-1],"split_conditions":[1E0,3E0,1E0,2E0,4.957273E4,1E0,3E0,3.6888795E0,-6.4275855E-1,6.61E2,7.471362E-2,1E0,6.6071294E-2,4.060443E0,7.221557E-2,1E0,1E0,-3.7549775E-2,4.304065E0,4.8450574E-2,-1.078865E-3,5.2849784E-2,6.46E2,5.75E2,7.763735E4,-6.9539726E-1,9.983647E4,3.8286414E0,1E0,-2.9748283E-2,7.043801E4,5.8E2,1.5657086E5,3.988984E0,2.40459E-2,2E0,4.543295E0,-2.0417024E-3,-2.519653E-2,-2.595399E-2,1.3280021E-2,2.0358535E-2,6.956005E-2,-1.2942954E-2,2.1051105E-2,4.460905E-2,-8.99588E-3,3.820722E-2,-2.7699085E-2,2.9569663E-2,8.9756295E-2,7.150638E-2,4.7077793E-3,2.859308E-2,-2.8559735E-2,-1.5229963E-2,2.2950882E-2],"split_indices":[8,1,2,1,6,5,1,4,7,10,0,3,0,4,0,5,2,0,4,0,0,0,10,10,6,7,6,4,5,0,6,10,6,4,0,1,4,0,0,0,0,0,0,0,0,0,0,0,0,0,0,0,0,0,0,0,0],"split_type":[0,0,0,0,0,0,0,0,0,0,0,0,0,0,0,0,0,0,0,0,0,0,0,0,0,0,0,0,0,0,0,0,0,0,0,0,0,0,0,0,0,0,0,0,0,0,0,0,0,0,0,0,0,0,0,0,0],"sum_hessian":[1.0760093E3,8.251562E2,2.508531E2,7.902652E2,3.489103E1,1.3815375E2,1.12699356E2,4.4570605E2,3.445591E2,1.3043545E1,2.1847486E1,8.726572E1,5.0888035E1,1.0420662E2,8.492737E0,2.7590317E2,1.698029E2,1.9472356E2,1.4983557E2,7.5005836E0,5.542961E0,4.395758E1,4.3308132E1,5.7560364E1,4.664626E1,2.0107393E2,7.482922E1,9.042571E1,7.937719E1,8.222417E1,6.761141E1,2.0836845E1,2.2471287E1,1.15E1,4.606036E1,1.9794905E1,2.6851355E1,5.503285E1,1.4604108E2,1.2658633E1,6.2170593E1,7.7330696E1,1.3095018E1,5.92892E1,2.008799E1,2.1000597E0,6.551135E1,1.2082209E1,8.754638E0,1.9829712E1,2.641574E0,8.942289E0,2.5577111E0,2.0494401E0,1.7745464E1,1.1909661E1,1.4941693E1],"tree_param":{"num_deleted":"0","num_feature":"11","num_nodes":"57","size_leaf_vector":"1"}},{"base_weights":[1.2189814E-2,-3.7992638E-1,7.088006E-1,-4.4874904E-1,1.2541869E0,1.1029973E0,2.7434617E-1,-1.6948473E-1,-7.9781175E-1,2.8879678E-2,7.297461E-2,8.11784E-1,6.4170964E-2,-2.8292075E-1,6.055832E-1,-3.5149613E-1,2.0784298E-1,-4.1927196E-2,-5.886784E-1,5.660484E-1,1.2560643E0,-3.6103475E-1,4.622734E-2,1.0099659E0,2.4133433E-1,-5.1235235E-1,7.640733E-2,1.9876113E-2,-1.1025772E-1,-3.18913E-2,-3.9019057E-1,4.564852E-1,7.3880516E-2,6.1331075E-2,6.779474E-1,1.5803158E-1,-2.7944442E-2,3.9456406E-1,4.9149785E-2,2.1870293E-2,-2.1356428E-1,-4.4243853E-3,-2.8294569E-2,-4.1815616E-2,7.3673245E-3,1.7149653E-2,-1.1838997E-2,-4.7264714E-3,-2.805965E-2,2.882997E-2,-4.7866353E-3,9.023569E-3,6.615077E-2,-3.1003521E-3,4.130395E-2,-1.2778647E-2,3.6091097E-2,-2.4356509E-2,5.357678E-2],"categories":[],"categories_nodes":[],"categories_segments":[],"categories_sizes":[],"default_left":[0,0,0,0,0,0,0,0,0,0,0,0,0,0,0,0,0,0,0,0,0,0,0,0,0,0,0,0,0,0,0,0,0,0,0,0,0,0,0,0,0,0,0,0,0,0,0,0,0,0,0,0,0,0,0,0,0,0,0],"id":13,"left_children":[1,3,5,7,9,11,13,15,17,-1,-1,19,-1,21,23,25,27,-1,29,31,33,35,-1,37,39,41,43,-1,45,-1,47,49,-1,-1,51,53,-1,55,-1,-1,57,-1,-1,-1,-1,-1,-1,-1,-1,-1,-1,-1,-1,-1,-1,-1,-1,-1,-1],"loss_changes":[2.956256E2,7.844436E1,6.645232E1,6.4714005E1,6.7088394E0,2.4964325E1,3.4644077E1,2.5541973E1,1.24509735E1,0E0,0E0,1.293824E1,0E0,8.064686E0,1.705632E1,1.7284218E1,1.0489264E1,0E0,5.052166E0,1.0118183E1,4.5540695E0,1.0991131E1,0E0,5.4191284E0,8.292901E0,1.2393337E1,7.7501917E0,0E0,5.2829413E0,0E0,5.715376E0,1.0503584E1,0E0,0E0,5.50424E0,5.142012E0,0E0,4.8040724E0,0E0,0E0,1.4763443E1,0E0,0E0,0E0,0E0,0E0,0E0,0E0,0E0,0E0,0E0,0E0,0E0,0E0,0E0,0E0,0E0,0E0,0E0],"parents":[2147483647,0,0,1,1,2,2,3,3,4,4,5,5,6,6,7,7,8,8,11,11,13,13,14,14,15,15,16,16,18,18,19,19,20,20,21,21,23,23,24,24,25,25,26,26,28,28,30,30,31,31,34,34,35,35,37,37,40,40],"right_children":[2,4,6,8,10,12,14,16,18,-1,-1,20,-1,22,24,26,28,-1,30,32,34,36,-1,38,40,42,44,-1,46,-1,48,50,-1,-1,52,54,-1,56,-1,-1,58,-1,-1,-1,-1,-1,-1,-1,-1,-1,-1,-1,-1,-1,-1,-1,-1,-1,-1],"split_conditions":[4.3E1,3E0,1E0,2E0,-2.2163135E-1,5.1E1,1E0,3.8E1,-9.708711E0,2.8879678E-2,7.297461E-2,1E0,6.4170964E-2,3E0,1E0,1E0,1E0,-4.1927196E-2,3.5E1,3E0,2E0,4.204693E0,4.622734E-2,4.7E1,4.0943446E0,7.149779E4,7.824731E4,1.9876113E-2,7.670587E4,-3.18913E-2,1E0,2E0,7.3880516E-2,6.1331075E-2,3E0,1.2202003E0,-2.7944442E-2,7.670587E4,4.9149785E-2,2.1870293E-2,4.7706847E0,-4.4243853E-3,-2.8294569E-2,-4.1815616E-2,7.3673245E-3,1.7149653E-2,-1.1838997E-2,-4.7264714E-3,-2.805965E-2,2.882997E-2,-4.7866353E-3,9.023569E-3,6.615077E-2,-3.1003521E-3,4.130395E-2,-1.2778647E-2,3.6091097E-2,-2.4356509E-2,5.357678E-2],"split_indices":[0,1,2,1,7,0,8,0,7,0,0,5,0,1,3,5,2,0,0,1,1,4,0,0,4,6,6,0,6,0,2,1,0,0,1,7,0,6,0,0,4,0,0,0,0,0,0,0,0,0,0,0,0,0,0,0,0,0,0],"split_type":[0,0,0,0,0,0,0,0,0,0,0,0,0,0,0,0,0,0,0,0,0,0,0,0,0,0,0,0,0,0,0,0,0,0,0,0,0,0,0,0,0,0,0,0,0,0,0,0,0,0,0,0,0,0,0,0,0,0,0],"sum_hessian":[1.0802877E3,6.915019E2,3.8878586E2,6.642515E2,2.7250366E1,2.0303018E2,1.8575568E2,3.6984564E2,2.944059E2,1.4017649E1,1.3232718E1,1.24020935E2,7.900925E1,6.930467E1,1.16451004E2,2.4954243E2,1.2030321E2,1.4459212E2,1.4981378E2,8.131752E1,4.270341E1,6.633257E1,2.9720964E0,5.434519E1,6.2105812E1,1.8122101E2,6.8321434E1,6.474723E1,5.5555973E1,7.731251E1,7.2501274E1,7.58378E1,5.4797206E0,2.9812965E1,1.2890449E1,2.5059452E1,4.127312E1,1.26346035E1,4.1710587E1,3.808855E1,2.4017262E1,5.3652424E1,1.2756858E2,5.0586023E0,6.326283E1,1.3567131E1,4.1988842E1,3.751656E1,3.4984715E1,5.344104E1,2.2396763E1,9.39251E0,3.497938E0,2.0316208E1,4.743244E0,5.2334366E0,7.401167E0,1.97349E1,4.2823625E0],"tree_param":{"num_deleted":"0","num_feature":"11","num_nodes":"59","size_leaf_vector":"1"}},{"base_weights":[-1.1342443E-3,-3.5727304E-1,6.224422E-1,-4.2480472E-1,1.1341069E0,1.027425E0,1.8596525E-1,-1.4828648E-1,-7.743536E-1,4.403351E-1,6.351139E-2,7.007039E-1,5.6377046E-2,7.4359946E-2,6.730723E-2,-3.104131E-1,2.7936378E-1,-3.7624255E-2,-4.6929535E-1,5.1180057E-2,-2.6029795E-3,5.955893E-1,7.3137246E-2,4.836568E-1,-4.3964806E-1,8.450883E-2,-5.052635E-1,-2.5679426E-2,4.7132474E-1,9.8250747E-1,-2.3694834E-2,8.868821E-1,-3.5138414E-3,2.5304693E-1,9.4318825E-1,-3.1977024E-2,-1.18218094E-1,-2.3858305E-2,1.1598395E-2,-2.4363982E-2,3.977118E-2,2.6389148E-2,-2.1168847E-2,7.71944E-2,-2.671633E-3,2.6786007E-2,5.4550458E-2,3.727395E-2,-3.9471867E-3,5.2244864E-2,-7.1215853E-3,1.431821E-3,-3.655568E-2],"categories":[],"categories_nodes":[],"categories_segments":[],"categories_sizes":[],"default_left":[0,0,0,0,0,0,0,0,0,0,0,0,0,0,0,0,0,0,0,0,0,0,0,0,0,0,0,0,0,0,0,0,0,0,0,0,0,0,0,0,0,0,0,0,0,0,0,0,0,0,0,0,0],"id":14,"left_children":[1,3,5,7,9,11,13,15,17,19,-1,21,-1,23,-1,25,27,-1,29,-1,-1,31,-1,33,35,37,39,-1,41,43,-1,45,-1,47,49,-1,51,-1,-1,-1,-1,-1,-1,-1,-1,-1,-1,-1,-1,-1,-1,-1,-1],"loss_changes":[2.360358E2,6.8614075E1,6.810362E1,6.250962E1,7.417591E0,2.0585602E1,2.9829578E1,2.5253325E1,1.1007019E1,4.9020433E0,0E0,1.0370884E1,0E0,3.6966396E1,0E0,2.033242E1,1.7569479E1,0E0,1.3453287E1,0E0,0E0,1.8858082E1,0E0,1.0118296E1,8.175944E0,1.1435772E1,2.1504124E1,0E0,1.3682638E1,5.6955266E0,0E0,6.0115585E0,0E0,1.4975759E1,1.151882E1,0E0,4.7586303E0,0E0,0E0,0E0,0E0,0E0,0E0,0E0,0E0,0E0,0E0,0E0,0E0,0E0,0E0,0E0,0E0],"parents":[2147483647,0,0,1,1,2,2,3,3,4,4,5,5,6,6,7,7,8,8,9,9,11,11,13,13,15,15,16,16,18,18,21,21,23,23,24,24,25,25,26,26,28,28,29,29,31,31,33,33,34,34,36,36],"right_children":[2,4,6,8,10,12,14,16,18,20,-1,22,-1,24,-1,26,28,-1,30,-1,-1,32,-1,34,36,38,40,-1,42,44,-1,46,-1,48,50,-1,52,-1,-1,-1,-1,-1,-1,-1,-1,-1,-1,-1,-1,-1,-1,-1,-1],"split_conditions":[4.3E1,3E0,1E0,2E0,4.957273E4,4.9E1,3E0,1E0,1.0819711E5,-1.1781475E1,6.351139E-2,3E0,5.6377046E-2,4.204693E0,6.730723E-2,8.038781E4,9.916584E4,-3.7624255E-2,1.1092996E5,5.1180057E-2,-2.6029795E-3,2E0,7.3137246E-2,1E0,-5.711225E-1,3.1E1,1.7540612E5,-2.5679426E-2,1.4913445E5,5.8588064E-1,-2.3694834E-2,1E0,-3.5138414E-3,6.833296E4,1.3800806E5,-3.1977024E-2,7.2E1,-2.3858305E-2,1.1598395E-2,-2.4363982E-2,3.977118E-2,2.6389148E-2,-2.1168847E-2,7.71944E-2,-2.671633E-3,2.6786007E-2,5.4550458E-2,3.727395E-2,-3.9471867E-3,5.2244864E-2,-7.1215853E-3,1.431821E-3,-3.655568E-2],"split_indices":[0,1,2,1,6,0,1,5,6,7,0,1,0,4,0,6,6,0,6,0,0,1,0,5,7,0,6,0,6,7,0,5,0,6,6,0,0,0,0,0,0,0,0,0,0,0,0,0,0,0,0,0,0],"split_type":[0,0,0,0,0,0,0,0,0,0,0,0,0,0,0,0,0,0,0,0,0,0,0,0,0,0,0,0,0,0,0,0,0,0,0,0,0,0,0,0,0,0,0,0,0,0,0,0,0,0,0,0,0],"sum_hessian":[1.0608411E3,6.754838E2,3.8535724E2,6.4690625E2,2.8577614E1,1.9918788E2,1.8616934E2,3.6197906E2,2.8492715E2,1.1122751E1,1.7454865E1,1.0155136E2,9.763653E1,1.7370024E2,1.2469102E1,2.626717E2,9.9307396E1,1.9792427E2,8.700288E1,3.7594903E0,7.3632607E0,9.380545E1,7.745911E0,9.673259E1,7.696766E1,8.69692E1,1.7570248E2,1.7109392E1,8.2198006E1,5.086705E0,8.1916176E1,6.546449E1,2.8340961E1,6.5442024E1,3.1290564E1,3.7297146E1,3.9670513E1,1.939038E1,6.757882E1,1.6704338E2,8.659106E0,7.07412E1,1.1456805E1,2.3486001E0,2.738105E0,4.332766E1,2.2136831E1,2.2406975E1,4.303505E1,2.4311813E1,6.9787493E0,3.38404E1,5.8301134E0],"tree_param":{"num_deleted":"0","num_feature":"11","num_nodes":"53","size_leaf_vector":"1"}},{"base_weights":[1.8255038E-2,-4.5687896E-1,4.5981485E-1,-5.0956047E-1,1.136177E0,3.5721537E-1,7.249064E-2,-2.7633336E-1,-7.869913E-1,2.133762E-1,6.425863E-2,6.953738E-1,-2.2571719E-1,-4.6637174E-2,-4.508431E-1,-4.0057324E-2,-2.1384362E-2,4.6135567E-2,-2.2113195E-2,9.942423E-1,2.8870356E-1,-6.4279723E-1,1.7164342E-1,-9.697974E-2,6.1085336E-2,-2.3443012E-2,-4.3578655E-3,5.9325683E-1,5.3242683E-2,-6.031527E-3,5.334048E-1,4.2139027E-2,-3.1198619E-2,-5.75227E-3,6.1816883E-1,-1.1285409E-2,1.0965329E-2,4.304997E-2,1.8586492E-2,2.7982626E-2,-1.4150301E-3,2.6651673E-2,-2.3531541E-2,3.836237E-2,-3.231124E-3],"categories":[],"categories_nodes":[],"categories_segments":[],"categories_sizes":[],"default_left":[0,0,0,0,0,0,0,0,0,0,0,0,0,0,0,0,0,0,0,0,0,0,0,0,0,0,0,0,0,0,0,0,0,0,0,0,0,0,0,0,0,0,0,0,0],"id":15,"left_children":[1,3,5,7,9,11,-1,13,15,17,-1,19,21,23,25,-1,-1,-1,-1,27,29,31,33,35,-1,-1,-1,37,-1,-1,39,41,-1,-1,43,-1,-1,-1,-1,-1,-1,-1,-1,-1,-1],"loss_changes":[2.184041E2,4.2663826E1,7.0491776E1,3.1235275E1,5.863352E0,9.889642E1,0E0,1.062653E1,1.0179962E1,4.732953E0,0E0,3.8271988E1,3.071259E1,8.983821E0,5.8535976E0,0E0,0E0,0E0,0E0,2.0239182E1,1.449425E1,6.710724E0,1.3287127E1,7.192254E0,0E0,0E0,0E0,4.576296E0,0E0,0E0,6.9371967E0,5.1920094E0,0E0,0E0,8.405161E0,0E0,0E0,0E0,0E0,0E0,0E0,0E0,0E0,0E0,0E0],"parents":[2147483647,0,0,1,1,2,2,3,3,4,4,5,5,7,7,8,8,9,9,11,11,12,12,13,13,14,14,19,19,20,20,21,21,22,22,23,23,27,27,30,30,31,31,34,34],"right_children":[2,4,6,8,10,12,-1,14,16,18,-1,20,22,24,26,-1,-1,-1,-1,28,30,32,34,36,-1,-1,-1,38,-1,-1,40,42,-1,-1,44,-1,-1,-1,-1,-1,-1,-1,-1,-1,-1],"split_conditions":[3.9E1,3E0,3E0,3.6888795E0,-9.02922E0,4.189655E0,7.249064E-2,1E0,8.341504E4,-1.1934925E1,6.425863E-2,1E0,-5.899377E-1,1.8116644E5,3.6109178E0,-4.0057324E-2,-2.1384362E-2,4.6135567E-2,-2.2113195E-2,4.5E1,4.4E1,5.39E2,4.543295E0,1E0,6.1085336E-2,-2.3443012E-2,-4.3578655E-3,5.82E2,5.3242683E-2,-6.031527E-3,5.8E1,1E0,-3.1198619E-2,-5.75227E-3,1.3130711E5,-1.1285409E-2,1.0965329E-2,4.304997E-2,1.8586492E-2,2.7982626E-2,-1.4150301E-3,2.6651673E-2,-2.3531541E-2,3.836237E-2,-3.231124E-3],"split_indices":[0,1,1,4,7,4,0,3,6,7,0,2,7,6,4,0,0,0,0,0,0,10,4,5,0,0,0,10,0,0,0,2,0,0,6,0,0,0,0,0,0,0,0,0,0],"split_type":[0,0,0,0,0,0,0,0,0,0,0,0,0,0,0,0,0,0,0,0,0,0,0,0,0,0,0,0,0,0,0,0,0,0,0,0,0,0,0,0,0,0,0,0,0],"sum_hessian":[1.0390092E3,5.0046088E2,5.3854834E2,4.8509906E2,1.536182E1,4.9990146E2,3.8646873E1,2.646296E2,2.2046944E2,5.1949434E0,1.0166877E1,3.162515E2,1.8364996E2,1.1479691E2,1.498327E2,1.3210025E2,8.836919E1,2.1360614E0,3.058882E0,1.8145352E2,1.3479797E2,8.930034E1,9.434963E1,1.1201481E2,2.7821097E0,1.1239321E2,3.7439487E1,7.697881E1,1.044747E2,4.875795E1,8.604003E1,1.2244869E1,7.7055466E1,5.609021E1,3.825942E1,7.565609E1,3.635872E1,1.7576206E1,5.940261E1,6.886474E1,1.7175295E1,6.14176E0,6.10311E0,2.6373756E1,1.1885663E1],"tree_param":{"num_deleted":"0","num_feature":"11","num_nodes":"45","size_leaf_vector":"1"}},{"base_weights":[1.1037125E-2,-3.2404548E-1,5.818223E-1,-3.965161E-1,1.2104664E0,9.3343544E-1,2.0190583E-1,-1.3803785E-1,-7.395533E-1,2.0584028E-2,6.44246E-2,6.130353E-1,5.70108E-2,1.0518984E-1,6.71547E-2,-3.0593863E-1,2.6972473E-1,-3.637505E-2,-4.06002E-1,3.644937E-1,4.4938777E-2,4.8307788E-1,-3.3381763E-1,-4.1752112E-1,1.6959995E-1,4.1777673E-1,-5.610397E-1,3.807905E-2,-4.6743262E-1,2.5250602E-1,6.5298215E-2,2.2142759E-1,4.026245E-2,-3.3400755E-2,9.205613E-3,-3.8292413E-3,-2.2920882E-2,2.4145477E-2,-6.828538E-3,-2.0852622E-2,2.6593106E-2,-3.3690177E-2,3.1311117E-2,-7.312004E-3,-2.844044E-2,2.0238765E-2,-1.364226E-2,3.586889E-2,-5.0184955E-3,1.509573E-2,-1.630875E-2],"categories":[],"categories_nodes":[],"categories_segments":[],"categories_sizes":[],"default_left":[0,0,0,0,0,0,0,0,0,0,0,0,0,0,0,0,0,0,0,0,0,0,0,0,0,0,0,0,0,0,0,0,0,0,0,0,0,0,0,0,0,0,0,0,0,0,0,0,0,0,0],"id":16,"left_children":[1,3,5,7,9,11,13,15,17,-1,-1,19,-1,21,-1,23,25,-1,27,29,-1,31,33,35,37,39,41,-1,43,45,-1,47,-1,-1,49,-1,-1,-1,-1,-1,-1,-1,-1,-1,-1,-1,-1,-1,-1,-1,-1],"loss_changes":[1.9993234E2,7.373082E1,5.1464005E1,5.573522E1,6.5122375E0,2.7334473E1,2.5423946E1,2.4754158E1,1.18918E1,0E0,0E0,1.330611E1,0E0,2.939547E1,0E0,1.3640028E1,1.3227248E1,0E0,6.9347534E0,1.0198681E1,0E0,1.1875668E1,1.3244057E1,8.99662E0,6.870689E0,1.8756554E1,5.995729E0,0E0,4.7620354E0,1.0094118E1,0E0,1.3964347E1,0E0,0E0,7.0335913E0,0E0,0E0,0E0,0E0,0E0,0E0,0E0,0E0,0E0,0E0,0E0,0E0,0E0,0E0,0E0,0E0],"parents":[2147483647,0,0,1,1,2,2,3,3,4,4,5,5,6,6,7,7,8,8,11,11,13,13,15,15,16,16,18,18,19,19,21,21,22,22,23,23,24,24,25,25,26,26,28,28,29,29,31,31,34,34],"right_children":[2,4,6,8,10,12,14,16,18,-1,-1,20,-1,22,-1,24,26,-1,28,30,-1,32,34,36,38,40,42,-1,44,46,-1,48,-1,-1,50,-1,-1,-1,-1,-1,-1,-1,-1,-1,-1,-1,-1,-1,-1,-1,-1],"split_conditions":[4.3E1,3E0,1E0,2E0,-8.445757E0,5E1,3E0,1E0,1.0819711E5,2.0584028E-2,6.44246E-2,1E0,5.70108E-2,4.158883E0,6.71547E-2,4E1,1.4524162E5,-3.637505E-2,1.0986932E5,3E0,4.4938777E-2,1E0,-8.68017E-1,7.149779E4,9.525272E4,9.916584E4,7.56E2,3.807905E-2,1E0,2E0,6.5298215E-2,6.625071E4,4.026245E-2,-3.3400755E-2,5.8E1,-3.8292413E-3,-2.2920882E-2,2.4145477E-2,-6.828538E-3,-2.0852622E-2,2.6593106E-2,-3.3690177E-2,3.1311117E-2,-7.312004E-3,-2.844044E-2,2.0238765E-2,-1.364226E-2,3.586889E-2,-5.0184955E-3,1.509573E-2,-1.630875E-2],"split_indices":[0,1,2,1,7,0,1,5,6,0,0,5,0,4,0,0,6,0,6,1,0,5,7,6,6,6,10,0,3,1,0,6,0,0,0,0,0,0,0,0,0,0,0,0,0,0,0,0,0,0,0],"split_type":[0,0,0,0,0,0,0,0,0,0,0,0,0,0,0,0,0,0,0,0,0,0,0,0,0,0,0,0,0,0,0,0,0,0,0,0,0,0,0,0,0,0,0,0,0,0,0,0,0,0,0],"sum_hessian":[1.0433566E3,6.576889E2,3.8566766E2,6.2873706E2,2.8951864E1,1.9953802E2,1.8612964E2,3.593611E2,2.6937595E2,1.0119116E1,1.8832748E1,1.1668209E2,8.285593E1,1.7522044E2,1.0909203E1,2.5472496E2,1.0463614E2,1.902808E2,7.909514E1,7.739391E1,3.9288174E1,9.411119E1,8.1109245E1,2.0641325E2,4.831171E1,8.923121E1,1.5404935E1,2.893445E0,7.620169E1,7.192883E1,5.465082E0,6.2114246E1,3.1996944E1,3.365572E1,4.745353E1,6.072386E1,1.4568939E2,2.1311853E1,2.6999855E1,1.7118752E1,7.211246E1,1.3267857E1,2.1370778E0,3.329151E1,4.2910183E1,5.13533E1,2.0575533E1,2.1072643E1,4.1041603E1,2.527206E1,2.2181467E1],"tree_param":{"num_deleted":"0","num_feature":"11","num_nodes":"51","size_leaf_vector":"1"}},{"base_weights":[1.4125151E-2,-3.3543777E-1,6.1191005E-1,-3.9656717E-1,1.0889323E0,9.390311E-1,2.4382293E-1,-1.183452E-1,-7.6186436E-1,6.09721E-1,6.544825E-2,6.316159E-1,1.356343E0,3.7267986E-1,-3.016966E-2,1.2179139E-1,-3.8300645E-1,-4.038602E-2,-5.6299263E-1,6.4591646E-2,9.75918E-3,3.8568284E-2,3.3462816E-1,5.8370855E-2,8.486271E-3,2.6928318E-1,6.509999E-2,5.510705E-1,8.54588E-3,-2.211263E-2,-2.1921603E-2,-3.0060528E-2,-2.6089096E-1,-5.7047396E-4,6.805135E-1,5.4261017E-1,-2.1924764E-1,-2.3746628E-2,3.1122334E-2,-8.86706E-3,8.451762E-3,-1.2570708E-2,1.4243157E-2,2.078947E-3,-2.376621E-2,1.3673846E-2,5.158738E-2,3.4911998E-2,1.0582997E-2,-3.0123448E-2,7.4760956E-3],"categories":[],"categories_nodes":[],"categories_segments":[],"categories_sizes":[],"default_left":[0,0,0,0,0,0,0,0,0,0,0,0,0,0,0,0,0,0,0,0,0,0,0,0,0,0,0,0,0,0,0,0,0,0,0,0,0,0,0,0,0,0,0,0,0,0,0,0,0,0,0],"id":17,"left_children":[1,3,5,7,9,11,13,15,17,19,-1,21,23,25,-1,27,29,-1,31,-1,-1,-1,33,-1,-1,35,-1,37,39,41,-1,-1,43,-1,45,47,49,-1,-1,-1,-1,-1,-1,-1,-1,-1,-1,-1,-1,-1,-1],"loss_changes":[2.1600601E2,5.722831E1,4.5697296E1,6.3552032E1,5.354233E0,2.5005737E1,2.2868202E1,2.2713177E1,1.0752441E1,5.0468984E0,0E0,1.007679E1,4.4266205E0,1.9364002E1,0E0,9.122302E0,8.850372E0,0E0,6.6602516E0,0E0,0E0,0E0,7.298411E0,0E0,0E0,1.997597E1,0E0,9.129451E0,6.5110626E0,5.1810966E0,0E0,0E0,4.9202614E0,0E0,5.5795517E0,7.9800854E0,1.1042663E1,0E0,0E0,0E0,0E0,0E0,0E0,0E0,0E0,0E0,0E0,0E0,0E0,0E0,0E0],"parents":[2147483647,0,0,1,1,2,2,3,3,4,4,5,5,6,6,7,7,8,8,9,9,11,11,12,12,13,13,15,15,16,16,18,18,22,22,25,25,27,27,28,28,29,29,32,32,34,34,35,35,36,36],"right_children":[2,4,6,8,10,12,14,16,18,20,-1,22,24,26,-1,28,30,-1,32,-1,-1,-1,34,-1,-1,36,-1,38,40,42,-1,-1,44,-1,46,48,50,-1,-1,-1,-1,-1,-1,-1,-1,-1,-1,-1,-1,-1,-1],"split_conditions":[4.3E1,3E0,1E0,2E0,-2.2163135E-1,5E1,6.6E1,1E0,-9.708711E0,-1.1934925E1,6.544825E-2,1E0,6.9E1,3E0,-3.016966E-2,5.765749E4,-4.5773813E-1,-4.038602E-2,3.7E1,6.4591646E-2,9.75918E-3,3.8568284E-2,1.0791594E5,5.8370855E-2,8.486271E-3,2E0,6.509999E-2,2.9E1,3.5E1,3.6E1,-2.1921603E-2,-3.0060528E-2,1E0,-5.7047396E-4,4.7E1,6.4E2,-8.445757E0,-2.3746628E-2,3.1122334E-2,-8.86706E-3,8.451762E-3,-1.2570708E-2,1.4243157E-2,2.078947E-3,-2.376621E-2,1.3673846E-2,5.158738E-2,3.4911998E-2,1.0582997E-2,-3.0123448E-2,7.4760956E-3],"split_indices":[0,1,2,1,7,0,0,2,7,7,0,3,0,1,0,6,7,0,0,0,0,0,6,0,0,1,0,0,0,0,0,0,2,0,0,10,7,0,0,0,0,0,0,0,0,0,0,0,0,0,0],"split_type":[0,0,0,0,0,0,0,0,0,0,0,0,0,0,0,0,0,0,0,0,0,0,0,0,0,0,0,0,0,0,0,0,0,0,0,0,0,0,0,0,0,0,0,0,0,0,0,0,0,0,0],"sum_hessian":[1.0317201E3,6.513015E2,3.8041864E2,6.251919E2,2.6109648E1,2.005964E2,1.7982222E2,3.5564514E2,2.6954672E2,1.4282666E1,1.1826981E1,1.1695462E2,8.364178E1,1.5927605E2,2.0546183E1,1.8674477E2,1.6890038E2,1.2921033E2,1.403364E2,3.163724E0,1.1118942E1,5.746009E1,5.9494534E1,8.006368E1,3.5781E0,1.4770967E2,1.1566376E1,3.817372E1,1.4857104E2,4.8628277E1,1.202721E2,9.075445E1,4.9581944E1,3.011983E1,2.9374706E1,9.46458E1,5.3063866E1,5.4378896E0,3.2735832E1,6.941327E1,7.915778E1,2.7593752E1,2.1034525E1,2.5215244E1,2.43667E1,1.9034754E1,1.0339952E1,4.560346E1,4.904234E1,2.3048836E1,3.001503E1],"tree_param":{"num_deleted":"0","num_feature":"11","num_nodes":"51","size_leaf_vector":"1"}},{"base_weights":[2.421395E-2,-3.8820747E-1,4.4997796E-1,-4.4137794E-1,4.1665655E-2,3.6175194E-1,6.3311644E-2,-2.0914163E-1,-7.3691124E-1,6.6098875E-1,-2.0487964E-1,7.685278E-2,-4.3454847E-1,-3.756891E-2,-2.1631045E-2,9.1119415E-1,3.2624E-1,-2.382693E-2,6.777357E-2,3.3914185E-1,-8.052185E-3,-5.4454195E-1,-9.551844E-2,5.466279E-1,5.35935E-2,6.295317E-1,7.168393E-2,4.7424898E-1,-2.9325527E-1,1.7040571E-3,2.9769544E-2,-3.950817E-4,-2.842873E-2,-1.6139919E-2,1.1457567E-2,3.3477798E-2,1.2396653E-2,5.0808668E-2,1.2320136E-2,-8.875189E-3,2.8873332E-2,4.9086563E-2,1.0077264E-2,-2.7560533E-3,-2.8056538E-2],"categories":[],"categories_nodes":[],"categories_segments":[],"categories_sizes":[],"default_left":[0,0,0,0,0,0,0,0,0,0,0,0,0,0,0,0,0,0,0,0,0,0,0,0,0,0,0,0,0,0,0,0,0,0,0,0,0,0,0,0,0,0,0,0,0],"id":18,"left_children":[1,3,5,7,-1,9,-1,11,13,15,17,19,21,-1,-1,23,25,-1,27,29,-1,31,33,35,-1,37,39,41,43,-1,-1,-1,-1,-1,-1,-1,-1,-1,-1,-1,-1,-1,-1,-1,-1],"loss_changes":[1.817669E2,3.933091E1,4.769046E1,3.465541E1,0E0,8.0157326E1,0E0,1.8431725E1,7.587494E0,2.559024E1,1.6503126E1,9.055163E0,5.9054737E0,0E0,0E0,2.362619E1,1.0282024E1,0E0,1.4091339E1,7.244874E0,0E0,8.986156E0,4.494038E0,5.647524E0,0E0,1.1670528E1,1.3276525E1,7.103677E0,4.37279E0,0E0,0E0,0E0,0E0,0E0,0E0,0E0,0E0,0E0,0E0,0E0,0E0,0E0,0E0,0E0,0E0],"parents":[2147483647,0,0,1,1,2,2,3,3,5,5,7,7,8,8,9,9,10,10,11,11,12,12,15,15,16,16,18,18,19,19,21,21,22,22,23,23,25,25,26,26,27,27,28,28],"right_children":[2,4,6,8,-1,10,-1,12,14,16,18,20,22,-1,-1,24,26,-1,28,30,-1,32,34,36,-1,38,40,42,44,-1,-1,-1,-1,-1,-1,-1,-1,-1,-1,-1,-1,-1,-1,-1,-1],"split_conditions":[4E1,3E0,3E0,2E0,4.1665655E-2,4.2195077E0,6.3311644E-2,1E0,-5.711225E-1,1E0,-6.7597194E0,1E0,1E0,-3.756891E-2,-2.1631045E-2,4.7E1,1E0,-2.382693E-2,1E0,6.75E2,-8.052185E-3,-1.0627763E1,3.4E1,1E0,5.35935E-2,-3.11636E-1,1E0,5.88E2,1.2826403E5,1.7040571E-3,2.9769544E-2,-3.950817E-4,-2.842873E-2,-1.6139919E-2,1.1457567E-2,3.3477798E-2,1.2396653E-2,5.0808668E-2,1.2320136E-2,-8.875189E-3,2.8873332E-2,4.9086563E-2,1.0077264E-2,-2.7560533E-3,-2.8056538E-2],"split_indices":[0,1,1,1,0,4,0,3,7,2,7,2,5,0,0,0,3,0,3,10,0,7,0,3,0,7,5,10,6,0,0,0,0,0,0,0,0,0,0,0,0,0,0,0,0],"split_type":[0,0,0,0,0,0,0,0,0,0,0,0,0,0,0,0,0,0,0,0,0,0,0,0,0,0,0,0,0,0,0,0,0,0,0,0,0,0,0,0,0,0,0,0,0],"sum_hessian":[1.0331583E3,5.248471E2,5.0831125E2,5.0617957E2,1.8667543E1,4.709468E2,3.736445E1,2.8439984E2,2.2177974E2,3.0808258E2,1.6286423E2,1.2564346E2,1.5875638E2,1.23319466E2,9.846027E1,1.7531941E2,1.3276318E2,6.878875E1,9.407547E1,6.3675983E1,6.1967476E1,1.19409485E2,3.9346893E1,9.055057E1,8.476884E1,5.9910072E1,7.285311E1,4.4104954E1,4.9970516E1,3.6187E1,2.7488985E1,2.492825E1,9.448123E1,2.1968796E1,1.7378098E1,4.32218E1,4.7328766E1,2.0582117E1,3.9327957E1,5.0426258E1,2.2426855E1,9.876437E0,3.4228516E1,3.2081593E1,1.7888924E1],"tree_param":{"num_deleted":"0","num_feature":"11","num_nodes":"45","size_leaf_vector":"1"}},{"base_weights":[-1.1916927E-3,-2.2737251E-1,6.6521287E-1,-2.950136E-1,1.1196806E0,5.7118875E-1,6.601595E-2,-3.6428194E-2,-6.657663E-1,2.9250447E-2,6.278964E-2,7.9742634E-1,-3.4842074E-2,2.3569766E-1,-3.3553421E-1,-3.672677E-2,-3.9384297E-1,4.4914927E-2,5.734927E-1,-5.9867316E-1,1.4914457E-2,7.123601E-3,6.6061383E-1,-5.136163E-1,-4.9699955E-2,-2.616672E-2,-1.3571404E-1,2.0105702E-1,1.0214701E0,2.2672167E-2,-3.0764794E-2,-7.457889E-3,1.656263E-2,2.213444E-2,4.8668146E-2,-3.0026492E-3,-2.493664E-2,-1.2045422E-2,2.4897132E-2,3.2985453E-2,-1.111259E-2,2.9017027E-2,-7.785795E-4,4.5461565E-2,-1.2159252E-2],"categories":[],"categories_nodes":[],"categories_segments":[],"categories_sizes":[],"default_left":[0,0,0,0,0,0,0,0,0,0,0,0,0,0,0,0,0,0,0,0,0,0,0,0,0,0,0,0,0,0,0,0,0,0,0,0,0,0,0,0,0,0,0,0,0],"id":19,"left_children":[1,3,5,7,9,11,-1,13,15,-1,-1,17,19,21,23,-1,25,-1,27,29,-1,31,33,35,37,-1,39,41,43,-1,-1,-1,-1,-1,-1,-1,-1,-1,-1,-1,-1,-1,-1,-1,-1],"loss_changes":[1.5371294E2,6.9704506E1,2.1529953E1,6.955616E1,4.893547E0,3.239866E1,0E0,3.496637E1,1.7330276E1,0E0,0E0,1.0294785E1,1.46761265E1,2.185027E1,1.0389029E1,0E0,8.102224E0,0E0,1.6177757E1,4.8067474E0,0E0,1.0832556E1,4.517315E0,4.7639503E0,1.2585148E1,0E0,8.229248E0,6.0089755E0,4.546505E0,0E0,0E0,0E0,0E0,0E0,0E0,0E0,0E0,0E0,0E0,0E0,0E0,0E0,0E0,0E0,0E0],"parents":[2147483647,0,0,1,1,2,2,3,3,4,4,5,5,7,7,8,8,11,11,12,12,13,13,14,14,16,16,18,18,19,19,21,21,22,22,23,23,24,24,26,26,27,27,28,28],"right_children":[2,4,6,8,10,12,-1,14,16,-1,-1,18,20,22,24,-1,26,-1,28,30,-1,32,34,36,38,-1,40,42,44,-1,-1,-1,-1,-1,-1,-1,-1,-1,-1,-1,-1,-1,-1,-1,-1],"split_conditions":[1E0,3E0,4.7706847E0,2E0,-2.2163135E-1,2E0,6.601595E-2,1E0,-6.4275855E-1,2.9250447E-2,6.278964E-2,-2.0259622E-1,-7.620957E-1,3.713572E0,3.6888795E0,-3.672677E-2,4.304065E0,4.4914927E-2,1E0,5.26E2,1.4914457E-2,4.3070227E-1,3.8286414E0,-9.426259E0,1E0,-2.616672E-2,-3.7780362E-1,5.84E2,1.6385677E5,2.2672167E-2,-3.0764794E-2,-7.457889E-3,1.656263E-2,2.213444E-2,4.8668146E-2,-3.0026492E-3,-2.493664E-2,-1.2045422E-2,2.4897132E-2,3.2985453E-2,-1.111259E-2,2.9017027E-2,-7.785795E-4,4.5461565E-2,-1.2159252E-2],"split_indices":[8,1,4,1,7,1,0,2,7,0,0,7,7,4,4,0,4,0,5,10,0,7,4,7,5,0,7,10,6,0,0,0,0,0,0,0,0,0,0,0,0,0,0,0,0],"split_type":[0,0,0,0,0,0,0,0,0,0,0,0,0,0,0,0,0,0,0,0,0,0,0,0,0,0,0,0,0,0,0,0,0,0,0,0,0,0,0,0,0,0,0,0,0],"sum_hessian":[1.0178005E3,7.60382E2,2.5741843E2,7.247694E2,3.5612656E1,2.3509935E2,2.2319077E1,4.2761972E2,2.9714966E2,1.8624052E1,1.6988605E1,1.7096175E2,6.41376E1,2.2401944E2,2.0360028E2,1.6366109E2,1.3348857E2,7.376668E1,9.719506E1,2.615906E1,3.7978546E1,1.4632434E2,7.76951E1,1.2495389E2,7.864639E1,6.90021E1,6.448648E1,5.3863377E1,4.3331684E1,2.5678384E0,2.359122E1,9.945704E1,4.686729E1,6.3759506E1,1.3935597E1,2.0772282E1,1.0418161E2,5.780359E1,2.084281E1,7.379578E0,5.71069E1,1.5843733E1,3.8019646E1,4.122324E1,2.108442E0],"tree_param":{"num_deleted":"0","num_feature":"11","num_nodes":"45","size_leaf_vector":"1"}},{"base_weights":[-1.7486623E-2,-4.1683647E-1,3.9695275E-1,-4.631703E-1,3.956001E-2,7.0548946E-1,3.6619194E-2,-2.1672189E-1,-7.871028E-1,4.9913767E-1,5.4959267E-2,-5.5193286E-2,5.4974593E-2,-3.516668E-1,1.1716216E-1,-3.838859E-2,-5.4292774E-1,4.2101523E-1,6.44861E-2,2.0662184E-1,-4.1931722E-1,4.3457642E-2,-5.254004E-1,-3.0838903E-2,2.8019258E-1,-2.7328715E-1,-3.145348E-2,6.475654E-1,-9.3352444E-2,-6.9725965E-3,3.7580723E-1,-3.2675937E-2,-1.16924174E-1,1.9529441E-2,-1.1144822E-2,-2.4046462E-2,1.8614149E-2,1.8560842E-2,-2.2888782E-2,-3.083374E-2,2.327456E-3,2.0086333E-2,3.9740093E-2,-1.9722577E-2,7.867447E-3,3.5958722E-2,8.859099E-3,3.1152586E-3,-3.4770623E-2],"categories":[],"categories_nodes":[],"categories_segments":[],"categories_sizes":[],"default_left":[0,0,0,0,0,0,0,0,0,0,0,0,0,0,0,0,0,0,0,0,0,0,0,0,0,0,0,0,0,0,0,0,0,0,0,0,0,0,0,0,0,0,0,0,0,0,0,0,0],"id":20,"left_children":[1,3,5,7,-1,9,11,13,15,17,-1,19,-1,21,23,-1,25,27,-1,29,31,33,35,-1,37,39,-1,41,43,-1,45,-1,47,-1,-1,-1,-1,-1,-1,-1,-1,-1,-1,-1,-1,-1,-1,-1,-1],"loss_changes":[1.6763278E2,3.3154312E1,5.523488E1,3.9712082E1,0E0,3.3430496E1,2.7276012E1,1.28867445E1,6.691147E0,1.5978424E1,0E0,2.0673975E1,0E0,1.3977953E1,1.1809146E1,0E0,4.3956337E0,2.215881E1,0E0,8.063234E0,9.969598E0,8.501613E0,7.58469E0,0E0,9.975486E0,5.7305517E0,0E0,6.2185593E0,6.433472E0,0E0,6.7647305E0,0E0,7.090604E0,0E0,0E0,0E0,0E0,0E0,0E0,0E0,0E0,0E0,0E0,0E0,0E0,0E0,0E0,0E0,0E0],"parents":[2147483647,0,0,1,1,2,2,3,3,5,5,6,6,7,7,8,8,9,9,11,11,13,13,14,14,16,16,17,17,19,19,20,20,21,21,22,22,24,24,25,25,27,27,28,28,30,30,32,32],"right_children":[2,4,6,8,-1,10,12,14,16,18,-1,20,-1,22,24,-1,26,28,-1,30,32,34,36,-1,38,40,-1,42,44,-1,46,-1,48,-1,-1,-1,-1,-1,-1,-1,-1,-1,-1,-1,-1,-1,-1,-1,-1],"split_conditions":[4E1,4.4188404E0,1E0,3.713572E0,3.956001E-2,5.2E1,3E0,1E0,9.567175E4,4.828314E0,5.4959267E-2,4.1743875E0,5.4974593E-2,7.149779E4,9.854411E4,-3.838859E-2,1E0,3.9702919E0,6.44861E-2,4.4E1,-8.68017E-1,6.2E2,1.7540612E5,-3.0838903E-2,1.4649877E5,4.158883E0,-3.145348E-2,1E0,-8.445757E0,-6.9725965E-3,-9.2633086E-1,-3.2675937E-2,1.4064127E5,1.9529441E-2,-1.1144822E-2,-2.4046462E-2,1.8614149E-2,1.8560842E-2,-2.2888782E-2,-3.083374E-2,2.327456E-3,2.0086333E-2,3.9740093E-2,-1.9722577E-2,7.867447E-3,3.5958722E-2,8.859099E-3,3.1152586E-3,-3.4770623E-2],"split_indices":[0,4,2,4,0,0,9,5,6,4,0,4,0,6,6,0,3,4,0,0,7,10,6,0,6,4,0,5,7,0,7,0,6,0,0,0,0,0,0,0,0,0,0,0,0,0,0,0,0],"split_type":[0,0,0,0,0,0,0,0,0,0,0,0,0,0,0,0,0,0,0,0,0,0,0,0,0,0,0,0,0,0,0,0,0,0,0,0,0,0,0,0,0,0,0,0,0,0,0,0,0],"sum_hessian":[1.0108486E3,5.147931E2,4.960555E2,4.985783E2,1.6214771E1,2.667188E2,2.2933669E2,2.8410202E2,2.1447627E2,2.0123549E2,6.548334E1,2.1495149E2,1.43852005E1,2.0228989E2,8.181215E1,1.3571143E2,7.8764854E1,1.8863646E2,1.2599031E1,1.2529412E2,8.965737E1,6.20099E1,1.4027998E2,1.2480188E1,6.933196E1,3.5858395E1,4.2906456E1,1.3077737E2,5.785908E1,3.899797E1,8.629615E1,3.9777874E1,4.9879494E1,2.5966137E1,3.6043762E1,1.3338535E2,6.8946443E0,5.814644E1,1.1185523E1,1.4279616E1,2.157878E1,8.705152E1,4.3725853E1,2.4344877E1,3.3514206E1,2.044083E1,6.5855316E1,4.0088448E1,9.791046E0],"tree_param":{"num_deleted":"0","num_feature":"11","num_nodes":"49","size_leaf_vector":"1"}},{"base_weights":[7.855404E-3,-3.1313443E-1,5.2160656E-1,-3.692395E-1,9.3507147E-1,7.975432E-1,2.103854E-1,-1.3577865E-1,-7.019272E-1,1.5094633E-2,5.220097E-2,5.892235E-1,5.1369783E-2,3.326285E-1,-2.3840932E-2,1.01169854E-1,-4.0184304E-1,-3.7310734E-2,-2.0471133E-2,3.778694E-1,1.013639E0,2.5549716E-1,5.6922745E-2,-2.3149585E-2,3.848917E-1,-2.508625E-2,-1.4167987E-1,2.8260082E-1,6.0187697E-2,5.1272374E-2,5.1366866E-1,2.0600062E-2,-2.4844123E-2,-4.235706E-3,5.100649E-2,-1.9647399E-2,2.2564318E-2,9.817827E-3,-1.2580837E-2,2.2389833E-2,-7.8674E-4,2.6324796E-3,5.4793973E-2,-1.9955669E-2,6.3454253E-3],"categories":[],"categories_nodes":[],"categories_segments":[],"categories_sizes":[],"default_left":[0,0,0,0,0,0,0,0,0,0,0,0,0,0,0,0,0,0,0,0,0,0,0,0,0,0,0,0,0,0,0,0,0,0,0,0,0,0,0,0,0,0,0,0,0],"id":21,"left_children":[1,3,5,7,9,11,13,15,17,-1,-1,19,-1,21,-1,23,25,-1,-1,27,29,31,-1,33,35,-1,37,39,-1,-1,41,-1,43,-1,-1,-1,-1,-1,-1,-1,-1,-1,-1,-1,-1],"loss_changes":[1.6389822E2,4.3183403E1,3.2652428E1,4.5427544E1,4.427433E0,1.7749954E1,1.7536516E1,2.1832111E1,9.459717E0,0E0,0E0,1.2086712E1,0E0,1.2225227E1,0E0,6.4859786E0,8.475611E0,0E0,0E0,9.21774E0,4.3889084E0,9.948769E0,0E0,1.2798028E1,7.8516483E0,0E0,4.487023E0,6.802588E0,0E0,0E0,5.593719E0,0E0,5.6551466E0,0E0,0E0,0E0,0E0,0E0,0E0,0E0,0E0,0E0,0E0,0E0,0E0],"parents":[2147483647,0,0,1,1,2,2,3,3,4,4,5,5,6,6,7,7,8,8,11,11,13,13,15,15,16,16,19,19,20,20,21,21,23,23,24,24,26,26,27,27,30,30,32,32],"right_children":[2,4,6,8,10,12,14,16,18,-1,-1,20,-1,22,-1,24,26,-1,-1,28,30,32,-1,34,36,-1,38,40,-1,-1,42,-1,44,-1,-1,-1,-1,-1,-1,-1,-1,-1,-1,-1,-1],"split_conditions":[4.3E1,3E0,1E0,2E0,-8.445757E0,5.2E1,6.4E1,1E0,-7.9174232E0,1.5094633E-2,5.220097E-2,1E0,5.1369783E-2,3E0,-2.3840932E-2,1E0,3.6E1,-3.7310734E-2,-2.0471133E-2,3E0,2E0,4.060443E0,5.6922745E-2,1.7060078E5,9.880745E4,-2.508625E-2,-4.5773813E-1,9.772035E4,6.0187697E-2,5.1272374E-2,4.634729E0,2.0600062E-2,4.7E1,-4.235706E-3,5.100649E-2,-1.9647399E-2,2.2564318E-2,9.817827E-3,-1.2580837E-2,2.2389833E-2,-7.8674E-4,2.6324796E-3,5.4793973E-2,-1.9955669E-2,6.3454253E-3],"split_indices":[0,1,2,1,7,0,0,2,7,0,0,5,0,1,0,5,0,0,0,1,1,4,0,6,6,0,7,6,0,0,4,0,0,0,0,0,0,0,0,0,0,0,0,0,0],"split_type":[0,0,0,0,0,0,0,0,0,0,0,0,0,0,0,0,0,0,0,0,0,0,0,0,0,0,0,0,0,0,0,0,0,0,0,0,0,0,0,0,0,0,0,0,0],"sum_hessian":[9.918808E2,6.10705E2,3.8117575E2,5.851094E2,2.5595655E1,2.0121277E2,1.7996298E2,3.4465717E2,2.4045222E2,9.971301E0,1.5624354E1,1.3801299E2,6.3199776E1,1.5618887E2,2.3774105E1,1.8263129E2,1.6202588E2,1.224877E2,1.1796452E2,9.339412E1,4.4618874E1,1.4653793E2,9.650944E0,1.2762694E2,5.5004356E1,9.04944E1,7.153147E1,8.6922676E1,6.4714394E0,2.9956459E1,1.4662415E1,7.849963E1,6.80383E1,1.2092764E2,6.6992955E0,8.251676E0,4.6752678E1,2.123623E1,5.0295242E1,4.6568184E1,4.0354492E1,1.0094024E1,4.5683904E0,1.8607439E1,4.943086E1],"tree_param":{"num_deleted":"0","num_feature":"11","num_nodes":"45","size_leaf_vector":"1"}},{"base_weights":[-7.815211E-3,-4.0521133E-1,3.2802162E-1,-4.5490515E-1,3.248309E-2,2.5494713E-1,5.584485E-2,-2.4831896E-1,-7.45413E-1,5.1011515E-1,-2.1993336E-1,-3.8950524E-1,9.431141E-2,-3.746376E-2,-2.2086589E-2,3.0771396E-1,9.3165773E-1,-2.6650922E-2,5.4453224E-2,-1.2864296E-2,-5.508625E-1,2.656105E-1,-2.2931037E-2,7.1941906E-1,6.921031E-2,-1.27374865E-2,4.3174423E-2,-1.2174413E-2,4.7553128E-1,1.1898173E-2,-1.1802867E-2,-2.4474949E-2,1.4130085E-2,-2.444981E-2,2.0736609E-2,1.3753182E-2,4.1159514E-2,-5.382486E-3,2.3695182E-2,2.3498677E-2,-3.4865763E-2],"categories":[],"categories_nodes":[],"categories_segments":[],"categories_sizes":[],"default_left":[0,0,0,0,0,0,0,0,0,0,0,0,0,0,0,0,0,0,0,0,0,0,0,0,0,0,0,0,0,0,0,0,0,0,0,0,0,0,0,0,0],"id":22,"left_children":[1,3,5,7,-1,9,-1,11,13,15,17,19,21,-1,-1,23,25,-1,27,29,31,33,-1,35,37,-1,-1,-1,39,-1,-1,-1,-1,-1,-1,-1,-1,-1,-1,-1,-1],"loss_changes":[1.3257234E2,2.7190392E1,3.962389E1,2.6060318E1,0E0,6.1122303E1,0E0,1.24725065E1,5.5742645E0,2.7682358E1,2.0464432E1,1.1068844E1,8.538922E0,0E0,0E0,2.184388E1,1.4383682E1,0E0,1.59285755E1,4.599037E0,4.5325127E0,1.2374781E1,0E0,8.2729645E0,1.424115E1,0E0,0E0,0E0,6.289502E0,0E0,0E0,0E0,0E0,0E0,0E0,0E0,0E0,0E0,0E0,0E0,0E0],"parents":[2147483647,0,0,1,1,2,2,3,3,5,5,7,7,8,8,9,9,10,10,11,11,12,12,15,15,16,16,18,18,19,19,20,20,21,21,23,23,24,24,28,28],"right_children":[2,4,6,8,-1,10,-1,12,14,16,18,20,22,-1,-1,24,26,-1,28,30,32,34,-1,36,38,-1,-1,-1,40,-1,-1,-1,-1,-1,-1,-1,-1,-1,-1,-1,-1],"split_conditions":[3.9E1,3E0,3E0,3.6888795E0,3.248309E-2,4.204693E0,5.584485E-2,1E0,-5.416371E-1,1E0,-8.445757E0,-6.6829056E-1,1.4228928E5,-3.746376E-2,-2.2086589E-2,-5.711225E-1,9.092075E4,-2.6650922E-2,4.5325994E0,6.32E2,1.8116644E5,9.983647E4,-2.2931037E-2,4.5E1,5.1E1,-1.27374865E-2,4.3174423E-2,-1.2174413E-2,7.1E1,1.1898173E-2,-1.1802867E-2,-2.4474949E-2,1.4130085E-2,-2.444981E-2,2.0736609E-2,1.3753182E-2,4.1159514E-2,-5.382486E-3,2.3695182E-2,2.3498677E-2,-3.4865763E-2],"split_indices":[0,1,1,4,0,4,0,5,7,5,7,7,6,0,0,7,6,0,4,10,6,6,0,0,0,0,0,0,0,0,0,0,0,0,0,0,0,0,0,0,0],"split_type":[0,0,0,0,0,0,0,0,0,0,0,0,0,0,0,0,0,0,0,0,0,0,0,0,0,0,0,0,0,0,0,0,0,0,0,0,0,0,0,0,0],"sum_hessian":[9.913511E2,4.53966E2,5.373851E2,4.3631494E2,1.7651043E1,5.0249042E2,3.4894684E1,2.5607178E2,1.802432E2,3.2681067E2,1.7567973E2,1.812486E2,7.4823166E1,1.0233126E2,7.791193E1,2.219653E2,1.0484537E2,6.8751366E1,1.0692836E2,5.4684193E1,1.265644E2,5.9609062E1,1.5214108E1,8.067966E1,1.4128564E2,8.214803E0,9.663057E1,5.875471E1,4.817365E1,2.5972185E1,2.8712008E1,1.2169611E2,4.8682904E0,1.2468649E1,4.714041E1,3.4073128E1,4.660653E1,1.0168928E2,3.9596367E1,4.5621532E1,2.5521176E0],"tree_param":{"num_deleted":"0","num_feature":"11","num_nodes":"41","size_leaf_vector":"1"}},{"base_weights":[5.0687823E-3,-2.7918306E-1,4.6027258E-1,-3.1733572E-1,3.8982954E-2,3.8233933E-1,6.034714E-2,-1.2187891E-1,-6.067208E-1,6.4645994E-1,-9.595317E-2,6.6191696E-2,-3.3665836E-1,-3.116976E-2,-3.108751E-1,2.8967667E-1,8.347084E-1,-1.9177586E-2,1.6081396E-1,-1.1413853E-1,1.6058445E-2,-2.9483229E-2,-2.1423125E-1,2.5783371E-2,-1.5682496E-2,2.2854207E-2,3.1219482E-2,4.5277674E-2,6.286596E-1,-9.419476E-3,4.8639256E-1,-1.1989214E-2,8.5692955E-3,4.1811424E-3,-1.4873865E-2,1.4124958E-2,-1.7437901E-2,8.794294E-3,3.2591168E-2,5.01891E-2,1.1082722E-2],"categories":[],"categories_nodes":[],"categories_segments":[],"categories_sizes":[],"default_left":[0,0,0,0,0,0,0,0,0,0,0,0,0,0,0,0,0,0,0,0,0,0,0,0,0,0,0,0,0,0,0,0,0,0,0,0,0,0,0,0,0],"id":23,"left_children":[1,3,5,7,-1,9,-1,11,13,15,17,19,21,-1,23,25,27,-1,29,31,-1,-1,33,-1,-1,35,-1,-1,37,-1,39,-1,-1,-1,-1,-1,-1,-1,-1,-1,-1],"loss_changes":[1.2816016E2,2.8615982E1,2.887873E1,3.3408585E1,0E0,4.482785E1,0E0,1.4344704E1,9.878166E0,1.5100151E1,1.198891E1,1.1009537E1,7.411442E0,0E0,5.160844E0,9.888924E0,7.1402283E0,0E0,9.610767E0,6.8885493E0,0E0,0E0,5.7445807E0,0E0,0E0,7.437826E0,0E0,0E0,5.3351326E0,0E0,6.2137403E0,0E0,0E0,0E0,0E0,0E0,0E0,0E0,0E0,0E0,0E0],"parents":[2147483647,0,0,1,1,2,2,3,3,5,5,7,7,8,8,9,9,10,10,11,11,12,12,14,14,15,15,16,16,18,18,19,19,22,22,25,25,28,28,30,30],"right_children":[2,4,6,8,-1,10,-1,12,14,16,18,20,22,-1,24,26,28,-1,30,32,-1,-1,34,-1,-1,36,-1,-1,38,-1,40,-1,-1,-1,-1,-1,-1,-1,-1,-1,-1],"split_conditions":[4.3E1,4.59512E0,3E0,2E0,3.8982954E-2,4.1743875E0,6.034714E-2,1E0,1.0819711E5,4.7E1,-5.899377E-1,3.8E1,3.1E1,-3.116976E-2,1.1092996E5,1E0,-2.0259622E-1,-1.9177586E-2,4.543295E0,6.87E2,1.6058445E-2,-2.9483229E-2,-4.5773813E-1,2.5783371E-2,-1.5682496E-2,6.75E2,3.1219482E-2,4.5277674E-2,5E1,-9.419476E-3,-2.702777E-1,-1.1989214E-2,8.5692955E-3,4.1811424E-3,-1.4873865E-2,1.4124958E-2,-1.7437901E-2,8.794294E-3,3.2591168E-2,5.01891E-2,1.1082722E-2],"split_indices":[0,4,1,1,0,4,0,2,6,0,7,0,0,0,6,5,7,0,4,10,0,0,7,0,0,10,0,0,0,0,7,0,0,0,0,0,0,0,0,0,0],"split_type":[0,0,0,0,0,0,0,0,0,0,0,0,0,0,0,0,0,0,0,0,0,0,0,0,0,0,0,0,0,0,0,0,0,0,0,0,0,0,0,0,0],"sum_hessian":[9.8848267E2,6.0874115E2,3.797415E2,5.9095856E2,1.7782597E1,3.5336496E2,2.6376541E1,3.5357062E2,2.3738795E2,2.2742546E2,1.2593949E2,1.8887497E2,1.6469565E2,1.5886472E2,7.852324E1,7.942735E1,1.4799811E2,5.163347E1,7.430602E1,1.21245964E2,6.7629005E1,3.9525852E1,1.251698E2,4.6793847E0,7.384385E1,5.0998493E1,2.842886E1,6.4241844E1,8.375626E1,3.4065895E1,4.0240128E1,7.857491E1,4.267105E1,3.932038E1,8.584942E1,2.9845285E1,2.115321E1,2.3404404E1,6.035186E1,8.343848E0,3.1896278E1],"tree_param":{"num_deleted":"0","num_feature":"11","num_nodes":"41","size_leaf_vector":"1"}},{"base_weights":[-1.5564583E-2,-2.1454018E-1,5.3424203E-1,-2.7019462E-1,9.2472774E-1,7.8447276E-1,2.34915E-1,-5.2623764E-2,-6.119878E-1,1.6186168E-2,5.1438686E-2,7.061794E-1,6.0207788E-2,2.2757728E-2,-6.1926693E-2,1.5122013E-1,-2.7707824E-1,-3.4302413E-2,-4.083971E-1,8.6725926E-1,7.298807E-2,-4.0201452E-1,2.4727616E-1,-7.426475E-2,4.0454775E-1,-4.150055E-1,7.774205E-2,-2.8196245E-2,-1.722076E-1,4.872555E-2,6.3983977E-1,-2.3042798E-2,4.18939E-1,4.4479626E-3,-3.0175047E-2,2.5186094E-2,-1.7268924E-2,9.048986E-3,-1.270792E-2,1.4282379E-2,5.907783E-2,-3.421743E-3,-2.4446594E-2,-2.3291662E-2,1.5031726E-2,2.5922082E-2,-1.0210264E-2,8.6661205E-3,4.4900462E-2,3.1411022E-2,-1.51612265E-2],"categories":[],"categories_nodes":[],"categories_segments":[],"categories_sizes":[],"default_left":[0,0,0,0,0,0,0,0,0,0,0,0,0,0,0,0,0,0,0,0,0,0,0,0,0,0,0,0,0,0,0,0,0,0,0,0,0,0,0,0,0,0,0,0,0,0,0,0,0,0,0],"id":24,"left_children":[1,3,5,7,9,11,13,15,17,-1,-1,19,-1,-1,21,23,25,-1,27,29,31,33,35,37,39,41,43,-1,45,-1,47,-1,49,-1,-1,-1,-1,-1,-1,-1,-1,-1,-1,-1,-1,-1,-1,-1,-1,-1,-1],"loss_changes":[1.079857E2,4.620171E1,1.9462921E1,5.1409325E1,5.2127495E0,6.3866425E0,1.1254462E1,1.9431433E1,1.1353546E1,0E0,0E0,1.3132645E1,0E0,0E0,6.714511E0,1.275295E1,9.920317E0,0E0,8.793722E0,6.404724E0,6.1653414E0,5.083689E0,8.236039E0,8.092019E0,6.012617E0,8.348009E0,1.0606608E1,0E0,4.5910034E0,0E0,1.1417517E1,0E0,5.0791035E0,0E0,0E0,0E0,0E0,0E0,0E0,0E0,0E0,0E0,0E0,0E0,0E0,0E0,0E0,0E0,0E0,0E0,0E0],"parents":[2147483647,0,0,1,1,2,2,3,3,4,4,5,5,6,6,7,7,8,8,11,11,14,14,15,15,16,16,18,18,19,19,20,20,21,21,22,22,23,23,24,24,25,25,26,26,28,28,30,30,32,32],"right_children":[2,4,6,8,10,12,14,16,18,-1,-1,20,-1,-1,22,24,26,-1,28,30,32,34,36,38,40,42,44,-1,46,-1,48,-1,50,-1,-1,-1,-1,-1,-1,-1,-1,-1,-1,-1,-1,-1,-1,-1,-1,-1,-1],"split_conditions":[1E0,3E0,1E0,2E0,4.957273E4,4.762174E0,1E0,1E0,-8.445757E0,1.6186168E-2,5.1438686E-2,4.5325994E0,6.0207788E-2,2.2757728E-2,1.0354924E5,3.6635616E0,1E0,-3.4302413E-2,4.276666E0,-2.8666618E-1,-6.6829056E-1,6.31E2,1.3800806E5,1E0,7.97E2,7.670587E4,3.5263605E0,-2.8196245E-2,7.043801E4,4.872555E-2,1E0,-2.3042798E-2,8.064516E-1,4.4479626E-3,-3.0175047E-2,2.5186094E-2,-1.7268924E-2,9.048986E-3,-1.270792E-2,1.4282379E-2,5.907783E-2,-3.421743E-3,-2.4446594E-2,-2.3291662E-2,1.5031726E-2,2.5922082E-2,-1.0210264E-2,8.6661205E-3,4.4900462E-2,3.1411022E-2,-1.51612265E-2],"split_indices":[8,1,2,1,6,4,3,2,7,0,0,4,0,0,6,4,5,0,4,7,7,10,6,3,10,6,4,0,6,0,5,0,7,0,0,0,0,0,0,0,0,0,0,0,0,0,0,0,0,0,0],"split_type":[0,0,0,0,0,0,0,0,0,0,0,0,0,0,0,0,0,0,0,0,0,0,0,0,0,0,0,0,0,0,0,0,0,0,0,0,0,0,0,0,0,0,0,0,0,0,0,0,0,0,0],"sum_hessian":[9.850417E2,7.2373206E2,2.6130963E2,6.90751E2,3.2981075E1,1.4144443E2,1.198652E2,4.2278085E2,2.6797015E2,1.3001824E1,1.997925E1,1.2837923E2,1.3065204E1,5.795776E1,6.190744E1,2.2173395E2,2.010469E2,1.2931398E2,1.3865617E2,1.0204895E2,2.6330282E1,2.9338392E1,3.2569046E1,1.1768781E2,1.0404614E2,1.4464879E2,5.6398117E1,6.3806187E1,7.484998E1,4.1790257E1,6.0258694E1,9.143101E0,1.7187181E1,1.1674161E1,1.7664232E1,2.118602E1,1.1383027E1,5.207314E1,6.561467E1,9.9435715E1,4.6104245E0,5.0048737E1,9.4600044E1,1.706723E1,3.9330883E1,5.694125E0,6.915586E1,3.1198174E1,2.9060518E1,1.2044659E1,5.142522E0],"tree_param":{"num_deleted":"0","num_feature":"11","num_nodes":"51","size_leaf_vector":"1"}},{"base_weights":[1.0773806E-2,-3.5758582E-1,3.0505764E-1,-2.4817723E-1,-7.3626083E-1,2.3636824E-1,5.2937157E-2,-2.8255752E-1,4.1417174E-2,-3.3375107E-2,2.807662E-2,4.6042833E-1,-2.0577186E-1,-7.3273644E-2,-1.8619442E-2,6.700218E-1,1.8608613E-1,-2.4607098E-2,6.096155E-2,-1.1436829E-1,5.080937E-2,4.309348E-1,4.018019E-2,4.1392794E-1,-1.3005661E-2,3.6969393E-1,-2.455012E-1,-1.2155292E-2,3.8641223E-3,5.89573E-2,1.5652439E-2,1.0091955E-2,5.772843E-2,-3.2107357E-2,2.4436705E-3,8.318241E-2,9.393326E-3,-2.7748397E-2,7.588754E-4],"categories":[],"categories_nodes":[],"categories_segments":[],"categories_sizes":[],"default_left":[0,0,0,0,0,0,0,0,0,0,0,0,0,0,0,0,0,0,0,0,0,0,0,0,0,0,0,0,0,0,0,0,0,0,0,0,0,0,0],"id":25,"left_children":[1,3,5,7,9,11,-1,13,-1,-1,-1,15,17,19,-1,21,23,-1,25,27,-1,29,-1,31,33,35,37,-1,-1,-1,-1,-1,-1,-1,-1,-1,-1,-1,-1],"loss_changes":[1.0524738E2,1.7681782E1,3.5615856E1,1.4664059E1,9.624722E0,5.014226E1,0E0,1.1321764E1,0E0,0E0,0E0,1.9172043E1,1.761878E1,7.91298E0,0E0,1.3060829E1,6.6612935E0,0E0,9.725848E0,5.2867126E0,0E0,5.1999245E0,0E0,1.10837555E1,4.3700476E0,1.1534104E1,5.7709985E0,0E0,0E0,0E0,0E0,0E0,0E0,0E0,0E0,0E0,0E0,0E0,0E0],"parents":[2147483647,0,0,1,1,2,2,3,3,4,4,5,5,7,7,11,11,12,12,13,13,15,15,16,16,18,18,19,19,21,21,23,23,24,24,25,25,26,26],"right_children":[2,4,6,8,10,12,-1,14,-1,-1,-1,16,18,20,-1,22,24,-1,26,28,-1,30,-1,32,34,36,38,-1,-1,-1,-1,-1,-1,-1,-1,-1,-1,-1,-1],"split_conditions":[3.9E1,2E0,3E0,3E0,4.65396E0,4.2195077E0,5.2937157E-2,1E0,4.1417174E-2,-3.3375107E-2,2.807662E-2,1E0,-6.7597194E0,1.8116644E5,-1.8619442E-2,4.7E1,6.4E2,-2.4607098E-2,1E0,6.62E2,5.080937E-2,-1.1979722E1,4.018019E-2,6.28E2,4E1,4.99E2,4.465908E0,-1.2155292E-2,3.8641223E-3,5.89573E-2,1.5652439E-2,1.0091955E-2,5.772843E-2,-3.2107357E-2,2.4436705E-3,8.318241E-2,9.393326E-3,-2.7748397E-2,7.588754E-4],"split_indices":[0,9,1,1,4,4,0,3,0,0,0,2,7,6,0,0,10,0,3,10,0,7,0,10,0,10,4,0,0,0,0,0,0,0,0,0,0,0,0],"split_type":[0,0,0,0,0,0,0,0,0,0,0,0,0,0,0,0,0,0,0,0,0,0,0,0,0,0,0,0,0,0,0,0,0,0,0,0,0,0,0],"sum_hessian":[9.688901E2,4.301942E2,5.3869586E2,3.3504642E2,9.514781E1,5.041939E2,3.4501953E1,3.2679416E2,8.252239E0,9.125499E1,3.892823E0,3.345932E2,1.6960071E2,1.4495226E2,1.8184192E2,1.8886261E2,1.4573059E2,6.8766E1,1.0083471E2,1.4138094E2,3.57132E0,1.0597531E2,8.288731E1,6.745529E1,7.82753E1,5.0128567E1,5.0706142E1,7.582624E1,6.5554695E1,4.208779E0,1.0176653E2,5.845174E1,9.003548E0,5.9176044E0,7.23577E1,3.008744E0,4.7119823E1,1.8906796E1,3.1799345E1],"tree_param":{"num_deleted":"0","num_feature":"11","num_nodes":"39","size_leaf_vector":"1"}},{"base_weights":[1.2409273E-2,-2.7468106E-1,3.9520636E-1,-3.1363836E-1,3.8389258E-2,6.825365E-1,8.239232E-2,-1.1667909E-1,-6.0990995E-1,4.164075E-1,4.693659E-2,1.7976162E-1,-2.2927357E-2,-2.4425223E-1,1.7823365E-1,-7.714877E-1,-2.7190074E-1,3.537807E-1,5.254912E-2,1.0959472E-1,5.172944E-2,1.7892541E-2,-4.5589164E-1,-3.585555E-2,2.5036025E-1,-3.4094702E-2,-5.2050784E-2,3.785839E-2,-1.5905874E-2,6.290226E-2,3.1472045E-1,2.8564915E-1,-9.947975E-3,-3.577952E-3,6.474246E-2,-3.3753759E-3,-2.4938382E-2,1.5448177E-2,-1.8417446E-2,3.6555447E-2,-3.4551788E-2,7.078801E-3,2.5348136E-2,5.5502676E-3,2.4091601E-2],"categories":[],"categories_nodes":[],"categories_segments":[],"categories_sizes":[],"default_left":[0,0,0,0,0,0,0,0,0,0,0,0,0,0,0,0,0,0,0,0,0,0,0,0,0,0,0,0,0,0,0,0,0,0,0,0,0,0,0,0,0,0,0,0,0],"id":26,"left_children":[1,3,5,7,-1,9,11,13,15,17,-1,19,-1,21,23,25,27,29,-1,31,-1,33,35,-1,37,-1,39,-1,-1,-1,41,43,-1,-1,-1,-1,-1,-1,-1,-1,-1,-1,-1,-1,-1],"loss_changes":[1.0597077E2,2.6018291E1,3.7086098E1,3.1115376E1,0E0,2.5135254E1,1.238541E1,1.2168013E1,1.1432983E1,6.8036575E0,0E0,1.281136E1,0E0,1.2511987E1,7.566449E0,5.021759E0,9.593893E0,5.3460674E0,0E0,1.0122595E1,0E0,1.6412785E1,6.692419E0,0E0,7.93786E0,0E0,8.159784E0,0E0,0E0,0E0,5.2496977E0,4.80809E0,0E0,0E0,0E0,0E0,0E0,0E0,0E0,0E0,0E0,0E0,0E0,0E0,0E0],"parents":[2147483647,0,0,1,1,2,2,3,3,5,5,6,6,7,7,8,8,9,9,11,11,13,13,14,14,15,15,16,16,17,17,19,19,21,21,22,22,24,24,26,26,30,30,31,31],"right_children":[2,4,6,8,-1,10,12,14,16,18,-1,20,-1,22,24,26,28,30,-1,32,-1,34,36,-1,38,-1,40,-1,-1,-1,42,44,-1,-1,-1,-1,-1,-1,-1,-1,-1,-1,-1,-1,-1],"split_conditions":[4.2E1,4.59512E0,1E0,2E0,3.8389258E-2,5E1,6.3E1,1E0,1.0819711E5,3E0,4.693659E-2,4.8598123E0,-2.2927357E-2,1E0,7.824731E4,4.4188404E0,1.1092996E5,4.5E2,5.254912E-2,2E0,5.172944E-2,1.7060078E5,4.405484E4,-3.585555E-2,1.4524162E5,-3.4094702E-2,1E0,3.785839E-2,-1.5905874E-2,6.290226E-2,1E0,1E0,-9.947975E-3,-3.577952E-3,6.474246E-2,-3.3753759E-3,-2.4938382E-2,1.5448177E-2,-1.8417446E-2,3.6555447E-2,-3.4551788E-2,7.078801E-3,2.5348136E-2,5.5502676E-3,2.4091601E-2],"split_indices":[0,4,2,1,0,0,0,5,6,1,0,4,0,3,6,4,6,10,0,1,0,6,6,0,6,0,3,0,0,0,5,5,0,0,0,0,0,0,0,0,0,0,0,0,0],"split_type":[0,0,0,0,0,0,0,0,0,0,0,0,0,0,0,0,0,0,0,0,0,0,0,0,0,0,0,0,0,0,0,0,0,0,0,0,0,0,0,0,0,0,0,0,0],"sum_hessian":[9.622828E2,5.500434E2,4.1223938E2,5.3344226E2,1.6601143E1,2.1425609E2,1.9798328E2,3.2126285E2,2.1217944E2,1.3550734E2,7.874875E1,1.7225113E2,2.5732159E1,2.2437474E2,9.688809E1,1.4268813E2,6.949132E1,1.2750948E2,7.99786E0,1.6263954E2,9.611582E0,1.0063714E2,1.237376E2,5.567199E0,9.132089E1,1.3345949E2,9.228629E0,5.3363533E0,6.415497E1,2.9239986E0,1.2458549E2,1.08224945E2,5.4414593E1,9.5155914E1,5.481222E0,3.483047E1,8.8907135E1,7.811281E1,1.3208084E1,4.144979E0,5.0836506E0,8.473316E1,3.9852318E1,7.22952E1,3.5929752E1],"tree_param":{"num_deleted":"0","num_feature":"11","num_nodes":"45","size_leaf_vector":"1"}},{"base_weights":[4.6683284E-3,-3.3594713E-1,2.7878857E-1,-3.7616798E-1,8.0430764E-1,2.0502058E-1,5.2444424E-2,-1.753808E-1,-6.7092466E-1,6.9781155E-3,5.5604998E-2,4.184201E-1,-2.1351774E-1,-3.1879368E-1,1.630678E-1,-3.6987863E-2,-1.725037E-2,6.302902E-1,1.4125785E-1,-4.347031E-1,9.9782035E-2,8.438908E-2,-5.0272036E-1,3.29497E-1,-5.38833E-1,3.552499E-1,8.939172E-1,-1.3656009E-2,4.6916682E-1,5.5521107E-1,-2.0842854E-2,-1.7499654E-2,4.6463442E-1,-1.8746633E-2,1.236774E-2,-2.4089554E-2,1.7078647E-2,-2.1290416E-2,2.0738069E-2,-3.3315416E-2,2.2058763E-2,7.168523E-2,1.163085E-2,5.607006E-2,3.0628536E-2,1.6053412E-2,-1.0611223E-2,-2.6530797E-2,2.6132781E-2,5.5208858E-2,-9.511195E-3,4.355943E-2,1.1222485E-2],"categories":[],"categories_nodes":[],"categories_segments":[],"categories_sizes":[],"default_left":[0,0,0,0,0,0,0,0,0,0,0,0,0,0,0,0,0,0,0,0,0,0,0,0,0,0,0,0,0,0,0,0,0,0,0,0,0,0,0,0,0,0,0,0,0,0,0,0,0,0,0,0,0],"id":27,"left_children":[1,3,5,7,9,11,-1,13,15,-1,-1,17,19,21,23,-1,-1,25,27,29,31,33,35,37,39,41,43,45,47,49,-1,-1,51,-1,-1,-1,-1,-1,-1,-1,-1,-1,-1,-1,-1,-1,-1,-1,-1,-1,-1,-1,-1],"loss_changes":[8.990285E1,1.9994125E1,3.8438297E1,2.4468128E1,4.853196E0,4.452082E1,0E0,1.2111237E1,9.047668E0,0E0,0E0,1.9278397E1,1.1730457E1,1.3008184E1,8.89278E0,0E0,0E0,1.3214966E1,7.330327E0,6.8352394E0,1.3614626E1,6.4868913E0,8.694653E0,8.952551E0,4.553419E0,9.117196E0,5.7651215E0,9.658815E0,8.589827E0,4.3925905E0,0E0,0E0,4.485895E0,0E0,0E0,0E0,0E0,0E0,0E0,0E0,0E0,0E0,0E0,0E0,0E0,0E0,0E0,0E0,0E0,0E0,0E0,0E0,0E0],"parents":[2147483647,0,0,1,1,2,2,3,3,4,4,5,5,7,7,8,8,11,11,12,12,13,13,14,14,17,17,18,18,19,19,20,20,21,21,22,22,23,23,24,24,25,25,26,26,27,27,28,28,29,29,32,32],"right_children":[2,4,6,8,10,12,-1,14,16,-1,-1,18,20,22,24,-1,-1,26,28,30,32,34,36,38,40,42,44,46,48,50,-1,-1,52,-1,-1,-1,-1,-1,-1,-1,-1,-1,-1,-1,-1,-1,-1,-1,-1,-1,-1,-1,-1],"split_conditions":[3.9E1,4.4188404E0,3E0,3.6888795E0,-2.795076E-1,4.2195077E0,5.2444424E-2,1E0,-6.4275855E-1,6.9781155E-3,5.5604998E-2,1E0,4.543295E0,7.149779E4,1.4228928E5,-3.6987863E-2,-1.725037E-2,4.6E1,1E0,4.99E2,-7.620957E-1,3.465736E0,1.6974264E5,9.854411E4,7.54E2,-1.1979722E1,-7.313166E-1,7.498958E4,9.525272E4,1E0,-2.0842854E-2,-1.7499654E-2,-2.8666618E-1,-1.8746633E-2,1.236774E-2,-2.4089554E-2,1.7078647E-2,-2.1290416E-2,2.0738069E-2,-3.3315416E-2,2.2058763E-2,7.168523E-2,1.163085E-2,5.607006E-2,3.0628536E-2,1.6053412E-2,-1.0611223E-2,-2.6530797E-2,2.6132781E-2,5.5208858E-2,-9.511195E-3,4.355943E-2,1.1222485E-2],"split_indices":[0,4,1,4,7,4,0,5,7,0,0,9,4,6,6,0,0,0,5,10,7,4,6,6,10,7,7,6,6,3,0,0,7,0,0,0,0,0,0,0,0,0,0,0,0,0,0,0,0,0,0,0,0],"split_type":[0,0,0,0,0,0,0,0,0,0,0,0,0,0,0,0,0,0,0,0,0,0,0,0,0,0,0,0,0,0,0,0,0,0,0,0,0,0,0,0,0,0,0,0,0,0,0,0,0,0,0,0,0],"sum_hessian":[9.6086774E2,4.2836536E2,5.325024E2,4.1441745E2,1.3947882E1,4.964646E2,3.6037777E1,2.4745024E2,1.6696722E2,6.962331E0,6.985551E0,3.2881332E2,1.6765129E2,1.7384424E2,7.360601E1,8.8584946E1,7.838227E1,1.8563498E2,1.4317833E2,9.804521E1,6.960608E1,5.463058E1,1.1921365E2,5.9927124E1,1.3678885E1,9.199977E1,9.363521E1,9.789039E1,4.528795E1,5.742258E0,9.2302956E1,2.860788E1,4.09982E1,1.5240385E1,3.9390198E1,1.1028665E2,8.927002E0,9.707671E0,5.021945E1,1.1181341E1,2.4975443E0,3.6556313E0,8.834414E1,2.2040686E1,7.159452E1,3.6646935E1,6.1243454E1,5.3294864E0,3.995846E1,2.5412934E0,3.2009645E0,9.153783E0,3.1844418E1],"tree_param":{"num_deleted":"0","num_feature":"11","num_nodes":"53","size_leaf_vector":"1"}},{"base_weights":[-4.009878E-3,-2.3666553E-1,4.796212E-1,-2.8602147E-1,3.385338E-2,7.5704247E-1,1.9862173E-1,-9.253111E-2,-6.074727E-1,5.858511E-1,4.7957562E-2,3.836605E-1,-1.3129822E-2,1.22968175E-1,-2.8011215E-1,-3.0217847E-2,-3.6014035E-1,3.0402942E-2,2.4280393E-1,3.1614E-1,4.778943E-2,-1.0089289E-1,2.7735093E-1,-9.3649544E-2,-5.035216E-1,8.2028437E-1,-1.852562E-2,-1.15503594E-1,5.3541955E-2,5.314218E-1,1.16014495E-1,-6.5952735E-3,4.7371313E-2,1.4727273E-2,-1.33477915E-2,-9.453564E-3,9.140672E-3,-9.761639E-3,-3.207832E-2,7.582188E-2,-1.1437553E-2,-3.0712424E-2,1.152417E-2,2.9222714E-2,-6.1408104E-3,1.8492373E-2,-8.072727E-3],"categories":[],"categories_nodes":[],"categories_segments":[],"categories_sizes":[],"default_left":[0,0,0,0,0,0,0,0,0,0,0,0,0,0,0,0,0,0,0,0,0,0,0,0,0,0,0,0,0,0,0,0,0,0,0,0,0,0,0,0,0,0,0,0,0,0,0],"id":28,"left_children":[1,3,5,7,-1,9,11,13,15,17,-1,19,-1,21,23,-1,25,-1,27,29,-1,31,33,35,37,39,-1,41,-1,43,45,-1,-1,-1,-1,-1,-1,-1,-1,-1,-1,-1,-1,-1,-1,-1,-1],"loss_changes":[1.0755405E2,3.372185E1,2.4052933E1,3.8331287E1,0E0,9.918915E0,1.4937181E1,1.5656385E1,6.5992355E0,5.3710365E0,0E0,5.581955E0,0E0,6.2674837E0,8.572474E0,0E0,8.209357E0,0E0,1.3106808E1,4.5471334E0,0E0,5.520515E0,5.054454E0,4.83595E0,6.5895157E0,6.664214E0,0E0,6.739635E0,0E0,6.0853024E0,5.876331E0,0E0,0E0,0E0,0E0,0E0,0E0,0E0,0E0,0E0,0E0,0E0,0E0,0E0,0E0,0E0,0E0],"parents":[2147483647,0,0,1,1,2,2,3,3,5,5,6,6,7,7,8,8,9,9,11,11,13,13,14,14,16,16,18,18,19,19,21,21,22,22,23,23,24,24,25,25,27,27,29,29,30,30],"right_children":[2,4,6,8,-1,10,12,14,16,18,-1,20,-1,22,24,-1,26,-1,28,30,-1,32,34,36,38,40,-1,42,-1,44,46,-1,-1,-1,-1,-1,-1,-1,-1,-1,-1,-1,-1,-1,-1,-1,-1],"split_conditions":[4.5E1,3E0,1E0,2E0,3.385338E-2,5.4E1,5.9E1,1E0,1.0791594E5,2E0,4.7957562E-2,3E0,-1.3129822E-2,3.5E1,1E0,-3.0217847E-2,1.1092996E5,3.0402942E-2,3E0,6.38E2,4.778943E-2,1.7412675E5,1.4874592E5,1E0,6.5E2,-2.5759675E-3,-1.852562E-2,-6.6829056E-1,5.3541955E-2,1.3499748E5,1E0,-6.5952735E-3,4.7371313E-2,1.4727273E-2,-1.33477915E-2,-9.453564E-3,9.140672E-3,-9.761639E-3,-3.207832E-2,7.582188E-2,-1.1437553E-2,-3.0712424E-2,1.152417E-2,2.9222714E-2,-6.1408104E-3,1.8492373E-2,-8.072727E-3],"split_indices":[0,1,2,1,0,0,0,3,6,1,0,1,0,0,2,0,6,0,1,10,0,6,6,5,10,7,0,7,0,6,3,0,0,0,0,0,0,0,0,0,0,0,0,0,0,0,0],"split_type":[0,0,0,0,0,0,0,0,0,0,0,0,0,0,0,0,0,0,0,0,0,0,0,0,0,0,0,0,0,0,0,0,0,0,0,0,0,0,0,0,0,0,0,0,0,0,0],"sum_hessian":[9.5386145E2,6.443844E2,3.0947702E2,6.16185E2,2.81994E1,1.5487756E2,1.5459947E2,3.8545615E2,2.3072885E2,1.0994746E2,4.4930107E1,1.13897766E2,4.0701706E1,1.795396E2,2.0591656E2,1.541694E2,7.655945E1,7.636246E1,3.3585003E1,1.0597364E2,7.92412E0,7.3421715E1,1.0611788E2,1.1301275E2,9.290381E1,4.6003513E0,7.19591E1,2.567632E1,7.908683E0,5.0256054E1,5.5717587E1,7.098609E1,2.4356236E0,9.4376144E1,1.1741738E1,7.940032E1,3.3612427E1,4.737387E1,4.552994E1,2.0528374E0,2.547514E0,9.582888E0,1.6093431E1,4.0081417E1,1.0174638E1,2.6832396E1,2.8885193E1],"tree_param":{"num_deleted":"0","num_feature":"11","num_nodes":"47","size_leaf_vector":"1"}},{"base_weights":[-9.292044E-3,-2.5126708E-1,3.696903E-1,-2.9999948E-1,7.291354E-1,3.0027243E-1,5.4283183E-2,-1.2001083E-1,-6.001436E-1,6.656043E-3,4.769785E-2,5.071392E-1,-8.288334E-2,-2.4817029E-1,1.9541463E-1,-3.2323584E-2,-2.4128284E-1,1.3738382E-1,6.3614666E-1,-5.2099377E-1,8.702513E-2,3.60405E-2,-4.0195376E-1,3.0966598E-1,-2.9147925E-2,3.9414145E-2,-1.4247196E-2,1.103447E-2,-3.2981448E-2,8.62272E-1,3.723384E-1,3.80051E-1,-2.8051268E-2,1.6702762E-1,-3.8916815E-2,5.831624E-2,-5.6111964E-4,-2.4085552E-2,-2.9085411E-3,-1.7019058E-2,1.9820383E-2,3.0062648E-2,5.587014E-2,2.785207E-2,5.7552564E-3,5.4920215E-2,-2.1486029E-2,1.0111326E-2,-2.2801807E-2],"categories":[],"categories_nodes":[],"categories_segments":[],"categories_sizes":[],"default_left":[0,0,0,0,0,0,0,0,0,0,0,0,0,0,0,0,0,0,0,0,0,0,0,0,0,0,0,0,0,0,0,0,0,0,0,0,0,0,0,0,0,0,0,0,0,0,0,0,0],"id":29,"left_children":[1,3,5,7,9,11,-1,13,15,-1,-1,17,19,21,23,-1,25,27,29,31,33,35,37,39,-1,-1,-1,-1,-1,41,43,45,-1,47,-1,-1,-1,-1,-1,-1,-1,-1,-1,-1,-1,-1,-1,-1,-1],"loss_changes":[8.628345E1,2.7653423E1,2.3447002E1,2.9518124E1,6.3630877E0,2.7201582E1,0E0,