{"learner":{"attributes":{"scikit_learn":"{\"_estimator_type\": \"classifier\"}"},"feature_names":[],"feature_types":[],"gradient_booster":{"model":{"cats":{"enc":[],"feature_segments":[],"sorted_idx":[]},"gbtree_model_param":{"num_parallel_tree":"1","num_trees":"276"},"iteration_indptr":[0,1,2,3,4,5,6,7,8,9,10,11,12,13,14,15,16,17,18,19,20,21,22,23,24,25,26,27,28,29,30,31,32,33,34,35,36,37,38,39,40,41,42,43,44,45,46,47,48,49,50,51,52,53,54,55,56,57,58,59,60,61,62,63,64,65,66,67,68,69,70,71,72,73,74,75,76,77,78,79,80,81,82,83,84,85,86,87,88,89,90,91,92,93,94,95,96,97,98,99,100,101,102,103,104,105,106,107,108,109,110,111,112,113,114,115,116,117,118,119,120,121,122,123,124,125,126,127,128,129,130,131,132,133,134,135,136,137,138,139,140,141,142,143,144,145,146,147,148,149,150,151,152,153,154,155,156,157,158,159,160,161,162,163,164,165,166,167,168,169,170,171,172,173,174,175,176,177,178,179,180,181,182,183,184,185,186,187,188,189,190,191,192,193,194,195,196,197,198,199,200,201,202,203,204,205,206,207,208,209,210,211,212,213,214,215,216,217,218,219,220,221,222,223,224,225,226,227,228,229,230,231,232,233,234,235,236,237,238,239,240,241,242,243,244,245,246,247,248,249,250,251,252,253,254,255,256,257,258,259,260,261,262,263,264,265,266,267,268,269,270,271,272,273,274,275,276],"tree_info":[0,0,0,0,0,0,0,0,0,0,0,0,0,0,0,0,0,0,0,0,0,0,0,0,0,0,0,0,0,0,0,0,0,0,0,0,0,0,0,0,0,0,0,0,0,0,0,0,0,0,0,0,0,0,0,0,0,0,0,0,0,0,0,0,0,0,0,0,0,0,0,0,0,0,0,0,0,0,0,0,0,0,0,0,0,0,0,0,0,0,0,0,0,0,0,0,0,0,0,0,0,0,0,0,0,0,0,0,0,0,0,0,0,0,0,0,0,0,0,0,0,0,0,0,0,0,0,0,0,0,0,0,0,0,0,0,0,0,0,0,0,0,0,0,0,0,0,0,0,0,0,0,0,0,0,0,0,0,0,0,0,0,0,0,0,0,0,0,0,0,0,0,0,0,0,0,0,0,0,0,0,0,0,0,0,0,0,0,0,0,0,0,0,0,0,0,0,0,0,0,0,0,0,0,0,0,0,0,0,0,0,0,0,0,0,0,0,0,0,0,0,0,0,0,0,0,0,0,0,0,0,0,0,0,0,0,0,0,0,0,0,0,0,0,0,0,0,0,0,0,0,0,0,0,0,0,0,0,0,0,0,0,0,0,0,0,0,0,0,0,0,0,0,0,0,0],"trees":[{"base_weights":[-0E0,-6.740631E-1,8.9104885E-1,-8.001418E-1,8.958424E-2,1.0938975E0,-0E0,-3.1263205E-1,-9.047775E-2,5.179585E-1,8.762541E-2,-5.611737E-1,8.750747E-2,-5.956345E-1,3.0695662E-1,7.8689873E-1,-0E0,-7.103688E-2,-0E0,-2.6932139E-2,-8.114279E-1,-1.7153945E-2,4.7562674E-1,7.1770884E-2,1.3017968E-2,-2.852777E-1,4.4431788E-1,-2.9668786E-2,7.971885E-2,-8.837396E-1,-0E0,6.5727293E-1,-1.45937335E-2,-1.12070255E-1,4.450591E-2,-3.036304E-2,-0E0,-0E0,4.2376094E-2,2.4350155E-2,-6.4409124E-3,-6.8991005E-2,-2.7808082E-1,-0E0,4.8145685E-2,-2.4612058E-2,9.482237E-3,-0E0,-3.3407014E-2],"categories":[],"categories_nodes":[],"categories_segments":[],"categories_sizes":[],"default_left":[0,0,0,0,0,0,0,0,0,0,0,0,0,0,0,0,0,0,0,0,0,0,0,0,0,0,0,0,0,0,0,0,0,0,0,0,0,0,0,0,0,0,0,0,0,0,0,0,0],"id":0,"left_children":[1,3,5,7,-1,9,11,13,-1,15,-1,17,-1,19,21,23,25,-1,-1,27,29,-1,31,-1,33,35,37,-1,39,41,-1,43,-1,45,-1,-1,-1,-1,-1,-1,-1,-1,47,-1,-1,-1,-1,-1,-1],"loss_changes":[1.2363491E3,3.0904364E2,1.6855579E2,3.0783197E2,0E0,8.695935E1,1.24376144E2,1.1550165E2,0E0,3.572181E1,0E0,4.083987E1,0E0,4.724057E1,2.1671263E1,3.1241356E1,1.2544321E1,0E0,0E0,1.0372891E1,1.8752518E1,0E0,2.6174381E1,0E0,1.14188595E1,4.71028E0,6.2355814E0,0E0,8.410205E0,1.7405304E1,0E0,6.4162865E0,0E0,6.0931168E0,0E0,0E0,0E0,0E0,0E0,0E0,0E0,0E0,4.609766E0,0E0,0E0,0E0,0E0,0E0,0E0],"parents":[2147483647,0,0,1,1,2,2,3,3,5,5,6,6,7,7,9,9,11,11,13,13,14,14,15,15,16,16,19,19,20,20,22,22,24,24,25,25,26,26,28,28,29,29,31,31,33,33,42,42],"right_children":[2,4,6,8,-1,10,12,14,-1,16,-1,18,-1,20,22,24,26,-1,-1,28,30,-1,32,-1,34,36,38,-1,40,42,-1,44,-1,46,-1,-1,-1,-1,-1,-1,-1,-1,48,-1,-1,-1,-1,-1,-1],"split_conditions":[4.2E1,3E0,2E0,2E0,8.958424E-2,1E0,3E0,1E0,-9.047775E-2,1E0,8.762541E-2,7.945009E4,8.750747E-2,7.126989E4,9.920846E4,2E0,1E0,-7.103688E-2,-0E0,3.3E1,1.693996E5,-1.7153945E-2,1.4442795E5,7.1770884E-2,4.5E1,1.295485E5,1.0535581E5,-2.9668786E-2,1E0,3.8E1,-0E0,2.8E1,-1.45937335E-2,3E0,4.450591E-2,-3.036304E-2,-0E0,-0E0,4.2376094E-2,2.4350155E-2,-6.4409124E-3,-6.8991005E-2,1E0,-0E0,4.8145685E-2,-2.4612058E-2,9.482237E-3,-0E0,-3.3407014E-2],"split_indices":[0,1,3,1,0,6,1,5,0,3,0,7,0,7,7,1,5,0,0,0,7,0,7,0,0,7,7,0,3,0,0,0,0,1,0,0,0,0,0,0,0,0,3,0,0,0,0,0,0],"split_type":[0,0,0,0,0,0,0,0,0,0,0,0,0,0,0,0,0,0,0,0,0,0,0,0,0,0,0,0,0,0,0,0,0,0,0,0,0,0,0,0,0,0,0,0,0,0,0,0,0],"sum_hessian":[2.0449586E3,1.1692086E3,8.7575E2,1.110497E3,5.8711655E1,7.192945E2,1.5645552E2,6.2758435E2,4.8291257E2,2.4306902E2,4.7622546E2,1.1807976E2,3.8375767E1,4.4118405E2,1.864003E2,1.5855829E2,8.4510735E1,5.8792946E1,5.9286808E1,1.354816E2,3.0570245E2,2.901994E1,1.5738037E2,1.0104448E2,5.75138E1,5.4516872E1,2.9993864E1,3.8723927E1,9.675767E1,2.8050153E2,2.520092E1,1.3579141E2,2.1588957E1,4.2585888E1,1.4927914E1,3.6496933E1,1.801994E1,5.9539876E0,2.4039877E1,5.2444786E1,4.431288E1,1.9901074E2,8.14908E1,2.0246933E1,1.1554448E2,3.6473927E1,6.1119633E0,4.622086E1,3.526994E1],"tree_param":{"num_deleted":"0","num_feature":"9","num_nodes":"49","size_leaf_vector":"1"}},{"base_weights":[-5.2127675E-3,-3.7967724E-1,1.0105157E0,-5.136414E-1,9.239086E-2,8.5164055E-2,4.9180052E-1,1.0526271E-2,-1.2351023E0,7.68274E-1,5.362492E-2,-3.5683677E-1,5.326475E-1,-1.3426988E0,-3.7725896E-1,5.2992463E-2,-0E0,-1.5226782E-2,7.3783554E-2,-5.9695774E-1,1.5962586E-1,9.03166E-1,-0E0,-1.02261275E-1,-9.73933E-1,-0E0,-7.0256966E-1,-0E0,-9.048157E-1,-3.1134466E-2,3.7205648E-1,2.2630272E-2,7.599921E-2,-2.1253616E-1,5.6201303E-1,-0E0,-6.410766E-2,-0E0,-5.9858788E-2,-1.4013169E-2,1.2060902E-2,-6.657587E-2,-0E0,4.170955E-2,-0E0,-0E0,-3.7700713E-1,-0E0,4.5575604E-2,-4.5495454E-2,-0E0],"categories":[],"categories_nodes":[],"categories_segments":[],"categories_sizes":[],"default_left":[0,0,0,0,0,0,0,0,0,0,0,0,0,0,0,0,0,0,0,0,0,0,0,0,0,0,0,0,0,0,0,0,0,0,0,0,0,0,0,0,0,0,0,0,0,0,0,0,0,0,0],"id":1,"left_children":[1,3,5,7,-1,-1,9,11,13,15,17,19,21,23,25,-1,-1,-1,-1,27,29,31,33,-1,35,-1,37,39,41,-1,43,-1,-1,45,47,-1,-1,-1,-1,-1,-1,-1,-1,-1,-1,-1,49,-1,-1,-1,-1],"loss_changes":[7.911126E2,3.6994293E2,6.717908E1,5.565908E2,0E0,0E0,2.0126495E1,1.6336066E2,3.6931946E1,5.3778534E0,4.524343E1,6.488417E1,6.642532E1,1.1546631E1,1.53802395E1,0E0,0E0,0E0,0E0,7.164016E1,2.0552637E1,1.385527E1,2.1753656E1,0E0,5.0218506E0,0E0,8.598272E0,4.6939406E0,3.4547485E1,0E0,1.750714E1,0E0,0E0,4.588613E0,7.387245E0,0E0,0E0,0E0,0E0,0E0,0E0,0E0,0E0,0E0,0E0,0E0,8.984177E0,0E0,0E0,0E0,0E0],"parents":[2147483647,0,0,1,1,2,2,3,3,6,6,7,7,8,8,9,9,10,10,11,11,12,12,13,13,14,14,19,19,20,20,21,21,22,22,24,24,26,26,27,27,28,28,30,30,33,33,34,34,46,46],"right_children":[2,4,6,8,-1,-1,10,12,14,16,18,20,22,24,26,-1,-1,-1,-1,28,30,32,34,-1,36,-1,38,40,42,-1,44,-1,-1,46,48,-1,-1,-1,-1,-1,-1,-1,-1,-1,-1,-1,50,-1,-1,-1,-1],"split_conditions":[1E0,3E0,1E0,2E0,9.239086E-2,8.5164055E-2,4.060443E0,3.6888795E0,4.465908E0,1.5869761E5,3E0,1E0,1E0,5.450355E4,1E0,5.2992463E-2,-0E0,-1.5226782E-2,7.3783554E-2,7.225264E4,9.994593E4,3.7612002E0,1E0,-1.02261275E-1,5.732704E4,-0E0,4.477337E0,3.465736E0,1.7184838E5,-3.1134466E-2,1.2838912E5,2.2630272E-2,7.599921E-2,9.505902E4,9.466729E4,-0E0,-6.410766E-2,-0E0,-5.9858788E-2,-1.4013169E-2,1.2060902E-2,-6.657587E-2,-0E0,4.170955E-2,-0E0,-0E0,1.3444605E5,-0E0,4.5575604E-2,-4.5495454E-2,-0E0],"split_indices":[6,1,3,1,0,0,8,8,8,7,1,5,3,7,3,0,0,0,0,7,7,8,5,0,7,0,8,8,7,0,7,0,0,7,7,0,0,0,0,0,0,0,0,0,0,0,7,0,0,0,0],"split_type":[0,0,0,0,0,0,0,0,0,0,0,0,0,0,0,0,0,0,0,0,0,0,0,0,0,0,0,0,0,0,0,0,0,0,0,0,0,0,0,0,0,0,0,0,0,0,0,0,0,0,0],"sum_hessian":[2.0794055E3,1.5294825E3,5.49923E2,1.4339866E3,9.54959E1,3.2670068E2,2.232223E2,8.2766504E2,6.063216E2,1.2040217E2,1.0282014E2,4.7697385E2,3.5069116E2,5.253048E2,8.101681E1,1.1275887E2,7.6432943E0,7.9417114E1,2.3403023E1,3.368891E2,1.4008473E2,1.9829312E2,1.5239804E2,2.877403E2,2.3756453E2,3.2078087E1,4.893872E1,1.07171165E2,2.2971794E2,2.1633253E1,1.18451485E2,8.251591E1,1.1577722E2,1.0792387E2,4.4474174E1,3.6966133E0,2.338679E2,1.4080506E1,3.485821E1,2.6285728E1,8.088544E1,2.0801703E2,2.170092E1,7.6175224E1,4.2276264E1,4.6690414E1,6.123345E1,4.22683E0,4.0247345E1,3.0104935E1,3.1128517E1],"tree_param":{"num_deleted":"0","num_feature":"9","num_nodes":"51","size_leaf_vector":"1"}},{"base_weights":[2.0410556E-3,-5.6903577E-1,8.5550445E-1,-6.897848E-1,8.1146464E-2,1.2833964E0,2.4403192E-1,-2.2334103E-1,-1.2684509E0,8.342431E-1,9.851293E-2,4.52742E-1,-7.4420506E-1,-4.9056214E-1,2.047011E-1,-8.294693E-2,-0E0,6.673006E-2,2.9104698E-1,7.0419717E-1,8.974369E-2,-0E0,-8.6478066E-1,-5.294387E-1,-0E0,4.6650368E-1,-6.292827E-2,-0E0,6.403604E-2,4.98783E-2,-0E0,-1.576064E-1,7.542594E-2,-6.6857204E-2,-0E0,-5.7954276E-3,-5.988304E-1,3.412604E-2,-0E0,2.3774926E-3,-1.8810188E-2,-2.8372545E-2,1.5424251E-2,-8.202291E-1,1.5577489E-1,-4.2286303E-2,-0E0,-0E0,-6.269697E-2,2.0785913E-2,-0E0],"categories":[],"categories_nodes":[],"categories_segments":[],"categories_sizes":[],"default_left":[0,0,0,0,0,0,0,0,0,0,0,0,0,0,0,0,0,0,0,0,0,0,0,0,0,0,0,0,0,0,0,0,0,0,0,0,0,0,0,0,0,0,0,0,0,0,0,0,0,0,0],"id":2,"left_children":[1,3,5,7,-1,9,11,13,15,17,-1,19,21,23,25,-1,-1,-1,27,29,31,-1,33,35,-1,37,39,41,-1,-1,-1,43,-1,-1,-1,-1,45,-1,-1,-1,-1,-1,-1,47,49,-1,-1,-1,-1,-1,-1],"loss_changes":[1.01405365E3,2.7409033E2,2.0287402E2,2.998479E2,0E0,2.0576965E1,7.497091E1,7.959241E1,7.715576E0,6.9280243E0,0E0,2.0768349E1,5.6679955E0,1.1830269E1,2.1332458E1,0E0,0E0,0E0,2.0287481E1,1.0340446E1,5.1186104E1,0E0,4.5512543E0,5.6978683E0,0E0,5.282549E0,4.972984E0,7.752987E0,0E0,0E0,0E0,3.2751514E1,0E0,0E0,0E0,0E0,8.5355835E0,0E0,0E0,0E0,0E0,0E0,0E0,9.801285E0,4.9552417E0,0E0,0E0,0E0,0E0,0E0,0E0],"parents":[2147483647,0,0,1,1,2,2,3,3,5,5,6,6,7,7,8,8,9,9,11,11,12,12,13,13,14,14,18,18,19,19,20,20,22,22,23,23,25,25,26,26,27,27,31,31,36,36,43,43,44,44],"right_children":[2,4,6,8,-1,10,12,14,16,18,-1,20,22,24,26,-1,-1,-1,28,30,32,-1,34,36,-1,38,40,42,-1,-1,-1,44,-1,-1,-1,-1,46,-1,-1,-1,-1,-1,-1,48,50,-1,-1,-1,-1,-1,-1],"split_conditions":[4.3E1,3E0,1E0,2E0,8.1146464E-2,4.8E1,6.3E1,3.8E1,1.8162714E5,2E0,9.851293E-2,4.0775375E0,4.204693E0,1.7493764E5,1E0,-8.294693E-2,-0E0,6.673006E-2,3E0,1.5869761E5,3E0,-0E0,1.3483758E5,4.350442E4,-0E0,1.5145788E5,1E0,8.614746E4,6.403604E-2,4.98783E-2,-0E0,5.450355E4,7.542594E-2,-6.6857204E-2,-0E0,-5.7954276E-3,3.7E1,3.412604E-2,-0E0,2.3774926E-3,-1.8810188E-2,-2.8372545E-2,1.5424251E-2,4.1271343E0,1.381663E5,-4.2286303E-2,-0E0,-0E0,-6.269697E-2,2.0785913E-2,-0E0],"split_indices":[0,1,3,1,0,0,0,0,7,1,0,8,8,7,3,0,0,0,1,7,1,0,7,7,0,7,2,7,0,0,0,7,0,0,0,0,0,0,0,0,0,0,0,8,7,0,0,0,0,0,0],"split_type":[0,0,0,0,0,0,0,0,0,0,0,0,0,0,0,0,0,0,0,0,0,0,0,0,0,0,0,0,0,0,0,0,0,0,0,0,0,0,0,0,0,0,0,0,0,0,0,0,0,0,0],"sum_hessian":[2.0594988E3,1.2290002E3,8.304985E2,1.1620049E3,6.699538E1,4.746952E2,3.5580325E2,6.5818774E2,5.0381708E2,1.9119492E2,2.8350027E2,3.0493732E2,5.0865944E1,4.1771036E2,2.4047742E2,4.9667883E2,7.1382513E0,1.2252761E2,6.8667305E1,1.6085745E2,1.4407988E2,7.6506515E0,4.3215294E1,3.997135E2,1.7996853E1,1.359498E2,1.0452761E2,4.9239468E1,1.9427834E1,1.4998936E2,1.0868084E1,1.1569135E2,2.8388515E1,3.2095566E1,1.1119728E1,7.494828E1,3.2476523E2,1.2335303E2,1.2596767E1,4.931607E1,5.5211544E1,2.2032557E1,2.7206911E1,4.2477173E1,7.321419E1,2.907365E2,3.4028694E1,3.9274285E0,3.8549744E1,5.9085556E1,1.412863E1],"tree_param":{"num_deleted":"0","num_feature":"9","num_nodes":"51","size_leaf_vector":"1"}},{"base_weights":[2.0204384E-2,-6.276983E-1,6.437264E-1,-7.236377E-1,6.468833E-2,9.7590625E-1,1.93968E-1,-3.1122088E-1,-7.737965E-2,4.923425E-1,8.9130476E-2,-4.528276E-2,7.2681725E-1,-5.509035E-1,2.2226778E-1,4.982732E-2,-0E0,-1.9127816E-1,6.370129E-2,5.275007E-2,-0E0,-2.8961012E-1,-4.8230167E-2,3.203305E-2,-3.5551924E-3,-2.5931202E-2,6.832541E-2,1.3711831E-1,-6.6625065E-1,-2.5298083E-2,-0E0,2.4398278E-2,-5.4919714E-5,-5.805289E-2,-4.5202775E-3],"categories":[],"categories_nodes":[],"categories_segments":[],"categories_sizes":[],"default_left":[0,0,0,0,0,0,0,0,0,0,0,0,0,0,0,0,0,0,0,0,0,0,0,0,0,0,0,0,0,0,0,0,0,0,0],"id":3,"left_children":[1,3,5,7,-1,9,11,13,-1,15,-1,17,19,21,23,-1,25,27,-1,-1,-1,29,-1,-1,-1,-1,-1,31,33,-1,-1,-1,-1,-1,-1],"loss_changes":[8.4693085E2,1.626373E2,1.4842114E2,1.7346097E2,0E0,9.539783E1,6.748834E1,7.3222E1,0E0,3.865979E1,0E0,4.319069E1,1.308712E1,8.590744E0,1.65051E1,0E0,5.5608242E1,5.2297268E1,0E0,0E0,0E0,6.0346355E0,0E0,0E0,0E0,0E0,0E0,9.169344E0,9.325062E0,0E0,0E0,0E0,0E0,0E0,0E0],"parents":[2147483647,0,0,1,1,2,2,3,3,5,5,6,6,7,7,9,9,11,11,12,12,13,13,14,14,16,16,17,17,21,21,27,27,28,28],"right_children":[2,4,6,8,-1,10,12,14,-1,16,-1,18,20,22,24,-1,26,28,-1,-1,-1,30,-1,-1,-1,-1,-1,32,34,-1,-1,-1,-1,-1,-1],"split_conditions":[4E1,3E0,1E0,2E0,6.468833E-2,4.7E1,1E0,1E0,-7.737965E-2,2E0,8.9130476E-2,3E0,6.3E1,1E0,1E0,4.982732E-2,3E0,4.158883E0,6.370129E-2,5.275007E-2,-0E0,3.7E1,-4.8230167E-2,3.203305E-2,-3.5551924E-3,-2.5931202E-2,6.832541E-2,1E0,1E0,-2.5298083E-2,-0E0,2.4398278E-2,-5.4919714E-5,-5.805289E-2,-4.5202775E-3],"split_indices":[0,1,3,1,0,0,5,5,0,1,0,1,0,3,3,0,1,8,0,0,0,0,0,0,0,0,0,2,6,0,0,0,0,0,0],"split_type":[0,0,0,0,0,0,0,0,0,0,0,0,0,0,0,0,0,0,0,0,0,0,0,0,0,0,0,0,0,0,0,0,0,0,0],"sum_hessian":[2.0804106E3,1.01301495E3,1.0673956E3,9.6609406E2,4.6920914E1,5.969366E2,4.7045905E2,5.3370154E2,4.3239252E2,2.8966263E2,3.07274E2,3.1774405E2,1.5271501E2,3.7994687E2,1.537547E2,1.7854208E2,1.1112054E2,2.9171854E2,2.6025488E1,1.3913617E2,1.3578837E1,1.9095035E2,1.889965E2,9.098174E1,6.2772957E1,8.216743E1,2.8953108E1,1.6434634E2,1.27372215E2,1.4037827E2,5.0572086E1,7.922214E1,8.51242E1,7.776463E1,4.960758E1],"tree_param":{"num_deleted":"0","num_feature":"9","num_nodes":"35","size_leaf_vector":"1"}},{"base_weights":[1.4792867E-2,-5.0893134E-1,7.1450496E-1,-6.0883695E-1,6.837169E-2,1.062664E0,2.2805999E-1,-1.5869291E-1,-1.1977717E0,4.1756856E-1,7.979794E-2,4.1535679E-1,-8.4846616E-1,-3.1994328E-1,1.4820765E-1,-9.04066E-2,-7.9537946E-1,4.6370804E-2,-0E0,-0E0,6.3997495E-1,-0E0,-9.8907214E-1,-0E0,-5.66915E-1,2.4372876E-2,-2.5335858E-3,-0E0,-8.403432E-1,-2.4004197E-2,2.091266E-2,4.099874E-1,-2.7992767E-1,7.0416003E-1,-0E0,-7.049446E-2,-0E0,-0E0,-6.9996595E-1,-0E0,-8.896296E-1,4.7664184E-2,-7.2338143E-3,-6.1954695E-1,3.356793E-2,-0E0,5.010302E-2,-3.3004075E-1,-6.457284E-2,-8.349267E-2,-4.0905166E-1,-4.9021255E-2,-0E0,-0E0,-2.72538E-2,-0E0,-4.4308443E-2],"categories":[],"categories_nodes":[],"categories_segments":[],"categories_sizes":[],"default_left":[0,0,0,0,0,0,0,0,0,0,0,0,0,0,0,0,0,0,0,0,0,0,0,0,0,0,0,0,0,0,0,0,0,0,0,0,0,0,0,0,0,0,0,0,0,0,0,0,0,0,0,0,0,0,0,0,0],"id":4,"left_children":[1,3,5,7,-1,9,11,13,15,17,-1,19,21,23,25,-1,27,-1,29,31,33,-1,35,-1,37,-1,-1,-1,39,-1,-1,41,43,45,-1,-1,-1,-1,47,-1,49,-1,-1,51,-1,-1,-1,53,-1,-1,55,-1,-1,-1,-1,-1,-1],"loss_changes":[7.5545844E2,1.8387024E2,1.3659906E2,2.8010217E2,0E0,3.673987E1,7.768577E1,3.3942608E1,9.194214E0,1.78144E1,0E0,2.8330276E1,5.321594E0,3.179934E1,1.2158222E1,0E0,8.361435E0,0E0,8.102777E0,1.7632435E1,8.543724E0,0E0,5.6720963E0,0E0,1.7993095E1,0E0,0E0,0E0,5.5821075E0,0E0,0E0,1.808194E1,2.468341E1,5.973755E0,0E0,0E0,0E0,0E0,6.770729E0,0E0,1.302449E1,0E0,0E0,9.772915E0,0E0,0E0,0E0,6.622958E0,0E0,0E0,9.081154E0,0E0,0E0,0E0,0E0,0E0,0E0],"parents":[2147483647,0,0,1,1,2,2,3,3,5,5,6,6,7,7,8,8,9,9,11,11,12,12,13,13,14,14,16,16,18,18,19,19,20,20,22,22,24,24,28,28,31,31,32,32,33,33,38,38,40,40,43,43,47,47,50,50],"right_children":[2,4,6,8,-1,10,12,14,16,18,-1,20,22,24,26,-1,28,-1,30,32,34,-1,36,-1,38,-1,-1,-1,40,-1,-1,42,44,46,-1,-1,-1,-1,48,-1,50,-1,-1,52,-1,-1,-1,54,-1,-1,56,-1,-1,-1,-1,-1,-1],"split_conditions":[4.2E1,3E0,1E0,2E0,6.837169E-2,4.5E1,6.3E1,3.8E1,8.345986E4,2E0,7.979794E-2,8.760968E4,4.189655E0,1E0,1E0,-9.04066E-2,8.831148E4,4.6370804E-2,4.477337E0,4.1271343E0,5.8E1,-0E0,5.09375E0,-0E0,3.656696E4,2.4372876E-2,-2.5335858E-3,-0E0,2.5E1,-2.4004197E-2,2.091266E-2,3.656696E4,3E0,3.8066626E0,-0E0,-7.049446E-2,-0E0,-0E0,1E0,-0E0,3.5E1,4.7664184E-2,-7.2338143E-3,7.945009E4,3.356793E-2,-0E0,5.010302E-2,2.3E1,-6.457284E-2,-8.349267E-2,1E0,-4.9021255E-2,-0E0,-0E0,-2.72538E-2,-0E0,-4.4308443E-2],"split_indices":[0,1,3,1,0,0,0,0,7,1,0,7,8,2,3,0,7,0,8,8,0,0,8,0,7,0,0,0,0,0,0,7,1,8,0,0,0,0,3,0,0,0,0,7,0,0,0,0,0,0,2,0,0,0,0,0,0],"split_type":[0,0,0,0,0,0,0,0,0,0,0,0,0,0,0,0,0,0,0,0,0,0,0,0,0,0,0,0,0,0,0,0,0,0,0,0,0,0,0,0,0,0,0,0,0,0,0,0,0,0,0,0,0,0,0,0,0],"sum_hessian":[2.040754E3,1.1608773E3,8.798767E2,1.1013044E3,5.9572857E1,4.964227E2,3.8345404E2,6.38677E2,4.6262744E2,1.2137704E2,3.7504565E2,3.379901E2,4.5463932E1,4.3807428E2,2.0060275E2,2.8035645E2,1.8227101E2,7.05385E1,5.083854E1,1.309867E2,2.0700342E2,8.638632E0,3.6825302E1,2.0494902E2,2.3312524E2,1.087769E2,9.182585E1,7.959731E0,1.7431128E2,2.6405706E1,2.4432833E1,6.058006E1,7.040664E1,1.8685248E2,2.0150934E1,3.3657352E1,3.1679485E0,4.6176308E1,1.8694894E2,1.2570726E1,1.6174055E2,4.6037674E1,1.4542388E1,5.8706764E1,1.1699877E1,2.4107985E1,1.6274449E2,1.0467137E2,8.227757E1,7.045076E1,9.1289795E1,5.3550488E1,5.1562777E0,6.339181E0,9.833219E1,4.4515064E1,4.677473E1],"tree_param":{"num_deleted":"0","num_feature":"9","num_nodes":"57","size_leaf_vector":"1"}},{"base_weights":[1.644298E-2,-5.6246656E-1,5.580506E-1,-6.601547E-1,6.4777814E-2,8.771122E-1,1.2883393E-1,-2.55299E-1,-7.4604265E-2,3.0113745E-1,7.691994E-2,-0E0,7.48913E-2,-4.9755555E-1,2.4224316E-1,5.480112E-1,-0E0,4.1930708E-1,-6.278278E-1,2.5059525E-2,-7.834073E-1,-2.1654703E-2,4.096912E-1,3.9049022E-2,-0E0,-3.86602E-1,4.8380215E-2,1.1599805E-1,8.490509E-1,-6.1214022E-2,-5.2651726E-2,-1.5230403E-2,1.3243812E-2,-5.8022887E-2,-0E0,3.475244E-2,-0E0,-3.0384593E-2,-0E0,4.9426022E-1,-4.029918E-2,-0E0,9.534656E-1,-3.624413E-2,1.2429574E-2,-0E0,4.8417844E-2,2.576569E-3,-1.5362632E-2,6.438989E-2,-0E0],"categories":[],"categories_nodes":[],"categories_segments":[],"categories_sizes":[],"default_left":[0,0,0,0,0,0,0,0,0,0,0,0,0,0,0,0,0,0,0,0,0,0,0,0,0,0,0,0,0,0,0,0,0,0,0,0,0,0,0,0,0,0,0,0,0,0,0,0,0,0,0],"id":5,"left_children":[1,3,5,7,-1,9,11,13,-1,15,-1,17,-1,19,21,23,25,27,29,31,33,-1,35,-1,-1,37,-1,39,41,-1,43,-1,-1,-1,-1,-1,-1,-1,-1,45,47,-1,49,-1,-1,-1,-1,-1,-1,-1,-1],"loss_changes":[6.456455E2,1.5296317E2,1.3669095E2,1.727103E2,0E0,9.1907684E1,5.7313362E1,6.797774E1,0E0,2.1565756E1,0E0,1.1620197E2,0E0,6.327214E1,1.8060915E1,5.197075E0,2.7904419E1,2.5862694E1,2.2269104E1,6.15277E0,2.1799576E1,0E0,1.1977428E1,0E0,0E0,4.692154E0,0E0,1.5036366E1,1.2128296E1,0E0,1.4239588E1,0E0,0E0,0E0,0E0,0E0,0E0,0E0,0E0,7.5981274E0,3.762021E0,0E0,4.0092545E0,0E0,0E0,0E0,0E0,0E0,0E0,0E0,0E0],"parents":[2147483647,0,0,1,1,2,2,3,3,5,5,6,6,7,7,9,9,11,11,13,13,14,14,15,15,16,16,17,17,18,18,19,19,20,20,22,22,25,25,27,27,28,28,30,30,39,39,40,40,42,42],"right_children":[2,4,6,8,-1,10,12,14,-1,16,-1,18,-1,20,22,24,26,28,30,32,34,-1,36,-1,-1,38,-1,40,42,-1,44,-1,-1,-1,-1,-1,-1,-1,-1,46,48,-1,50,-1,-1,-1,-1,-1,-1,-1,-1],"split_conditions":[4E1,3E0,1E0,2E0,6.4777814E-2,4.5E1,3E0,1E0,-7.4604265E-2,2E0,7.691994E-2,4.204693E0,7.48913E-2,7.533964E4,9.994593E4,1.5281258E5,3E0,1E0,1E0,3.1E1,1.5869761E5,-2.1654703E-2,1.451514E5,3.9049022E-2,-0E0,1.6371452E5,4.8380215E-2,6.297464E4,9.505902E4,-6.1214022E-2,7.631964E4,-1.5230403E-2,1.3243812E-2,-5.8022887E-2,-0E0,3.475244E-2,-0E0,-3.0384593E-2,-0E0,1E0,1E0,-0E0,1.5572684E5,-3.624413E-2,1.2429574E-2,-0E0,4.8417844E-2,2.576569E-3,-1.5362632E-2,6.438989E-2,-0E0],"split_indices":[0,1,3,1,0,0,1,5,0,1,0,8,0,7,7,7,1,5,6,0,7,0,7,0,0,7,0,7,7,0,7,0,0,0,0,0,0,0,0,6,2,0,7,0,0,0,0,0,0,0,0],"split_type":[0,0,0,0,0,0,0,0,0,0,0,0,0,0,0,0,0,0,0,0,0,0,0,0,0,0,0,0,0,0,0,0,0,0,0,0,0,0,0,0,0,0,0,0,0,0,0,0,0,0,0],"sum_hessian":[2.0436383E3,9.794671E2,1.0641713E3,9.316975E2,4.7769585E1,5.934571E2,4.7071417E2,5.288557E2,4.028418E2,2.2469193E2,3.6876517E2,4.2995282E2,4.076135E1,3.6807947E2,1.6077625E2,1.3418468E2,9.050724E1,2.6444373E2,1.6550911E2,1.213214E2,2.4675806E2,2.2062407E1,1.3871384E2,1.2324577E2,1.0938911E1,6.906092E1,2.1446323E1,1.7338353E2,9.10602E1,9.29093E1,7.25998E1,2.7704407E1,9.3617E1,2.130881E2,3.366996E1,1.1866983E2,2.0044003E1,6.539628E1,3.6646428E0,6.290424E1,1.1047929E2,7.1344614E0,8.3925735E1,3.2512524E1,4.0087276E1,2.6409954E1,3.6494286E1,4.9958344E1,6.0520947E1,8.025285E1,3.6728835E0],"tree_param":{"num_deleted":"0","num_feature":"9","num_nodes":"51","size_leaf_vector":"1"}},{"base_weights":[-5.976848E-3,-4.2761642E-1,6.417998E-1,-5.237579E-1,6.5315545E-2,9.508509E-1,2.319417E-1,-1.4981097E-1,-1.0103756E0,7.350608E-2,4.3366483E-1,-0E0,7.310875E-1,-3.3333045E-1,2.2749716E-1,-8.1698805E-2,-6.318513E-1,-1.8792143E-1,8.0426455E-2,-1.9474885E-1,6.394902E-2,8.157123E-1,-0E0,1.4999342E-1,-6.048793E-1,3.9860857E-1,-3.324805E-2,-5.1927797E-2,-1.3345827E-2,-4.991979E-2,3.7960634E-3,9.145237E-2,-6.054638E-1,8.8918877E-1,-0E0,-1.0428481E-2,2.5809777E-1,-4.8965286E-2,3.204202E-1,-7.461031E-3,5.87731E-1,2.7548583E-2,-4.043169E-4,-5.237466E-2,-0E0,-0E0,6.0992513E-2,2.7059248E-2,-0E0,3.5140794E-2,-0E0,-0E0,4.6354383E-2],"categories":[],"categories_nodes":[],"categories_segments":[],"categories_sizes":[],"default_left":[0,0,0,0,0,0,0,0,0,0,0,0,0,0,0,0,0,0,0,0,0,0,0,0,0,0,0,0,0,0,0,0,0,0,0,0,0,0,0,0,0,0,0,0,0,0,0,0,0,0,0,0,0],"id":6,"left_children":[1,3,5,7,-1,9,11,13,15,-1,17,19,21,23,25,-1,27,29,-1,31,-1,33,-1,35,37,39,-1,-1,-1,-1,-1,41,43,45,-1,-1,47,-1,49,-1,51,-1,-1,-1,-1,-1,-1,-1,-1,-1,-1,-1,-1],"loss_changes":[5.4362756E2,1.681645E2,8.6094055E1,1.9803052E2,0E0,2.3067566E1,4.722928E1,4.809855E1,2.3305664E1,0E0,8.1749016E1,4.1759277E1,1.2674614E1,6.678891E1,2.6976341E1,0E0,5.9592514E0,1.833313E1,0E0,3.042251E1,0E0,1.1581978E1,0E0,6.7273254E0,5.0527252E1,2.2720308E1,0E0,0E0,0E0,0E0,0E0,7.8115644E0,1.0055084E1,6.2360687E0,0E0,0E0,4.666786E0,0E0,4.191257E0,0E0,1.631911E1,0E0,0E0,0E0,0E0,0E0,0E0,0E0,0E0,0E0,0E0,0E0,0E0],"parents":[2147483647,0,0,1,1,2,2,3,3,5,5,6,6,7,7,8,8,10,10,11,11,12,12,13,13,14,14,16,16,17,17,19,19,21,21,23,23,24,24,25,25,31,31,32,32,33,33,36,36,38,38,40,40],"right_children":[2,4,6,8,-1,10,12,14,16,-1,18,20,22,24,26,-1,28,30,-1,32,-1,34,-1,36,38,40,-1,-1,-1,-1,-1,42,44,46,-1,-1,48,-1,50,-1,52,-1,-1,-1,-1,-1,-1,-1,-1,-1,-1,-1,-1],"split_conditions":[4.3E1,3E0,1E0,2E0,6.5315545E-2,4.2341065E0,1E0,1E0,5.450355E4,7.350608E-2,4.691348E0,3E0,6.9E1,7.225264E4,1.4480197E5,-8.1698805E-2,3.7E1,4.950879E4,8.0426455E-2,4.189655E0,6.394902E-2,1.6162866E5,-0E0,2.9E1,1.693996E5,9.994593E4,-3.324805E-2,-5.1927797E-2,-1.3345827E-2,-4.991979E-2,3.7960634E-3,6.584836E4,1.00628E5,8.697796E4,-0E0,-1.0428481E-2,1E0,-4.8965286E-2,1E0,-7.461031E-3,2.8E1,2.7548583E-2,-4.043169E-4,-5.237466E-2,-0E0,-0E0,6.0992513E-2,2.7059248E-2,-0E0,3.5140794E-2,-0E0,-0E0,4.6354383E-2],"split_indices":[0,1,4,1,0,8,5,5,7,0,8,1,0,7,7,0,0,7,0,8,0,7,0,0,7,7,0,0,0,0,0,7,7,7,0,0,4,0,2,0,0,0,0,0,0,0,0,0,0,0,0,0,0],"split_type":[0,0,0,0,0,0,0,0,0,0,0,0,0,0,0,0,0,0,0,0,0,0,0,0,0,0,0,0,0,0,0,0,0,0,0,0,0,0,0,0,0,0,0,0,0,0,0,0,0,0,0,0,0],"sum_hessian":[1.9818503E3,1.21066E3,7.711902E2,1.1454541E3,6.520599E1,4.2099835E2,3.5019186E2,6.641751E2,4.81279E2,2.8949173E2,1.3150662E2,2.336334E2,1.1655845E2,4.6381516E2,2.0035997E2,2.6266138E2,2.1861761E2,7.143774E1,6.006888E1,2.0714746E2,2.6485958E1,1.1113449E2,5.4239593E0,1.5595322E2,3.078619E2,1.7580971E2,2.4550262E1,1.3544037E2,8.317725E1,2.7283081E1,4.4154655E1,1.12503105E2,9.464435E1,1.069327E2,4.201786E0,1.7320066E1,1.3863315E2,2.7398114E2,3.3880768E1,3.505635E1,1.4075336E2,4.067865E1,7.1824455E1,6.468439E1,2.9959957E1,5.8703547E0,1.0106235E2,7.4450615E1,6.418254E1,2.0827288E1,1.3053481E1,1.7080563E1,1.236728E2],"tree_param":{"num_deleted":"0","num_feature":"9","num_nodes":"53","size_leaf_vector":"1"}},{"base_weights":[-0E0,-5.101515E-1,4.8892984E-1,-5.9391737E-1,5.8921058E-2,7.701264E-1,-0E0,-2.7939385E-1,-6.198799E-2,1.0051448E0,3.576735E-1,-4.2078307E-1,8.444127E-2,-4.7009486E-1,1.0672877E-1,3.309415E-2,7.7576965E-2,1.09465845E-1,4.586429E-2,-6.0996014E-1,-0E0,-3.4508806E-2,-1.9165357E-4,-2.7039256E-2,2.2222677E-2,-2.568838E-3,2.0615885E-2,-2.256571E-1,-5.5495434E-2,-1.3458191E-2,1.6890721E-2,8.059777E-3,-2.5328614E-2,-0E0,-2.6074674E-2],"categories":[],"categories_nodes":[],"categories_segments":[],"categories_sizes":[],"default_left":[0,0,0,0,0,0,0,0,0,0,0,0,0,0,0,0,0,0,0,0,0,0,0,0,0,0,0,0,0,0,0,0,0,0,0],"id":7,"left_children":[1,3,5,7,-1,9,11,13,-1,15,17,19,-1,21,23,-1,-1,25,-1,27,29,-1,-1,31,-1,-1,-1,33,-1,-1,-1,-1,-1,-1,-1],"loss_changes":[4.9631427E2,1.1696748E2,1.3507265E2,9.309198E1,0E0,4.656717E1,2.236531E2,4.223983E1,0E0,1.6824097E1,1.442152E1,2.575449E1,0E0,6.017227E0,8.162379E0,0E0,0E0,8.161318E0,0E0,8.605614E0,5.7184143E0,0E0,0E0,7.6508613E0,0E0,0E0,0E0,4.778627E0,0E0,0E0,0E0,0E0,0E0,0E0,0E0],"parents":[2147483647,0,0,1,1,2,2,3,3,5,5,6,6,7,7,9,9,10,10,11,11,13,13,14,14,17,17,19,19,20,20,23,23,27,27],"right_children":[2,4,6,8,-1,10,12,14,-1,16,18,20,-1,22,24,-1,-1,26,-1,28,30,-1,-1,32,-1,-1,-1,34,-1,-1,-1,-1,-1,-1,-1],"split_conditions":[4E1,3E0,4.189655E0,2E0,5.8921058E-2,1E0,3E0,1E0,-6.198799E-2,4.5E1,1E0,1E0,8.444127E-2,3.8E1,3.4E1,3.309415E-2,7.7576965E-2,1E0,4.586429E-2,1E0,1E0,-3.4508806E-2,-1.9165357E-4,1E0,2.2222677E-2,-2.568838E-3,2.0615885E-2,1E0,-5.5495434E-2,-1.3458191E-2,1.6890721E-2,8.059777E-3,-2.5328614E-2,-0E0,-2.6074674E-2],"split_indices":[0,1,8,1,0,3,1,5,0,0,5,5,0,0,0,0,0,6,0,2,6,0,0,3,0,0,0,3,0,0,0,0,0,0,0],"split_type":[0,0,0,0,0,0,0,0,0,0,0,0,0,0,0,0,0,0,0,0,0,0,0,0,0,0,0,0,0,0,0,0,0,0,0],"sum_hessian":[1.9743744E3,9.6311E2,1.01126447E3,9.1993164E2,4.3178364E1,6.306609E2,3.8060355E2,5.15176E2,4.0475558E2,3.803929E2,2.5026797E2,2.8811642E2,9.2487114E1,3.5962375E2,1.5555228E2,1.2924223E2,2.5115068E2,1.6808301E2,8.218498E1,2.0222713E2,8.5889305E1,2.981215E2,6.150227E1,7.914428E1,7.6408005E1,7.6296074E1,9.1786934E1,9.9821396E1,1.0240573E2,4.1023243E1,4.4866066E1,4.177773E1,3.7366547E1,4.4617985E1,5.520341E1],"tree_param":{"num_deleted":"0","num_feature":"9","num_nodes":"35","size_leaf_vector":"1"}},{"base_weights":[3.6320954E-3,-4.7546974E-1,4.6460748E-1,-5.5003124E-1,7.9472345E-1,1.4433616E-1,7.4325573E-1,-2.4826293E-1,-9.1408014E-1,-0E0,6.3426934E-2,4.4889712E-1,-1.7259218E-1,5.4950025E-2,1.4132941E-1,-4.7898617E-1,2.1341331E-1,-6.866404E-2,-4.417767E-1,4.2537037E-2,1.71313E-3,-3.8346374E-1,1.7826468E-1,-2.5619777E-2,5.428229E-2,-0E0,-6.656036E-1,-2.060429E-2,3.8443124E-1,-0E0,-3.251767E-2,-2.6121834E-1,5.456753E-2,-5.1695126E-1,2.1048915E-2,5.0225884E-1,-0E0,-3.6838528E-2,1.8879648E-1,-4.611234E-2,-0E0,7.236226E-1,-0E0,-4.8167133E-1,1.3330056E-2,-1.8291345E-1,-5.6697167E-2,4.207514E-2,-0E0,3.2546375E-2,-0E0,-0E0,5.2596994E-2,-3.7690934E-2,-0E0,5.9252484E-3,-4.8435235E-1,-4.1622087E-2,-0E0],"categories":[],"categories_nodes":[],"categories_segments":[],"categories_sizes":[],"default_left":[0,0,0,0,0,0,0,0,0,0,0,0,0,0,0,0,0,0,0,0,0,0,0,0,0,0,0,0,0,0,0,0,0,0,0,0,0,0,0,0,0,0,0,0,0,0,0,0,0,0,0,0,0,0,0,0,0,0,0],"id":8,"left_children":[1,3,5,7,9,11,13,15,17,-1,-1,19,21,-1,23,25,27,-1,29,-1,31,33,35,37,-1,-1,39,-1,41,-1,-1,43,-1,45,-1,47,-1,-1,49,-1,-1,51,-1,53,-1,55,-1,-1,-1,-1,-1,-1,-1,-1,-1,-1,57,-1,-1],"loss_changes":[4.427183E2,9.337514E1,8.307422E1,8.982486E1,7.3193264E0,5.1887215E1,2.4358643E1,6.007264E1,1.0898743E1,0E0,0E0,1.9617325E1,2.0055126E1,0E0,1.9649424E1,3.619948E1,1.7032867E1,0E0,5.384262E0,0E0,3.130052E1,1.8951244E1,8.77189E0,1.3692625E1,0E0,0E0,1.2196495E1,0E0,2.1084164E1,0E0,0E0,1.1655354E1,0E0,7.6743813E0,0E0,4.404088E0,0E0,0E0,6.853479E0,0E0,0E0,8.63229E0,0E0,6.484562E0,0E0,1.2525768E1,0E0,0E0,0E0,0E0,0E0,0E0,0E0,0E0,0E0,0E0,4.2181196E0,0E0,0E0],"parents":[2147483647,0,0,1,1,2,2,3,3,4,4,5,5,6,6,7,7,8,8,11,11,12,12,14,14,15,15,16,16,18,18,20,20,21,21,22,22,23,23,26,26,28,28,31,31,33,33,35,35,38,38,41,41,43,43,45,45,56,56],"right_children":[2,4,6,8,10,12,14,16,18,-1,-1,20,22,-1,24,26,28,-1,30,-1,32,34,36,38,-1,-1,40,-1,42,-1,-1,44,-1,46,-1,48,-1,-1,50,-1,-1,52,-1,54,-1,56,-1,-1,-1,-1,-1,-1,-1,-1,-1,-1,58,-1,-1],"split_conditions":[4E1,3E0,1E0,2E0,3.656696E4,1E0,2E0,1E0,1.0812239E5,-0E0,6.3426934E-2,2E0,1E0,5.4950025E-2,3E0,4.350442E4,9.994593E4,-6.866404E-2,1.1061547E5,4.2537037E-2,3E0,3E0,1E0,7.319499E4,5.428229E-2,-0E0,1.7493764E5,-2.060429E-2,1.2308639E5,-0E0,-3.251767E-2,4.5E1,5.456753E-2,2E0,2.1048915E-2,1.3295192E5,-0E0,-3.6838528E-2,1E0,-4.611234E-2,-0E0,2.6E1,-0E0,1.6371452E5,1.3330056E-2,8.564681E4,-5.6697167E-2,4.207514E-2,-0E0,3.2546375E-2,-0E0,-0E0,5.2596994E-2,-3.7690934E-2,-0E0,5.9252484E-3,1.4555306E5,-4.1622087E-2,-0E0],"split_indices":[0,1,6,1,7,3,3,5,7,0,0,1,5,0,1,7,7,0,7,0,1,1,2,7,0,0,7,0,7,0,0,0,0,1,0,7,0,0,2,0,0,0,0,7,0,7,0,0,0,0,0,0,0,0,0,0,7,0,0],"split_type":[0,0,0,0,0,0,0,0,0,0,0,0,0,0,0,0,0,0,0,0,0,0,0,0,0,0,0,0,0,0,0,0,0,0,0,0,0,0,0,0,0,0,0,0,0,0,0,0,0,0,0,0,0,0,0,0,0,0,0],"sum_hessian":[1.9893397E3,9.656081E2,1.0237316E3,9.2309235E2,4.2515743E1,4.97153E2,5.265786E2,5.257134E2,3.9737897E2,9.731739E0,3.2784008E1,2.6662384E2,2.3052916E2,4.31448E2,9.513062E1,3.635913E2,1.6212204E2,2.8017917E2,1.17199814E2,1.6513525E2,1.0148858E2,1.598706E2,7.0658554E1,7.2273796E1,2.2856827E1,9.737238E1,2.6621893E2,2.4729267E1,1.3739278E2,7.3606553E0,1.0983916E2,7.3172935E1,2.8315643E1,1.472233E2,1.2647318E1,3.6820038E1,3.3838516E1,2.8843422E1,4.3430374E1,2.5464964E2,1.1569287E1,7.341434E1,6.397844E1,6.2901623E1,1.0271317E1,9.574506E1,5.147823E1,2.9135748E1,7.684291E0,2.6393171E1,1.70372E1,3.9733624E0,6.944097E1,5.9489403E1,3.41222E0,3.702824E1,5.8716824E1,3.998081E1,1.8736017E1],"tree_param":{"num_deleted":"0","num_feature":"9","num_nodes":"59","size_leaf_vector":"1"}},{"base_weights":[1.6902465E-2,-3.6851102E-1,6.069592E-1,-4.4510216E-1,8.304455E-1,8.9544535E-1,2.0107791E-1,-1.1177109E-1,-5.744799E-2,-0E0,6.7343906E-2,5.4549813E-1,1.2085105E0,-2.2348554E-1,4.504766E-1,-3.092888E-1,1.9316159E-1,2.1851847E-1,5.894927E-2,7.928525E-2,-0E0,1.2850513E-2,-5.867506E-1,5.225542E-1,-0E0,-4.7292972E-1,1.4956477E-2,2.7217863E-2,-3.4628392E-3,2.9468112E-2,-0E0,-3.5573912E-3,3.00813E-2,-5.009214E-2,-0E0,-0E0,3.713275E-2,-0E0,-6.7166865E-1,1.5205958E-1,-1.6486144E-2,-4.8119303E-2,-0E0,-4.334536E-3,2.237996E-2],"categories":[],"categories_nodes":[],"categories_segments":[],"categories_sizes":[],"default_left":[0,0,0,0,0,0,0,0,0,0,0,0,0,0,0,0,0,0,0,0,0,0,0,0,0,0,0,0,0,0,0,0,0,0,0,0,0,0,0,0,0,0,0,0,0],"id":9,"left_children":[1,3,5,7,9,11,13,15,-1,-1,-1,17,19,21,23,25,27,29,-1,-1,-1,31,33,35,-1,37,39,-1,-1,-1,-1,-1,-1,-1,-1,-1,-1,-1,41,43,-1,-1,-1,-1,-1],"loss_changes":[4.4537317E2,1.0676758E2,7.9774475E1,1.5447063E2,8.894966E0,2.6943512E1,3.9625427E1,4.102056E1,0E0,0E0,0E0,1.6339088E1,4.8647156E0,1.56339445E1,8.75946E0,2.6498493E1,1.7289724E1,9.966947E0,0E0,0E0,0E0,5.9674525E0,1.2567398E1,4.5217514E0,0E0,2.7100487E1,4.148715E0,0E0,0E0,0E0,0E0,0E0,0E0,0E0,0E0,0E0,0E0,0E0,1.3909622E1,7.5642314E0,0E0,0E0,0E0,0E0,0E0],"parents":[2147483647,0,0,1,1,2,2,3,3,4,4,5,5,6,6,7,7,11,11,12,12,13,13,14,14,15,15,16,16,17,17,21,21,22,22,23,23,25,25,26,26,38,38,39,39],"right_children":[2,4,6,8,10,12,14,16,-1,-1,-1,18,20,22,24,26,28,30,-1,-1,-1,32,34,36,-1,38,40,-1,-1,-1,-1,-1,-1,-1,-1,-1,-1,-1,42,44,-1,-1,-1,-1,-1],"split_conditions":[4.3E1,3E0,1E0,2E0,5.450355E4,5E1,1E0,3.8E1,-5.744799E-2,-0E0,6.7343906E-2,1E0,7.2E1,4.26268E0,5.7E1,1E0,1E0,1E0,5.894927E-2,7.928525E-2,-0E0,1E0,3E0,4.6E1,-0E0,7.126989E4,1.4393092E5,2.7217863E-2,-3.4628392E-3,2.9468112E-2,-0E0,-3.5573912E-3,3.00813E-2,-5.009214E-2,-0E0,-0E0,3.713275E-2,-0E0,1.7493764E5,1.0370069E5,-1.6486144E-2,-4.8119303E-2,-0E0,-4.334536E-3,2.237996E-2],"split_indices":[0,1,3,1,7,0,6,0,0,0,0,5,0,8,0,5,3,2,0,0,0,5,1,0,0,7,7,0,0,0,0,0,0,0,0,0,0,0,7,7,0,0,0,0,0],"split_type":[0,0,0,0,0,0,0,0,0,0,0,0,0,0,0,0,0,0,0,0,0,0,0,0,0,0,0,0,0,0,0,0,0,0,0,0,0,0,0,0,0,0,0,0,0],"sum_hessian":[1.933233E3,1.1617756E3,7.714573E2,1.1038448E3,5.793087E1,4.3219824E2,3.3925903E2,6.4775665E2,4.560882E2,1.5799151E1,4.2131718E1,2.2807332E2,2.0412492E2,1.12227585E2,2.2703146E2,4.1131387E2,2.3644275E2,1.403934E2,8.767992E1,2.0111462E2,3.0102968E0,5.727026E1,5.495732E1,1.9878499E2,2.8246479E1,2.8977557E2,1.2153832E2,1.3935057E2,9.709218E1,7.415556E1,6.623785E1,3.8157005E1,1.9113255E1,4.907383E1,5.883491E0,2.199087E1,1.7679411E2,8.9995186E1,1.9978038E2,1.0542232E2,1.6116001E1,1.8623666E2,1.3543716E1,2.9743296E1,7.567902E1],"tree_param":{"num_deleted":"0","num_feature":"9","num_nodes":"45","size_leaf_vector":"1"}},{"base_weights":[-0E0,-4.6939915E-1,4.4660294E-1,-5.3130245E-1,6.578564E-1,6.893536E-1,5.558985E-2,-2.7505806E-1,-8.318633E-1,-0E0,5.25271E-2,2.70693E-1,8.4183234E-1,-2.3292558E-1,7.572181E-2,-0E0,-5.784092E-1,-6.926835E-2,-3.2419038E-1,2.8492272E-2,-0E0,6.505551E-2,5.051248E-1,-4.7736034E-2,8.4877774E-2,-0E0,-4.467193E-2,-3.663695E-2,-0E0,3.8170725E-2,-0E0,-5.4322747E-3,4.1177765E-1,3.1334784E-2,-0E0],"categories":[],"categories_nodes":[],"categories_segments":[],"categories_sizes":[],"default_left":[0,0,0,0,0,0,0,0,0,0,0,0,0,0,0,0,0,0,0,0,0,0,0,0,0,0,0,0,0,0,0,0,0,0,0],"id":10,"left_children":[1,3,5,7,9,11,13,15,17,-1,-1,19,21,23,-1,-1,25,-1,27,-1,-1,-1,29,-1,31,-1,-1,-1,-1,-1,-1,-1,33,-1,-1],"loss_changes":[4.046789E2,6.719934E1,8.684317E1,5.7630737E1,3.9117432E0,2.603125E1,1.4027025E2,4.0996216E1,3.261792E1,0E0,0E0,7.883774E0,5.2612305E0,5.7853844E1,0E0,0E0,1.2673889E1,0E0,1.2581759E1,0E0,0E0,0E0,3.7656784E0,0E0,1.3890342E1,0E0,0E0,0E0,0E0,0E0,0E0,0E0,4.506542E0,0E0,0E0],"parents":[2147483647,0,0,1,1,2,2,3,3,4,4,5,5,6,6,7,7,8,8,11,11,12,12,13,13,16,16,18,18,22,22,24,24,32,32],"right_children":[2,4,6,8,10,12,14,16,18,-1,-1,20,22,24,-1,-1,26,-1,28,-1,-1,-1,30,-1,32,-1,-1,-1,-1,-1,-1,-1,34,-1,-1],"split_conditions":[4E1,3E0,4.1743875E0,2E0,3.656696E4,4.4E1,3E0,1E0,9.547817E4,-0E0,5.25271E-2,1E0,1E0,3.656696E4,7.572181E-2,-0E0,4.350442E4,-6.926835E-2,3.5E1,2.8492272E-2,-0E0,6.505551E-2,1.3641681E5,-4.7736034E-2,4.543295E0,-0E0,-4.467193E-2,-3.663695E-2,-0E0,3.8170725E-2,-0E0,-5.4322747E-3,6.8E1,3.1334784E-2,-0E0],"split_indices":[0,1,8,1,7,0,1,3,7,0,0,3,3,7,0,0,7,0,0,0,0,0,7,0,8,0,0,0,0,0,0,0,0,0,0],"split_type":[0,0,0,0,0,0,0,0,0,0,0,0,0,0,0,0,0,0,0,0,0,0,0,0,0,0,0,0,0,0,0,0,0,0,0],"sum_hessian":[1.9147986E3,9.3253064E2,9.8226794E2,8.956333E2,3.6897316E1,5.8785846E2,3.944095E2,5.080462E2,3.875871E2,9.501977E0,2.7395338E1,1.788198E2,4.0903867E2,3.1178552E2,8.262395E1,2.7668585E2,2.3136037E2,2.4502791E2,1.425592E2,1.0310709E2,7.57127E1,2.4589487E2,1.6314381E2,1.27467514E2,1.8431801E2,4.5151955E1,1.862084E2,8.050893E1,6.2050278E1,1.2803726E2,3.5106544E1,1.0685398E2,7.746403E1,7.287042E1,4.5936093E0],"tree_param":{"num_deleted":"0","num_feature":"9","num_nodes":"35","size_leaf_vector":"1"}},{"base_weights":[1.4682544E-3,-3.3364016E-1,5.311037E-1,-3.9961302E-1,7.883459E-1,8.108256E-1,1.7194746E-1,-1.080618E-1,-7.9988533E-1,-0E0,6.424529E-2,3.3643892E-1,6.500562E-2,4.5470938E-1,-8.649094E-2,6.68274E-2,-1.878542E-2,-4.7077283E-1,-6.599748E-2,3.3473104E-2,-0E0,5.4419696E-1,-0E0,-3.3527085E-1,5.3124152E-2,3.8831747E-1,-3.83377E-3,-8.220593E-1,-2.6405344E-3,-2.8295213E-1,3.675495E-2,-0E0,4.097523E-2,-5.7307553E-2,-0E0,-0E0,3.410505E-2,-2.3450138E-1,9.280449E-2,-0E0,-6.00188E-2,-3.0345177E-2,-0E0,-2.6516976E-2,-0E0,1.3465805E-2,-1.3094569E-2],"categories":[],"categories_nodes":[],"categories_segments":[],"categories_sizes":[],"default_left":[0,0,0,0,0,0,0,0,0,0,0,0,0,0,0,0,0,0,0,0,0,0,0,0,0,0,0,0,0,0,0,0,0,0,0,0,0,0,0,0,0,0,0,0,0,0,0],"id":11,"left_children":[1,3,5,7,9,11,13,15,17,-1,-1,19,-1,21,23,25,-1,27,-1,-1,29,31,-1,33,-1,35,37,39,-1,41,-1,-1,-1,-1,-1,-1,-1,43,45,-1,-1,-1,-1,-1,-1,-1,-1],"loss_changes":[3.462272E2,8.609465E1,6.650214E1,1.22329926E2,1.0003735E1,2.3153473E1,2.9864124E1,2.3712631E1,1.6018463E1,0E0,0E0,8.778599E0,0E0,5.0696564E0,3.7648453E1,1.0916211E1,0E0,2.4448254E1,0E0,0E0,1.0854325E1,3.8426132E0,0E0,3.0837234E1,0E0,7.782568E0,7.0562387E0,7.2024E0,0E0,3.985388E0,0E0,0E0,0E0,0E0,0E0,0E0,0E0,4.6144075E0,5.6453686E0,0E0,0E0,0E0,0E0,0E0,0E0,0E0,0E0],"parents":[2147483647,0,0,1,1,2,2,3,3,4,4,5,5,6,6,7,7,8,8,11,11,13,13,14,14,15,15,17,17,20,20,21,21,23,23,25,25,26,26,27,27,29,29,37,37,38,38],"right_children":[2,4,6,8,10,12,14,16,18,-1,-1,20,-1,22,24,26,-1,28,-1,-1,30,32,-1,34,-1,36,38,40,-1,42,-1,-1,-1,-1,-1,-1,-1,44,46,-1,-1,-1,-1,-1,-1,-1,-1],"split_conditions":[4.3E1,3E0,1E0,2E0,3.656696E4,4.7E1,4.158883E0,1E0,1E0,-0E0,6.424529E-2,2E0,6.500562E-2,1.340661E5,3E0,5.450355E4,-1.878542E-2,3.5E1,-6.599748E-2,3.3473104E-2,3E0,4.6E1,-0E0,5.450355E4,5.3124152E-2,3.1E1,3.4E1,2.5E1,-2.6405344E-3,1.1954548E5,3.675495E-2,-0E0,4.097523E-2,-5.7307553E-2,-0E0,-0E0,3.410505E-2,1.273434E5,1.4904992E5,-0E0,-6.00188E-2,-3.0345177E-2,-0E0,-2.6516976E-2,-0E0,1.3465805E-2,-1.3094569E-2],"split_indices":[0,1,3,1,7,0,8,2,2,0,0,1,0,7,1,7,0,0,0,0,1,0,0,7,0,0,0,0,0,7,0,0,0,0,0,0,0,7,7,0,0,0,0,0,0,0,0],"split_type":[0,0,0,0,0,0,0,0,0,0,0,0,0,0,0,0,0,0,0,0,0,0,0,0,0,0,0,0,0,0,0,0,0,0,0,0,0,0,0,0,0,0,0,0,0,0,0],"sum_hessian":[1.9248577E3,1.1700956E3,7.5476215E2,1.1176078E3,5.2487743E1,4.0439474E2,3.5036737E2,6.6564716E2,4.5196066E2,1.2257435E1,4.023031E1,1.3771878E2,2.6667596E2,1.8142293E2,1.6894444E2,3.168601E2,3.4878702E2,2.0821907E2,2.437416E2,8.631521E1,5.140357E1,1.4141406E2,4.0008873E1,1.4443842E2,2.4506035E1,7.414392E1,2.4271619E2,9.890544E1,1.0931363E2,3.6710964E1,1.4692601E1,2.9718359E1,1.116957E2,5.3155174E1,9.128323E1,9.636117E0,6.4507805E1,9.63974E1,1.4631879E2,1.4740562E1,8.416488E1,2.6419733E1,1.0291232E1,5.3626644E1,4.2770756E1,1.2917252E2,1.714628E1],"tree_param":{"num_deleted":"0","num_feature":"9","num_nodes":"47","size_leaf_vector":"1"}},{"base_weights":[5.373364E-3,-2.050937E-1,5.9991443E-1,-2.8582925E-1,9.2308116E-1,5.0246492E-2,3.0259007E-1,-0E0,-7.21948E-1,-0E0,6.263536E-2,2.535281E-2,-0E0,2.6633027E-1,-3.2755378E-1,-6.1566707E-2,-3.9126927E-1,3.6713295E-2,6.1333823E-1,-5.328354E-1,8.896538E-2,-4.8275128E-1,-0E0,-4.5113042E-2,2.871544E-1,4.2515486E-2,-0E0,-0E0,-8.022807E-1,-1.7406587E-2,2.852923E-1,-9.950298E-3,-4.5726907E-2,1.0101687E-1,-1.6561313E-2,-0E0,4.3794858E-1,-5.6736223E-2,-0E0,-0E0,3.9412507E-1,2.7463356E-2,-1.0602116E-3,3.5309568E-2,-0E0,2.9511277E-2,-0E0],"categories":[],"categories_nodes":[],"categories_segments":[],"categories_sizes":[],"default_left":[0,0,0,0,0,0,0,0,0,0,0,0,0,0,0,0,0,0,0,0,0,0,0,0,0,0,0,0,0,0,0,0,0,0,0,0,0,0,0,0,0,0,0,0,0,0,0],"id":12,"left_children":[1,3,5,7,9,-1,11,13,15,-1,-1,-1,-1,17,19,-1,21,23,25,27,29,31,-1,33,35,-1,-1,-1,37,-1,39,-1,-1,41,-1,-1,43,-1,-1,-1,45,-1,-1,-1,-1,-1,-1],"loss_changes":[2.4460904E2,1.2474948E2,1.5418686E1,1.6906995E2,4.1037674E0,0E0,7.44833E0,7.066823E1,2.5386536E1,0E0,0E0,0E0,0E0,3.0194313E1,3.498409E1,0E0,9.963783E0,8.443766E0,3.9617958E0,3.437587E1,8.477834E0,6.4683037E0,0E0,7.930206E0,8.433068E0,0E0,0E0,0E0,1.5780029E1,0E0,5.834494E0,0E0,0E0,7.632121E0,0E0,0E0,7.30653E0,0E0,0E0,0E0,3.7190256E0,0E0,0E0,0E0,0E0,0E0,0E0],"parents":[2147483647,0,0,1,1,2,2,3,3,4,4,6,6,7,7,8,8,13,13,14,14,16,16,17,17,18,18,19,19,20,20,21,21,23,23,24,24,28,28,30,30,33,33,36,36,40,40],"right_children":[2,4,6,8,10,-1,12,14,16,-1,-1,-1,-1,18,20,-1,22,24,26,28,30,32,-1,34,36,-1,-1,-1,38,-1,40,-1,-1,42,-1,-1,44,-1,-1,-1,46,-1,-1,-1,-1,-1,-1],"split_conditions":[1E0,3E0,1E0,2E0,4.4188404E0,5.0246492E-2,1.3110105E5,1E0,5.450355E4,-0E0,6.263536E-2,2.535281E-2,-0E0,3.713572E0,1E0,-6.1566707E-2,4.465908E0,1E0,1.5234155E5,7.716887E4,3.465736E0,1E0,-0E0,1E0,1.0186136E5,4.2515486E-2,-0E0,-0E0,1.8593219E5,-1.7406587E-2,8.697796E4,-9.950298E-3,-4.5726907E-2,8.697796E4,-1.6561313E-2,-0E0,1.4904992E5,-5.6736223E-2,-0E0,-0E0,1.5234155E5,2.7463356E-2,-1.0602116E-3,3.5309568E-2,-0E0,2.9511277E-2,-0E0],"split_indices":[6,1,3,1,8,0,7,3,7,0,0,0,0,8,5,0,8,5,7,7,8,3,0,2,7,0,0,0,7,0,7,0,0,7,0,0,7,0,0,0,7,0,0,0,0,0,0],"split_type":[0,0,0,0,0,0,0,0,0,0,0,0,0,0,0,0,0,0,0,0,0,0,0,0,0,0,0,0,0,0,0,0,0,0,0,0,0,0,0,0,0,0,0,0,0,0,0],"sum_hessian":[1.9103119E3,1.4032603E3,5.0705164E2,1.3226001E3,8.066018E1,2.9024585E2,2.168058E2,7.975174E2,5.250827E2,3.836318E0,7.682386E1,1.7424303E2,4.256277E1,4.4819247E2,3.4932495E2,2.8430582E2,2.4077686E2,2.908513E2,1.5734117E2,2.4729022E2,1.0203472E2,1.9823195E2,4.254491E1,1.9645132E2,9.439996E1,1.4491968E2,1.2421498E1,8.918669E1,1.5810353E2,1.8540989E1,8.349374E1,1.02426476E2,9.580547E1,9.2825714E1,1.0362561E2,1.431782E1,8.0082146E1,1.5124712E2,6.8564157E0,5.9168634E0,7.757687E1,4.0028202E1,5.2797516E1,7.3141846E1,6.940299E0,7.363881E1,3.938065E0],"tree_param":{"num_deleted":"0","num_feature":"9","num_nodes":"47","size_leaf_vector":"1"}},{"base_weights":[1.8400982E-2,-4.1615257E-1,3.753391E-1,-4.652117E-1,3.1071667E-2,5.9026694E-1,1.1554716E-2,-5.86452E-1,-9.3045235E-2,3.799293E-1,5.800362E-2,-2.3648502E-1,6.9538616E-2,-4.4490892E-2,-2.4718256E-1,4.7862576E-3,-3.5716903E-1,5.2331157E-2,5.858451E-1,3.8311223E-4,-5.3447574E-1,-1.6310225E-4,-2.896675E-2,-3.3822257E-2,-0E0,2.5751105E-1,-4.0713577E-3,5.1510274E-2,1.4259342E-2,-6.787165E-2,-5.017293E-2,2.3523623E-2,-0E0,-3.0930403E-1,1.8335551E-2,-3.189904E-2,-0E0],"categories":[],"categories_nodes":[],"categories_segments":[],"categories_sizes":[],"default_left":[0,0,0,0,0,0,0,0,0,0,0,0,0,0,0,0,0,0,0,0,0,0,0,0,0,0,0,0,0,0,0,0,0,0,0,0,0],"id":13,"left_children":[1,3,5,7,-1,9,11,13,15,17,-1,19,-1,-1,21,-1,23,25,27,-1,29,-1,-1,-1,-1,31,-1,-1,-1,33,-1,-1,-1,35,-1,-1,-1],"loss_changes":[2.9281967E2,3.8616302E1,7.6456955E1,2.9933578E1,0E0,2.7181625E1,1.1886677E2,1.0539658E1,1.2833695E1,2.1783081E1,0E0,2.9059784E1,0E0,0E0,4.2011957E0,0E0,7.6857996E0,6.2974916E0,7.4659195E0,0E0,1.0710537E1,0E0,0E0,0E0,0E0,4.4430313E0,0E0,0E0,0E0,7.5975285E0,0E0,0E0,0E0,5.2907677E0,0E0,0E0,0E0],"parents":[2147483647,0,0,1,1,2,2,3,3,5,5,6,6,7,7,8,8,9,9,11,11,14,14,16,16,17,17,18,18,20,20,25,25,29,29,33,33],"right_children":[2,4,6,8,-1,10,12,14,16,18,-1,20,-1,-1,22,-1,24,26,28,-1,30,-1,-1,-1,-1,32,-1,-1,-1,34,-1,-1,-1,36,-1,-1,-1],"split_conditions":[3.9E1,3E0,4.1743875E0,1E0,3.1071667E-2,1E0,3E0,3.6E1,1E0,4.5E1,5.800362E-2,1E0,6.9538616E-2,-4.4490892E-2,2E0,4.7862576E-3,3.6E1,1E0,1E0,3.8311223E-4,1E0,-1.6310225E-4,-2.896675E-2,-3.3822257E-2,-0E0,4.3E1,-4.0713577E-3,5.1510274E-2,1.4259342E-2,5.4E1,-5.017293E-2,2.3523623E-2,-0E0,1E0,1.8335551E-2,-3.189904E-2,-0E0],"split_indices":[0,1,8,5,0,5,1,0,3,0,0,2,0,0,1,0,0,2,3,0,3,0,0,0,0,0,0,0,0,0,0,0,0,5,0,0,0],"split_type":[0,0,0,0,0,0,0,0,0,0,0,0,0,0,0,0,0,0,0,0,0,0,0,0,0,0,0,0,0,0,0,0,0,0,0,0,0],"sum_hessian":[1.8745114E3,8.3316534E2,1.0413461E3,8.032353E2,2.993002E1,6.3567456E2,4.0567145E2,5.838592E2,2.193761E2,4.0545355E2,2.3022102E2,3.269545E2,7.871697E1,4.2197946E2,1.6187976E2,1.16543205E2,1.02832886E2,1.774858E2,2.2796776E2,1.675467E2,1.5940778E2,9.71823E1,6.4697464E1,7.178203E1,3.1050863E1,8.901671E1,8.846909E1,1.2266256E2,1.053052E2,7.079357E1,8.8614204E1,7.418558E1,1.483113E1,5.800476E1,1.2788811E1,3.9739864E1,1.8264898E1],"tree_param":{"num_deleted":"0","num_feature":"9","num_nodes":"37","size_leaf_vector":"1"}},{"base_weights":[-2.1065356E-2,-3.5637477E-1,4.179636E-1,-5.237993E-1,2.0094614E-2,6.452544E-1,6.462622E-2,-5.6760305E-1,2.9852668E-2,-1.4134713E-1,3.1225863E-1,5.184242E-2,3.6969045E-1,-2.0956619E-1,7.092245E-2,-6.3399816E-1,-0E0,-0E0,-4.3014455E-1,5.251281E-1,-1.0087158E-3,1.4163901E-1,6.200127E-1,-7.62747E-1,1.1978544E-1,-4.1637835E-1,-5.4963697E-2,1.7461779E-2,-1.1159632E-2,-3.5989843E-2,-0E0,-4.0683984E-3,4.6403002E-2,4.5428494E-1,-0E0,-0E0,4.5044273E-2,-5.9234023E-2,-0E0,-2.9378517E-3,2.73966E-1,-0E0,-3.7430827E-2,-0E0,3.54034E-2,2.733075E-2,-0E0],"categories":[],"categories_nodes":[],"categories_segments":[],"categories_sizes":[],"default_left":[0,0,0,0,0,0,0,0,0,0,0,0,0,0,0,0,0,0,0,0,0,0,0,0,0,0,0,0,0,0,0,0,0,0,0,0,0,0,0,0,0,0,0,0,0,0,0],"id":14,"left_children":[1,3,5,7,9,11,13,15,-1,17,19,-1,21,23,-1,25,-1,27,29,31,-1,33,35,37,39,41,-1,-1,-1,-1,-1,-1,-1,43,-1,-1,-1,-1,-1,-1,45,-1,-1,-1,-1,-1,-1],"loss_changes":[2.6983652E2,7.107715E1,5.6099533E1,3.523726E1,1.6764093E1,6.8153687E0,1.0376338E2,3.2161392E1,0E0,1.1216064E1,1.4142745E1,0E0,3.8943806E0,5.4234814E1,0E0,1.6798248E1,0E0,6.5278006E0,8.331388E0,1.7578302E1,0E0,8.961317E0,6.0916557E0,5.541092E0,6.2761497E0,2.0582859E1,0E0,0E0,0E0,0E0,0E0,0E0,0E0,3.8196678E0,0E0,0E0,0E0,0E0,0E0,0E0,6.9627066E0,0E0,0E0,0E0,0E0,0E0,0E0],"parents":[2147483647,0,0,1,1,2,2,3,3,4,4,5,5,6,6,7,7,9,9,10,10,12,12,13,13,15,15,17,17,18,18,19,19,21,21,22,22,23,23,24,24,25,25,33,33,40,40],"right_children":[2,4,6,8,10,12,14,16,-1,18,20,-1,22,24,-1,26,-1,28,30,32,-1,34,36,38,40,42,-1,-1,-1,-1,-1,-1,-1,44,-1,-1,-1,-1,-1,-1,46,-1,-1,-1,-1,-1,-1],"split_conditions":[4.2E1,1E0,4.1743875E0,4.553877E0,3.7E1,1E0,3E0,1.5345572E5,2.9852668E-2,2E0,1.3080699E5,5.184242E-2,1E0,6.297464E4,7.092245E-2,2E0,-0E0,1E0,4.3438053E0,9.006374E4,-1.0087158E-3,6.584836E4,8.697796E4,4.744932E0,4.477337E0,5.732704E4,-5.4963697E-2,1.7461779E-2,-1.1159632E-2,-3.5989843E-2,-0E0,-4.0683984E-3,4.6403002E-2,4.5E1,-0E0,-0E0,4.5044273E-2,-5.9234023E-2,-0E0,-2.9378517E-3,1.3295192E5,-0E0,-3.7430827E-2,-0E0,3.54034E-2,2.733075E-2,-0E0],"split_indices":[0,5,8,8,0,4,1,7,0,1,7,0,5,7,0,1,0,4,8,7,0,7,7,8,8,7,0,0,0,0,0,0,0,0,0,0,0,0,0,0,7,0,0,0,0,0,0],"split_type":[0,0,0,0,0,0,0,0,0,0,0,0,0,0,0,0,0,0,0,0,0,0,0,0,0,0,0,0,0,0,0,0,0,0,0,0,0,0,0,0,0,0,0,0,0,0,0],"sum_hessian":[1.8210609E3,1.0451805E3,7.758804E2,7.3819543E2,3.0698514E2,4.524095E2,3.234709E2,7.1888434E2,1.9311098E1,1.8010313E2,1.2688199E2,2.57531E2,1.9487846E2,2.535218E2,6.99491E1,6.546553E2,6.422907E1,1.0703086E2,7.307228E1,9.104315E1,3.5838837E1,1.275839E2,6.729456E1,1.0115909E2,1.523627E2,3.5898865E2,2.9566663E2,5.8610832E1,4.842003E1,6.731063E1,5.761651E0,1.2033543E1,7.900961E1,4.8745712E1,7.883819E1,3.1280627E0,6.41665E1,7.425575E1,2.690334E1,4.7483208E1,1.048795E2,1.1584196E2,2.431467E2,4.935863E0,4.3809853E1,7.841129E1,2.6468206E1],"tree_param":{"num_deleted":"0","num_feature":"9","num_nodes":"47","size_leaf_vector":"1"}},{"base_weights":[1.3404072E-2,-3.6652243E-1,3.7766585E-1,-4.3001297E-1,4.2116925E-2,5.863399E-1,3.4173243E-2,-1.7965731E-1,-7.986789E-1,1.419316E-1,6.611306E-1,-2.3033969E-1,6.904951E-2,-3.855002E-1,2.2113843E-1,-6.121343E-2,-3.3252686E-1,2.047544E-2,-0E0,5.276158E-2,3.6766103E-1,-7.502954E-1,1.1868958E-1,-7.213871E-4,-5.470308E-1,-2.4137855E-2,3.6577976E-1,-0E0,-5.640201E-1,3.5749722E-2,5.0115347E-2,-0E0,-5.0913576E-2,-4.858881E-3,3.31167E-1,-4.2050168E-2,-0E0,3.4851413E-2,-7.6030996E-3,-0E0,-6.5482676E-1,-2.953888E-2,2.7525228E-2,2.7948072E-2,-0E0,-4.825622E-2,-0E0,8.459301E-3,-1.9812567E-2],"categories":[],"categories_nodes":[],"categories_segments":[],"categories_sizes":[],"default_left":[0,0,0,0,0,0,0,0,0,0,0,0,0,0,0,0,0,0,0,0,0,0,0,0,0,0,0,0,0,0,0,0,0,0,0,0,0,0,0,0,0,0,0,0,0,0,0,0,0],"id":15,"left_children":[1,3,5,7,-1,9,11,13,15,17,19,21,-1,23,25,-1,27,-1,-1,-1,29,31,33,-1,35,-1,37,-1,39,-1,41,-1,-1,-1,43,-1,-1,-1,-1,-1,45,47,-1,-1,-1,-1,-1,-1,-1],"loss_changes":[2.5301518E2,5.720018E1,6.189673E1,6.777234E1,0E0,1.0869003E1,1.14156075E2,4.5691418E1,8.214035E0,5.0311337E0,8.134598E0,6.160894E1,0E0,1.698843E1,1.5520434E1,0E0,7.131054E0,0E0,0E0,0E0,5.8423595E0,4.477005E0,9.873557E0,0E0,1.1222702E1,0E0,1.7125044E1,0E0,5.1907864E0,0E0,6.7127047E0,0E0,0E0,0E0,5.2228756E0,0E0,0E0,0E0,0E0,0E0,5.066702E0,5.003803E0,0E0,0E0,0E0,0E0,0E0,0E0,0E0],"parents":[2147483647,0,0,1,1,2,2,3,3,5,5,6,6,7,7,8,8,9,9,10,10,11,11,13,13,14,14,16,16,20,20,21,21,22,22,24,24,26,26,28,28,30,30,34,34,40,40,41,41],"right_children":[2,4,6,8,-1,10,12,14,16,18,20,22,-1,24,26,-1,28,-1,-1,-1,30,32,34,-1,36,-1,38,-1,40,-1,42,-1,-1,-1,44,-1,-1,-1,-1,-1,46,48,-1,-1,-1,-1,-1,-1,-1],"split_conditions":[4E1,3E0,4.1743875E0,3.912023E0,4.2116925E-2,4.2E1,3E0,1E0,1.0896E5,4.1E1,1E0,6.297464E4,6.904951E-2,7.533964E4,9.505902E4,-6.121343E-2,1E0,2.047544E-2,-0E0,5.276158E-2,1E0,4.2904596E0,4.477337E0,-7.213871E-4,1.4822266E5,-2.4137855E-2,1.4214731E5,-0E0,1.1150166E5,3.5749722E-2,1E0,-0E0,-5.0913576E-2,-4.858881E-3,1.381663E5,-4.2050168E-2,-0E0,3.4851413E-2,-7.6030996E-3,-0E0,1.7493764E5,3.656696E4,2.7525228E-2,2.7948072E-2,-0E0,-4.825622E-2,-0E0,8.459301E-3,-1.9812567E-2],"split_indices":[0,1,8,8,0,0,1,5,7,0,3,7,0,7,7,0,3,0,0,0,2,8,8,0,7,0,7,0,7,0,5,0,0,0,7,0,0,0,0,0,7,7,0,0,0,0,0,0,0],"split_type":[0,0,0,0,0,0,0,0,0,0,0,0,0,0,0,0,0,0,0,0,0,0,0,0,0,0,0,0,0,0,0,0,0,0,0,0,0,0,0,0,0,0,0,0,0,0,0,0,0],"sum_hessian":[1.8118171E3,8.744846E2,9.373325E2,8.3590216E2,3.858245E1,5.6302875E2,3.7430377E2,5.196024E2,3.1629974E2,1.0205252E2,4.6097626E2,2.958536E2,7.845016E1,3.5861743E2,1.60985E2,2.1884338E2,9.745635E1,6.434677E1,3.770575E1,2.7192596E2,1.8905031E2,1.2576958E2,1.7008405E2,1.2775252E2,2.3086493E2,1.665752E1,1.4432748E2,4.6281273E1,5.117508E1,9.742977E1,9.162053E1,5.18586E0,1.2058372E2,6.9002686E1,1.0108135E2,1.8742514E2,4.343979E1,1.19522E2,2.480548E1,3.127651E0,4.804743E1,6.140637E1,3.0214167E1,8.39774E1,1.710395E1,4.4238068E1,3.8093615E0,2.0526371E1,4.0879993E1],"tree_param":{"num_deleted":"0","num_feature":"9","num_nodes":"49","size_leaf_vector":"1"}},{"base_weights":[6.83699E-3,-3.8664183E-1,3.1878316E-1,-6.3250494E-1,-1.00910395E-1,1.251128E-1,6.454453E-1,-6.571402E-1,-0E0,4.2781405E-2,-2.671527E-1,3.9901763E-1,-1.6127723E-1,7.282127E-1,-0E0,-3.5140124E-1,-5.5681333E-2,2.1957774E-1,-3.7627805E-3,-0E0,-2.9150069E-2,5.7727134E-1,1.17348455E-1,-4.7783643E-1,-0E0,-0E0,7.989391E-1,-2.6280533E-3,-5.870453E-1,-0E0,2.9675761E-2,-1.1783456E-2,1.0287152E-2,2.105383E-2,6.1786953E-2,1.5168099E-2,-1.645766E-2,-5.6176907E-1,-0E0,2.231072E-1,-1.4702923E-2,8.235085E-1,-0E0,-7.6402116E-1,-0E0,-4.157498E-2,-0E0,-0E0,3.8184606E-2,5.8329903E-2,9.496233E-3,-0E0,-5.3693514E-2],"categories":[],"categories_nodes":[],"categories_segments":[],"categories_sizes":[],"default_left":[0,0,0,0,0,0,0,0,0,0,0,0,0,0,0,0,0,0,0,0,0,0,0,0,0,0,0,0,0,0,0,0,0,0,0,0,0,0,0,0,0,0,0,0,0,0,0,0,0,0,0,0,0],"id":16,"left_children":[1,3,5,7,9,11,13,15,-1,17,19,21,23,25,-1,27,-1,29,-1,31,-1,33,35,37,39,-1,41,-1,43,-1,-1,-1,-1,-1,-1,-1,-1,45,-1,47,-1,49,-1,51,-1,-1,-1,-1,-1,-1,-1,-1,-1],"loss_changes":[2.2263351E2,4.8364014E1,5.7297775E1,7.8504944E0,1.1527066E1,5.5431797E1,2.1774338E1,1.1168701E1,0E0,4.933286E0,6.488989E0,1.1286343E1,1.5337757E1,2.0890427E1,0E0,7.923729E0,0E0,7.8544774E0,0E0,3.739383E0,0E0,4.8413925E0,7.715129E0,7.122488E0,1.1692022E1,0E0,9.525833E0,0E0,6.729372E0,0E0,0E0,0E0,0E0,0E0,0E0,0E0,0E0,7.122816E0,0E0,1.3478169E1,0E0,5.3548584E0,0E0,4.128784E0,0E0,0E0,0E0,0E0,0E0,0E0,0E0,0E0,0E0],"parents":[2147483647,0,0,1,1,2,2,3,3,4,4,5,5,6,6,7,7,9,9,10,10,11,11,12,12,13,13,15,15,17,17,19,19,21,21,22,22,23,23,24,24,26,26,28,28,37,37,39,39,41,41,43,43],"right_children":[2,4,6,8,10,12,14,16,-1,18,20,22,24,26,-1,28,-1,30,-1,32,-1,34,36,38,40,-1,42,-1,44,-1,-1,-1,-1,-1,-1,-1,-1,46,-1,48,-1,50,-1,52,-1,-1,-1,-1,-1,-1,-1,-1,-1],"split_conditions":[3.9E1,1.051025E5,1E0,3E0,1E0,1E0,1.4962088E5,2E0,-0E0,1.295485E5,1E0,1E0,4.3E1,8.697796E4,-0E0,1E0,-5.5681333E-2,1E0,-3.7627805E-3,3.6E1,-2.9150069E-2,5.2E1,6.1E1,3E0,1E0,-0E0,7.2E1,-2.6280533E-3,3.6E1,-0E0,2.9675761E-2,-1.1783456E-2,1.0287152E-2,2.105383E-2,6.1786953E-2,1.5168099E-2,-1.645766E-2,1.562828E5,-0E0,5E1,-1.4702923E-2,2E0,-0E0,2.3E1,-0E0,-4.157498E-2,-0E0,-0E0,3.8184606E-2,5.8329903E-2,9.496233E-3,-0E0,-5.3693514E-2],"split_indices":[0,7,5,1,2,2,7,1,0,7,3,3,0,7,0,3,0,5,0,0,0,0,0,1,3,0,0,0,0,0,0,0,0,0,0,0,0,7,0,0,0,3,0,0,0,0,0,0,0,0,0,0,0],"split_type":[0,0,0,0,0,0,0,0,0,0,0,0,0,0,0,0,0,0,0,0,0,0,0,0,0,0,0,0,0,0,0,0,0,0,0,0,0,0,0,0,0,0,0,0,0,0,0,0,0,0,0,0,0],"sum_hessian":[1.8031582E3,7.835359E2,1.0196224E3,3.9877158E2,3.847643E2,6.6455853E2,3.5506387E2,3.870359E2,1.1735698E1,1.7989438E2,2.0486993E2,3.544858E2,3.100727E2,3.1831842E2,3.674545E1,1.8159453E2,2.0544135E2,9.509227E1,8.480211E1,1.0617781E2,9.8692116E1,1.9210384E2,1.6238197E2,9.5548615E1,2.1452408E2,2.2462776E1,2.9585562E2,9.907895E1,8.251558E1,4.2134888E1,5.2957382E1,7.46649E1,3.1512909E1,1.3876126E2,5.3342583E1,1.4439876E2,1.7983217E1,8.9531204E1,6.017411E0,1.0423308E2,1.1029099E2,2.920508E2,3.8048286E0,5.7031883E1,2.5483692E1,8.363859E1,5.892619E0,5.7476692E1,4.675639E1,2.470325E2,4.501831E1,4.021048E0,5.3010834E1],"tree_param":{"num_deleted":"0","num_feature":"9","num_nodes":"53","size_leaf_vector":"1"}},{"base_weights":[1.1987579E-2,-1.715716E-1,5.3076947E-1,-2.4177328E-1,5.7892136E-2,4.5192137E-2,1.8644296E-1,-1.9166557E-2,-5.753638E-1,-7.3604055E-2,6.2979124E-2,1.9131486E-1,-2.964105E-1,-5.3379502E-2,-2.526609E-1,-6.21752E-1,9.803058E-3,-0E0,2.569808E-2,-4.3559134E-1,-0E0,-3.2638125E-2,-9.094861E-4,-0E0,-8.1603193E-1,-0E0,-6.6751355E-1,-6.856748E-3,1.7828532E-2,-5.811036E-2,-0E0,-4.676684E-2,-0E0],"categories":[],"categories_nodes":[],"categories_segments":[],"categories_sizes":[],"default_left":[0,0,0,0,0,0,0,0,0,0,0,0,0,0,0,0,0,0,0,0,0,0,0,0,0,0,0,0,0,0,0,0,0],"id":17,"left_children":[1,3,5,7,-1,-1,9,11,13,15,-1,17,19,-1,21,23,-1,-1,-1,25,27,-1,-1,-1,29,-1,31,-1,-1,-1,-1,-1,-1],"loss_changes":[1.7512706E2,9.461015E1,1.8958542E1,8.749912E1,0E0,0E0,4.7308712E1,4.669688E1,2.765152E1,2.2307446E1,0E0,1.8230856E1,1.7272934E1,0E0,9.577368E0,1.1286697E1,0E0,0E0,0E0,2.4469448E1,4.3964415E0,0E0,0E0,0E0,3.958004E0,0E0,9.855278E0,0E0,0E0,0E0,0E0,0E0,0E0],"parents":[2147483647,0,0,1,1,2,2,3,3,6,6,7,7,8,8,9,9,11,11,12,12,14,14,15,15,19,19,20,20,24,24,26,26],"right_children":[2,4,6,8,-1,-1,10,12,14,16,-1,18,20,-1,22,24,-1,-1,-1,26,28,-1,-1,-1,30,-1,32,-1,-1,-1,-1,-1,-1],"split_conditions":[1E0,3E0,4.0775375E0,2E0,5.7892136E-2,4.5192137E-2,3E0,1E0,5.450355E4,5.450355E4,6.2979124E-2,3.6635616E0,1E0,-5.3379502E-2,4.248495E0,2E0,9.803058E-3,-0E0,2.569808E-2,7.716887E4,3.6888795E0,-3.2638125E-2,-9.094861E-4,-0E0,4.762174E0,-0E0,1.8593219E5,-6.856748E-3,1.7828532E-2,-5.811036E-2,-0E0,-4.676684E-2,-0E0],"split_indices":[6,1,8,1,0,0,1,3,7,7,0,8,5,0,8,1,0,0,0,7,8,0,0,0,8,0,7,0,0,0,0,0,0],"split_type":[0,0,0,0,0,0,0,0,0,0,0,0,0,0,0,0,0,0,0,0,0,0,0,0,0,0,0,0,0,0,0,0,0],"sum_hessian":[1.7890897E3,1.3123157E3,4.7677408E2,1.2450826E3,6.7233025E1,2.9682843E2,1.7994563E2,7.6823596E2,4.7684668E2,1.3188435E2,4.806128E1,4.1926416E2,3.489718E2,2.455497E2,2.31297E2,4.6259804E1,8.562456E1,2.1289995E2,2.0636421E2,2.4841605E2,1.0055574E2,8.946511E1,1.4183188E2,5.7448635E0,4.051494E1,9.221821E1,1.5619785E2,6.0766064E1,3.9789673E1,3.6889557E1,3.6253836E0,1.5058397E2,5.613879E0],"tree_param":{"num_deleted":"0","num_feature":"9","num_nodes":"33","size_leaf_vector":"1"}},{"base_weights":[2.5174639E-3,-3.0570382E-1,2.6594466E-1,-7.324574E-2,-5.3514045E-1,4.3385404E-1,-0E0,1.5222241E-1,-2.1280834E-2,-6.6727877E-1,3.175231E-2,1.7233828E-1,6.550167E-1,-3.0360028E-1,6.455553E-2,-0E0,2.8875794E-2,-5.2210953E-2,-2.0302491E-1,1.3923701E-2,2.6446385E-2,5.8568418E-2,2.6187804E-1,-0E0,-5.341998E-1,-0E0,-2.7539171E-2,1.2453332E-2,-6.547797E-3,2.1876387E-4,3.311736E-2,-4.053094E-2,-0E0],"categories":[],"categories_nodes":[],"categories_segments":[],"categories_sizes":[],"default_left":[0,0,0,0,0,0,0,0,0,0,0,0,0,0,0,0,0,0,0,0,0,0,0,0,0,0,0,0,0,0,0,0,0],"id":18,"left_children":[1,3,5,7,9,11,13,15,-1,17,-1,19,21,23,-1,-1,-1,-1,25,27,-1,-1,29,-1,31,-1,-1,-1,-1,-1,-1,-1,-1],"loss_changes":[1.464534E2,3.769722E1,4.690699E1,2.7121693E1,5.710646E1,2.7471786E1,1.12524376E2,1.0890749E1,0E0,1.2725296E1,0E0,7.8705997E0,1.851857E1,1.691275E1,0E0,0E0,0E0,0E0,5.656024E0,5.5182195E0,0E0,0E0,4.8401756E0,0E0,4.626156E0,0E0,0E0,0E0,0E0,0E0,0E0,0E0,0E0],"parents":[2147483647,0,0,1,1,2,2,3,3,4,4,5,5,6,6,7,7,9,9,11,11,12,12,13,13,18,18,19,19,22,22,24,24],"right_children":[2,4,6,8,10,12,14,16,-1,18,-1,20,22,24,-1,-1,-1,-1,26,28,-1,-1,30,-1,32,-1,-1,-1,-1,-1,-1,-1,-1],"split_conditions":[3.9E1,3.6635616E0,4.2904596E0,1E0,3E0,4.7E1,3E0,1E0,-2.1280834E-2,3.7E1,3.175231E-2,1E0,1E0,1E0,6.455553E-2,-0E0,2.8875794E-2,-5.2210953E-2,1E0,1E0,2.6446385E-2,5.8568418E-2,1E0,-0E0,4.7095304E0,-0E0,-2.7539171E-2,1.2453332E-2,-6.547797E-3,2.1876387E-4,3.311736E-2,-4.053094E-2,-0E0],"split_indices":[0,8,8,2,1,0,1,5,0,0,0,5,3,2,0,0,0,0,3,2,0,0,5,0,8,0,0,0,0,0,0,0,0],"split_type":[0,0,0,0,0,0,0,0,0,0,0,0,0,0,0,0,0,0,0,0,0,0,0,0,0,0,0,0,0,0,0,0,0],"sum_hessian":[1.7925499E3,8.0941016E2,9.8313983E2,4.2706403E2,3.8234613E2,6.1371783E2,3.69422E2,2.0970955E2,2.1735448E2,3.490895E2,3.3256634E1,3.0660977E2,3.0710806E2,2.9219193E2,7.723009E1,1.3773383E2,7.197572E1,2.4834326E2,1.0074624E2,2.119165E2,9.469326E1,1.6690414E2,1.402039E2,1.438577E2,1.4833421E2,5.278053E1,4.796571E1,1.12212425E2,9.970408E1,9.0943695E1,4.92602E1,1.1725311E2,3.1081104E1],"tree_param":{"num_deleted":"0","num_feature":"9","num_nodes":"33","size_leaf_vector":"1"}},{"base_weights":[-0E0,-1.5402327E-1,4.4558352E-1,-2.2287567E-1,5.262654E-2,3.8737107E-2,1.0856373E-1,-2.7075808E-2,-5.330239E-1,-8.2304545E-2,5.3220574E-2,1.5956493E-1,-2.7729112E-1,-5.000765E-2,-2.3583226E-1,-4.3838836E-2,1.0161517E-2,-0E0,2.0693416E-2,-4.1414425E-1,-0E0,-4.1017112E-1,-6.0030405E-4,-2.870217E-4,-3.6937933E-2,-2.7164241E-2,1.4852631E-1,-3.0667502E-2,-0E0,3.1315175E-1,-7.204768E-3,-0E0,3.123576E-2],"categories":[],"categories_nodes":[],"categories_segments":[],"categories_sizes":[],"default_left":[0,0,0,0,0,0,0,0,0,0,0,0,0,0,0,0,0,0,0,0,0,0,0,0,0,0,0,0,0,0,0,0,0],"id":19,"left_children":[1,3,5,7,-1,-1,9,11,13,15,-1,17,19,-1,21,-1,-1,-1,-1,23,25,27,-1,-1,-1,-1,29,-1,-1,31,-1,-1,-1],"loss_changes":[1.2043284E2,8.364962E1,1.6285835E1,7.020038E1,0E0,0E0,3.040524E1,3.8229935E1,2.2373932E1,2.4241083E1,0E0,1.0019101E1,1.6914867E1,0E0,5.4104776E0,0E0,0E0,0E0,0E0,1.1474224E1,5.1190076E0,4.211664E0,0E0,0E0,0E0,0E0,6.379887E0,0E0,0E0,5.65094E0,0E0,0E0,0E0],"parents":[2147483647,0,0,1,1,2,2,3,3,6,6,7,7,8,8,9,9,11,11,12,12,14,14,19,19,20,20,21,21,26,26,29,29],"right_children":[2,4,6,8,-1,-1,10,12,14,16,-1,18,20,-1,22,-1,-1,-1,-1,24,26,28,-1,-1,-1,-1,30,-1,-1,32,-1,-1,-1],"split_conditions":[1E0,3E0,4.0943446E0,2E0,5.262654E-2,3.8737107E-2,4.7706847E0,1E0,5.450355E4,3.656696E4,5.3220574E-2,3.6635616E0,1E0,-5.000765E-2,4.276666E0,-4.3838836E-2,1.0161517E-2,-0E0,2.0693416E-2,7.716887E4,9.257814E4,1.6807883E5,-6.0030405E-4,-2.870217E-4,-3.6937933E-2,-2.7164241E-2,1.4214731E5,-3.0667502E-2,-0E0,3.5553482E0,-7.204768E-3,-0E0,3.123576E-2],"split_indices":[6,1,8,1,0,0,8,3,7,7,0,8,5,0,8,0,0,0,0,7,7,7,0,0,0,0,7,0,0,8,0,0,0],"split_type":[0,0,0,0,0,0,0,0,0,0,0,0,0,0,0,0,0,0,0,0,0,0,0,0,0,0,0,0,0,0,0,0,0],"sum_hessian":[1.7485826E3,1.3069435E3,4.416391E2,1.2346621E3,7.228136E1,2.8038406E2,1.6125505E2,7.802172E2,4.5444492E2,1.2261808E2,3.863697E1,4.275008E2,3.527164E2,2.2707843E2,2.2736649E2,4.2018433E1,8.059965E1,2.2947508E2,1.9802573E2,2.5241667E2,1.0029972E2,1.0200444E2,1.2536205E2,8.846723E1,1.6394945E2,8.722027E0,9.15777E1,9.294905E1,9.055389E0,7.670339E1,1.4874301E1,2.4853222E1,5.185017E1],"tree_param":{"num_deleted":"0","num_feature":"9","num_nodes":"33","size_leaf_vector":"1"}},{"base_weights":[2.9977344E-2,-2.9362136E-1,3.3881435E-1,-3.4882307E-1,4.1726816E-2,5.139003E-1,2.7975429E-2,-1.1526492E-1,-4.4535384E-2,1.7105112E-2,4.267996E-2,-1.7456041E-1,5.8996517E-2,-1.4844265E-2,8.436948E-2,1.320237E-4,-2.7114553E-2,1.6706392E-2,-2.922194E-2,-2.2170879E-2,2.7220533E-4],"categories":[],"categories_nodes":[],"categories_segments":[],"categories_sizes":[],"default_left":[0,0,0,0,0,0,0,0,0,0,0,0,0,0,0,0,0,0,0,0,0],"id":20,"left_children":[1,3,5,7,-1,9,11,13,-1,-1,-1,15,-1,-1,17,-1,-1,-1,19,-1,-1],"loss_changes":[1.7615565E2,4.2831947E1,4.465323E1,5.6523514E1,0E0,1.0775085E1,7.1907906E1,1.3062969E1,0E0,0E0,0E0,1.6306427E1,0E0,0E0,5.3509703E0,0E0,0E0,0E0,3.8832858E0,0E0,0E0],"parents":[2147483647,0,0,1,1,2,2,3,3,5,5,6,6,7,7,11,11,14,14,18,18],"right_children":[2,4,6,8,-1,10,12,14,-1,-1,-1,16,-1,-1,18,-1,-1,-1,20,-1,-1],"split_conditions":[4E1,3E0,4.204693E0,2E0,4.1726816E-2,4.6E1,3E0,1E0,-4.4535384E-2,1.7105112E-2,4.267996E-2,1E0,5.8996517E-2,-1.4844265E-2,1E0,1.320237E-4,-2.7114553E-2,1.6706392E-2,3.3E1,-2.2170879E-2,2.7220533E-4],"split_indices":[0,1,8,1,0,0,1,5,0,0,0,2,0,0,3,0,0,0,0,0,0],"split_type":[0,0,0,0,0,0,0,0,0,0,0,0,0,0,0,0,0,0,0,0,0],"sum_hessian":[1.7428304E3,8.3675385E2,9.0607654E2,8.041885E2,3.256537E1,5.5744165E2,3.4863495E2,4.9906705E2,3.0512143E2,2.376498E2,3.1979184E2,2.803795E2,6.8255455E1,3.457255E2,1.5334157E2,1.4567133E2,1.3470815E2,8.848965E1,6.485191E1,2.5680494E1,3.917142E1],"tree_param":{"num_deleted":"0","num_feature":"9","num_nodes":"21","size_leaf_vector":"1"}},{"base_weights":[-0E0,-2.23933E-1,3.5266325E-1,-2.7890158E-1,4.0092163E-2,5.9148496E-1,6.835047E-2,-9.6657455E-2,-5.50224E-1,3.1081712E-1,5.8640268E-2,1.8700917E-1,-3.2153245E-2,-2.0953813E-1,1.1006254E-1,-4.4716906E-2,-1.6706698E-1,1.7357663E-3,3.914376E-2,1.0707034E-3,4.1162542E-1,4.272063E-2,-3.449385E-1,-2.599431E-2,2.4954559E-1,1.7249241E-2,-2.4484856E-2,-0E0,5.4361033E-1,-1.5877072E-2,1.2829899E-2,-3.3792038E-2,2.233669E-3,2.6570493E-2,-1.3778895E-2,4.0782306E-2,-0E0],"categories":[],"categories_nodes":[],"categories_segments":[],"categories_sizes":[],"default_left":[0,0,0,0,0,0,0,0,0,0,0,0,0,0,0,0,0,0,0,0,0,0,0,0,0,0,0,0,0,0,0,0,0,0,0,0,0],"id":21,"left_children":[1,3,5,7,-1,9,11,13,15,17,-1,19,-1,21,23,-1,25,-1,-1,-1,27,29,31,-1,33,-1,-1,-1,35,-1,-1,-1,-1,-1,-1,-1,-1],"loss_changes":[1.3563684E2,4.6605442E1,3.9136093E1,4.2818718E1,0E0,1.7250679E1,2.0196535E1,1.5668972E1,1.1707588E1,1.1677116E1,0E0,7.2675476E0,0E0,1.776115E1,1.3464642E1,0E0,1.3744034E1,0E0,0E0,0E0,8.530102E0,6.031887E0,2.5407494E1,0E0,1.5495428E1,0E0,0E0,0E0,7.5279827E0,0E0,0E0,0E0,0E0,0E0,0E0,0E0,0E0],"parents":[2147483647,0,0,1,1,2,2,3,3,5,5,6,6,7,7,8,8,9,9,11,11,13,13,14,14,16,16,20,20,21,21,22,22,24,24,28,28],"right_children":[2,4,6,8,-1,10,12,14,16,18,-1,20,-1,22,24,-1,26,-1,-1,-1,28,30,32,-1,34,-1,-1,-1,36,-1,-1,-1,-1,-1,-1,-1,-1],"split_conditions":[4.3E1,3E0,1E0,2E0,4.0092163E-2,5.1E1,6.4E1,1E0,1.0839335E5,1E0,5.8640268E-2,1E0,-3.2153245E-2,4.950879E4,9.829818E4,-4.4716906E-2,1.1730744E5,1.7357663E-3,3.914376E-2,1.0707034E-3,1.0303383E5,3.1E1,1.4442795E5,-2.599431E-2,1.4214731E5,1.7249241E-2,-2.4484856E-2,-0E0,1.5697427E5,-1.5877072E-2,1.2829899E-2,-3.3792038E-2,2.233669E-3,2.6570493E-2,-1.3778895E-2,4.0782306E-2,-0E0],"split_indices":[0,1,3,1,0,0,0,5,7,5,0,5,0,7,7,0,7,0,0,0,7,0,7,0,7,0,0,0,7,0,0,0,0,0,0,0,0],"split_type":[0,0,0,0,0,0,0,0,0,0,0,0,0,0,0,0,0,0,0,0,0,0,0,0,0,0,0,0,0,0,0,0,0,0,0,0,0],"sum_hessian":[1.6970996E3,1.0347164E3,6.6238306E2,9.865999E2,4.811653E1,3.378452E2,3.2453787E2,6.1677606E2,3.6982385E2,2.024963E2,1.353489E2,2.8602454E2,3.8513344E1,4.275794E2,1.8919667E2,2.4791057E2,1.2191328E2,1.23361275E2,7.913504E1,1.9063918E2,9.538535E1,1.2754591E2,3.0003348E2,2.3250223E1,1.6594646E2,2.510091E1,9.681237E1,1.5175009E1,8.021034E1,2.2488071E1,1.0505784E2,2.1872318E2,8.131032E1,1.3835033E2,2.7596127E1,7.641985E1,3.7904882E0],"tree_param":{"num_deleted":"0","num_feature":"9","num_nodes":"37","size_leaf_vector":"1"}},{"base_weights":[8.514519E-3,-2.0716043E-1,3.108453E-1,-0E0,-3.8564953E-1,4.2778826E-1,-1.5511619E-1,-2.1131717E-1,1.011446E-2,-4.200717E-1,6.248545E-3,4.6236044E-1,-6.143017E-3,-4.4993713E-1,3.908854E-2,-2.6316717E-1,-0E0,-2.1334407E-1,-4.521292E-2,2.4295582E-1,4.2465318E-2,-0E0,-3.4809813E-2,-0E0,-3.4231283E-2,-2.2191143E-2,-0E0,2.529921E-2,1.4120351E-3],"categories":[],"categories_nodes":[],"categories_segments":[],"categories_sizes":[],"default_left":[0,0,0,0,0,0,0,0,0,0,0,0,0,0,0,0,0,0,0,0,0,0,0,0,0,0,0,0,0],"id":22,"left_children":[1,3,5,7,9,11,13,15,-1,17,-1,19,-1,21,-1,23,-1,25,-1,27,-1,-1,-1,-1,-1,-1,-1,-1,-1],"loss_changes":[1.1215735E2,3.390231E1,4.267634E1,1.6307178E1,1.1755554E1,1.4552521E1,3.11828E1,4.6516514E0,0E0,1.9071373E1,0E0,1.52686615E1,0E0,4.0466347E0,0E0,9.893896E0,0E0,6.814267E0,0E0,6.230707E0,0E0,0E0,0E0,0E0,0E0,0E0,0E0,0E0,0E0],"parents":[2147483647,0,0,1,1,2,2,3,3,4,4,5,5,6,6,7,7,9,9,11,11,13,13,15,15,17,17,19,19],"right_children":[2,4,6,8,10,12,14,16,-1,18,-1,20,-1,22,-1,24,-1,26,-1,28,-1,-1,-1,-1,-1,-1,-1,-1,-1],"split_conditions":[4.2E1,1E0,2E0,3.5E1,4.4308167E0,6.7E1,3E0,3E0,1.011446E-2,2E0,6.248545E-3,4.9E1,-6.143017E-3,4.4E1,3.908854E-2,2E0,-0E0,3.6E1,-4.521292E-2,1E0,4.2465318E-2,-0E0,-3.4809813E-2,-0E0,-3.4231283E-2,-2.2191143E-2,-0E0,2.529921E-2,1.4120351E-3],"split_indices":[0,2,3,0,8,0,1,1,0,1,0,0,0,0,0,1,0,0,0,2,0,0,0,0,0,0,0,0,0],"split_type":[0,0,0,0,0,0,0,0,0,0,0,0,0,0,0,0,0,0,0,0,0,0,0,0,0,0,0,0,0],"sum_hessian":[1.6898904E3,9.7001886E2,7.198715E2,4.6774203E2,5.022768E2,5.917068E2,1.2816469E2,2.1373886E2,2.5400317E2,4.8752213E2,1.4754659E1,5.7232135E2,1.9385483E1,1.03344574E2,2.4820118E1,2.0219241E2,1.1546454E1,3.070534E2,1.8046872E2,2.9951532E2,2.72806E2,1.9637436E1,8.370714E1,1.2290565E2,7.928676E1,1.7154442E2,1.3550899E2,1.5074472E2,1.487706E2],"tree_param":{"num_deleted":"0","num_feature":"9","num_nodes":"29","size_leaf_vector":"1"}},{"base_weights":[-3.1000169E-2,-2.47258E-1,2.534643E-1,-2.9917672E-1,3.841928E-2,4.715183E-1,-0E0,-1.0303247E-1,-4.984859E-1,2.1275648E-1,5.59517E-2,9.9170335E-2,-4.9624315E-1,5.3079147E-2,-2.9358113E-1,-5.2069366E-1,-0E0,1.1618519E-3,4.5918834E-1,1.8697923E-2,-2.1905215E-3,-4.3593485E-2,-0E0,-5.41869E-3,1.6039446E-1,-4.8827907E-1,-0E0,-4.336187E-2,-2.6444817E-1,-0E0,3.827201E-2,1.779173E-2,-3.8490514E-4,-3.681969E-2,-0E0,-2.3635479E-2,-0E0],"categories":[],"categories_nodes":[],"categories_segments":[],"categories_sizes":[],"default_left":[0,0,0,0,0,0,0,0,0,0,0,0,0,0,0,0,0,0,0,0,0,0,0,0,0,0,0,0,0,0,0,0,0,0,0,0,0],"id":23,"left_children":[1,3,5,7,-1,9,11,13,15,17,-1,19,21,23,25,27,-1,-1,29,-1,-1,-1,-1,-1,31,33,-1,-1,35,-1,-1,-1,-1,-1,-1,-1,-1],"loss_changes":[1.0345103E2,4.1232494E1,3.5309776E1,3.0534073E1,0E0,2.5747879E1,1.4503985E1,1.7294918E1,6.630661E0,7.2670326E0,0E0,1.0377175E1,4.369771E0,4.5798955E0,1.0437994E1,6.3929596E0,0E0,0E0,9.719805E0,0E0,0E0,0E0,0E0,0E0,6.004072E0,4.7633286E0,0E0,0E0,5.3616495E0,0E0,0E0,0E0,0E0,0E0,0E0,0E0,0E0],"parents":[2147483647,0,0,1,1,2,2,3,3,5,5,6,6,7,7,8,8,9,9,11,11,12,12,13,13,14,14,15,15,18,18,24,24,25,25,28,28],"right_children":[2,4,6,8,-1,10,12,14,16,18,-1,20,22,24,26,28,-1,-1,30,-1,-1,-1,-1,-1,32,34,-1,-1,36,-1,-1,-1,-1,-1,-1,-1,-1],"split_conditions":[4.2E1,3E0,1E0,1E0,3.841928E-2,5.1E1,6.3E1,1E0,1.787427E5,1E0,5.59517E-2,1E0,1.3038582E5,3.656696E4,1.0787904E5,3.6E1,-0E0,1.1618519E-3,4.3E1,1.8697923E-2,-2.1905215E-3,-4.3593485E-2,-0E0,-5.41869E-3,1.3717939E5,4E1,-0E0,-4.336187E-2,1E0,-0E0,3.827201E-2,1.779173E-2,-3.8490514E-4,-3.681969E-2,-0E0,-2.3635479E-2,-0E0],"split_indices":[0,1,3,3,0,0,0,2,7,5,0,2,7,7,7,0,0,0,0,0,0,0,0,0,7,0,0,0,5,0,0,0,0,0,0,0,0],"split_type":[0,0,0,0,0,0,0,0,0,0,0,0,0,0,0,0,0,0,0,0,0,0,0,0,0,0,0,0,0,0,0,0,0,0,0,0,0],"sum_hessian":[1.6667433E3,9.658005E2,7.009428E2,9.247171E2,4.1083355E1,3.5578558E2,3.4515726E2,4.9525983E2,4.2945728E2,2.361294E2,1.1965617E2,3.0666132E2,3.849596E1,2.4886684E2,2.46393E2,4.1740726E2,1.2050021E1,1.5738458E2,7.874482E1,1.5086172E2,1.5579958E2,2.6846865E1,1.1649096E1,7.253113E1,1.7633571E2,1.2784727E2,1.1854574E2,2.325747E2,1.8483255E2,6.7984033E0,7.194642E1,1.338973E2,4.2438416E1,1.065188E2,2.1328466E1,1.330088E2,5.1823734E1],"tree_param":{"num_deleted":"0","num_feature":"9","num_nodes":"37","size_leaf_vector":"1"}},{"base_weights":[-7.3018093E-3,-2.0327668E-1,2.8795344E-1,-2.461034E-1,4.821216E-1,9.528454E-2,5.912174E-1,-8.6946204E-2,-4.943592E-1,-0E0,4.3371547E-2,1.7674344E-2,4.3500625E-2,6.532876E-1,-0E0,-2.9738215E-1,-0E0,-4.4167913E-2,-1.2066236E-2,2.1159184E-1,-2.33042E-1,-0E0,7.1792454E-1,-3.230681E-2,-0E0,-7.378808E-2,2.1012552E-1,6.269973E-1,-3.1758662E-2,-3.9193906E-2,1.0310873E-1,4.805976E-2,-0E0,1.33835925E-2,-3.0826378E-1,3.9753088E-1,-3.5298243E-4,-0E0,4.464795E-2,-1.6830798E-2,1.18157834E-1,1.819115E-2,-2.1850865E-3,-3.13034E-2,-0E0,-0E0,3.5124235E-2,2.6797172E-2,-0E0],"categories":[],"categories_nodes":[],"categories_segments":[],"categories_sizes":[],"default_left":[0,0,0,0,0,0,0,0,0,0,0,0,0,0,0,0,0,0,0,0,0,0,0,0,0,0,0,0,0,0,0,0,0,0,0,0,0,0,0,0,0,0,0,0,0,0,0,0,0],"id":24,"left_children":[1,3,5,7,9,11,13,15,17,-1,-1,19,-1,21,-1,23,25,-1,-1,27,29,-1,31,-1,-1,33,35,37,39,-1,41,-1,-1,-1,43,45,-1,-1,-1,-1,47,-1,-1,-1,-1,-1,-1,-1,-1],"loss_changes":[9.6604706E1,2.9000584E1,3.1402328E1,3.333778E1,4.7506247E0,1.2717266E1,1.3452454E1,1.356702E1,1.2036903E1,0E0,0E0,1.9565964E1,0E0,1.41021805E1,0E0,1.2357231E1,7.75399E0,0E0,0E0,3.0837452E1,2.4802063E1,0E0,5.3745117E0,0E0,0E0,2.1420362E1,9.197884E0,3.7215652E0,6.7174892E0,0E0,4.2112646E0,0E0,0E0,0E0,1.0886478E1,1.033863E1,0E0,0E0,0E0,0E0,5.720978E0,0E0,0E0,0E0,0E0,0E0,0E0,0E0,0E0],"parents":[2147483647,0,0,1,1,2,2,3,3,4,4,5,5,6,6,7,7,8,8,11,11,13,13,15,15,16,16,19,19,20,20,22,22,25,25,26,26,27,27,28,28,30,30,34,34,35,35,40,40],"right_children":[2,4,6,8,10,12,14,16,18,-1,-1,20,-1,22,-1,24,26,-1,-1,28,30,-1,32,-1,-1,34,36,38,40,-1,42,-1,-1,-1,44,46,-1,-1,-1,-1,48,-1,-1,-1,-1,-1,-1,-1,-1],"split_conditions":[4.3E1,3E0,1E0,2E0,5.450355E4,3E0,1.5572684E5,3.3E1,8.345986E4,-0E0,4.3371547E-2,4.189655E0,4.3500625E-2,8.697796E4,-0E0,1.188125E5,1E0,-4.4167913E-2,-1.2066236E-2,6.912959E4,5.450355E4,-0E0,7.2E1,-3.230681E-2,-0E0,8.291648E4,1.2838912E5,4.5E1,5.1E1,-3.9193906E-2,6.4E1,4.805976E-2,-0E0,1.33835925E-2,1.381663E5,8.614746E4,-3.5298243E-4,-0E0,4.464795E-2,-1.6830798E-2,1E0,1.819115E-2,-2.1850865E-3,-3.13034E-2,-0E0,-0E0,3.5124235E-2,2.6797172E-2,-0E0],"split_indices":[0,1,5,1,7,1,7,0,7,0,0,8,0,7,0,7,5,0,0,7,7,0,0,0,0,7,7,0,0,0,0,0,0,0,7,7,0,0,0,0,3,0,0,0,0,0,0,0,0],"split_type":[0,0,0,0,0,0,0,0,0,0,0,0,0,0,0,0,0,0,0,0,0,0,0,0,0,0,0,0,0,0,0,0,0,0,0,0,0,0,0,0,0,0,0,0,0,0,0,0,0],"sum_hessian":[1.6672089E3,1.02223016E3,6.449787E2,9.7944495E2,4.278519E1,4.192116E2,2.257671E2,6.2579785E2,3.536471E2,1.394431E1,2.8840881E1,3.9069473E2,2.8516882E1,2.1500517E2,1.0761932E1,1.9973325E2,4.260646E2,1.9465886E2,1.5898824E2,2.4163065E2,1.4906409E2,1.0959981E1,2.040452E2,1.1508726E2,8.464599E1,2.9572253E2,1.3034206E2,9.862438E1,1.4300626E2,8.0569176E1,6.849491E1,1.9939297E2,4.6522126E0,1.17161964E2,1.7856058E2,8.895989E1,4.1382168E1,1.095918E1,8.76652E1,7.858444E1,6.442182E1,5.5260143E1,1.3234771E1,1.1407932E2,6.4481255E1,9.997157E0,7.896274E1,3.1308264E1,3.311356E1],"tree_param":{"num_deleted":"0","num_feature":"9","num_nodes":"49","size_leaf_vector":"1"}},{"base_weights":[4.6180878E-2,-1.3639778E-1,3.3890715E-1,-0E0,-2.9760602E-1,5.4149216E-1,1.0445701E-1,7.7820774E-3,-2.2052926E-1,-2.591634E-3,-4.6911883E-1,2.7856508E-1,5.430114E-2,2.4384315E-1,-3.504558E-2,-3.864098E-1,2.7745413E-2,-3.2844223E-2,-0E0,2.0866683E-3,3.501622E-2,-0E0,3.606528E-1,-3.533439E-2,-1.9752474E-3,3.5062283E-2,3.5390838E-3],"categories":[],"categories_nodes":[],"categories_segments":[],"categories_sizes":[],"default_left":[0,0,0,0,0,0,0,0,0,0,0,0,0,0,0,0,0,0,0,0,0,0,0,0,0,0,0],"id":25,"left_children":[1,3,5,7,9,11,13,-1,15,-1,17,19,-1,21,-1,23,-1,-1,-1,-1,-1,-1,25,-1,-1,-1,-1],"loss_changes":[9.0461914E1,2.1973942E1,2.477533E1,1.4897258E1,1.5443138E1,1.3727455E1,2.846749E1,0E0,2.2312954E1,0E0,7.8112297E0,7.7537537E0,0E0,9.892862E0,0E0,4.4721584E0,0E0,0E0,0E0,0E0,0E0,0E0,5.952339E0,0E0,0E0,0E0,0E0],"parents":[2147483647,0,0,1,1,2,2,3,3,4,4,5,5,6,6,8,8,10,10,11,11,13,13,15,15,22,22],"right_children":[2,4,6,8,10,12,14,-1,16,-1,18,20,-1,22,-1,24,-1,-1,-1,-1,-1,-1,26,-1,-1,-1,-1],"split_conditions":[4.3E1,1E0,1E0,3.912023E0,1E0,5.1E1,6.3E1,7.7820774E-3,3E0,-2.591634E-3,4.6728287E0,1E0,5.430114E-2,4.7E1,-3.504558E-2,3.7E1,2.7745413E-2,-3.2844223E-2,-0E0,2.0866683E-3,3.501622E-2,-0E0,1E0,-3.533439E-2,-1.9752474E-3,3.5062283E-2,3.5390838E-3],"split_indices":[0,3,3,8,2,0,0,0,1,0,8,5,0,0,0,0,0,0,0,0,0,0,2,0,0,0,0],"split_type":[0,0,0,0,0,0,0,0,0,0,0,0,0,0,0,0,0,0,0,0,0,0,0,0,0,0,0],"sum_hessian":[1.6432036E3,9.9527246E2,6.4793115E2,5.44307E2,4.5096548E2,3.210796E2,3.2685153E2,3.5356332E2,1.9074364E2,2.055437E2,2.4542178E2,1.9515575E2,1.2592386E2,2.8458716E2,4.226439E1,1.657361E2,2.5007538E1,2.3824106E2,7.1807113E0,1.23380035E2,7.17757E1,8.269215E1,2.01895E2,9.358684E1,7.214927E1,1.0400568E2,9.788932E1],"tree_param":{"num_deleted":"0","num_feature":"9","num_nodes":"27","size_leaf_vector":"1"}},{"base_weights":[1.2921674E-2,-1.5360877E-1,2.8897342E-1,-1.9617096E-1,3.220335E-2,5.042975E-1,5.3761225E-2,-2.7600043E-2,-4.6654597E-1,2.60836E-1,5.199678E-2,2.1178009E-1,-2.8216907E-1,3.2022516E-3,-1.4503637E-1,-1.7964268E-1,-4.270815E-2,2.5893489E-2,-0E0,-0E0,3.3444446E-2,-0E0,-5.216461E-1,-2.19717E-2,-0E0,-2.6814206E-2,-0E0,-1.456229E-2,1.1200271E-2,-4.113975E-2,-0E0],"categories":[],"categories_nodes":[],"categories_segments":[],"categories_sizes":[],"default_left":[0,0,0,0,0,0,0,0,0,0,0,0,0,0,0,0,0,0,0,0,0,0,0,0,0,0,0,0,0,0,0],"id":26,"left_children":[1,3,5,7,-1,9,11,13,15,17,-1,19,21,-1,23,25,-1,-1,-1,27,-1,-1,29,-1,-1,-1,-1,-1,-1,-1,-1],"loss_changes":[7.7158936E1,2.600791E1,2.718052E1,3.942162E1,0E0,1.1517174E1,1.7656878E1,6.591901E0,1.0851936E1,3.8718262E0,0E0,1.3825422E1,6.807551E0,0E0,9.267977E0,8.64151E0,0E0,0E0,0E0,6.5254936E0,0E0,0E0,5.461073E0,0E0,0E0,0E0,0E0,0E0,0E0,0E0,0E0],"parents":[2147483647,0,0,1,1,2,2,3,3,5,5,6,6,7,7,8,8,9,9,11,11,12,12,14,14,15,15,19,19,22,22],"right_children":[2,4,6,8,-1,10,12,14,16,18,-1,20,22,-1,24,26,-1,-1,-1,28,-1,-1,30,-1,-1,-1,-1,-1,-1,-1,-1],"split_conditions":[4.3E1,3E0,1E0,2E0,3.220335E-2,5.1E1,5.8E1,1E0,1E0,1E0,5.199678E-2,1E0,4.204693E0,3.2022516E-3,3.5E1,3.5E1,-4.270815E-2,2.5893489E-2,-0E0,4.7E1,3.3444446E-2,-0E0,3E0,-2.19717E-2,-0E0,-2.6814206E-2,-0E0,-1.456229E-2,1.1200271E-2,-4.113975E-2,-0E0],"split_indices":[0,1,3,1,0,0,0,3,2,2,0,5,8,0,0,0,0,0,0,0,0,0,1,0,0,0,0,0,0,0,0],"split_type":[0,0,0,0,0,0,0,0,0,0,0,0,0,0,0,0,0,0,0,0,0,0,0,0,0,0,0,0,0,0,0],"sum_hessian":[1.6359906E3,1.00185095E3,6.341397E2,9.588069E2,4.3044037E1,3.0601434E2,3.2812537E2,6.168204E2,3.419865E2,1.9394794E2,1.1206639E2,2.437044E2,8.442096E1,3.278447E2,2.889757E2,1.6322789E2,1.7875862E2,1.01818474E2,9.212946E1,1.577778E2,8.592661E1,4.024968E1,4.4171276E1,1.2638313E2,1.6259258E2,7.44397E1,8.878819E1,5.5650127E1,1.0212767E2,4.0570683E1,3.600595E0],"tree_param":{"num_deleted":"0","num_feature":"9","num_nodes":"31","size_leaf_vector":"1"}},{"base_weights":[-0E0,-5.3462137E-2,5.5030994E-2,9.048675E-2,-3.4496036E-1,2.8853914E-1,-1.2745251E-1,-3.720656E-2,-3.8568895E-2,6.498564E-3,4.2180397E-2,-1.6584648E-2,5.280901E-2,-1.2116645E-2,1.04950555E-2,2.4879524E-2,-0E0],"categories":[],"categories_nodes":[],"categories_segments":[],"categories_sizes":[],"default_left":[0,0,0,0,0,0,0,0,0,0,0,0,0,0,0,0,0],"id":27,"left_children":[1,3,-1,5,7,9,11,-1,13,-1,-1,-1,15,-1,-1,-1,-1],"loss_changes":[8.029549E1,6.656482E1,0E0,4.5185543E1,3.1425789E1,3.0318676E1,1.2738739E1,0E0,8.0022745E0,0E0,0E0,0E0,6.3879886E0,0E0,0E0,0E0,0E0],"parents":[2147483647,0,0,1,1,3,3,4,4,5,5,6,6,8,8,12,12],"right_children":[2,4,-1,6,8,10,12,-1,14,-1,-1,-1,16,-1,-1,-1,-1],"split_conditions":[3E0,2E0,5.5030994E-2,1E0,8.465179E4,4.5E1,4.4E1,-3.720656E-2,4.5E1,6.498564E-3,4.2180397E-2,-1.6584648E-2,3.656696E4,-1.2116645E-2,1.04950555E-2,2.4879524E-2,-0E0],"split_indices":[1,1,0,3,7,0,0,0,0,0,0,0,7,0,0,0,0],"split_type":[0,0,0,0,0,0,0,0,0,0,0,0,0,0,0,0,0],"sum_hessian":[1.6139327E3,1.5170276E3,9.6905075E1,9.980782E2,5.189494E2,5.4362537E2,4.5445282E2,2.7502255E2,2.4392685E2,3.8173145E2,1.6189394E2,2.9248877E2,1.6196405E2,1.6664105E2,7.72858E1,3.8464592E1,1.2349945E2],"tree_param":{"num_deleted":"0","num_feature":"9","num_nodes":"17","size_leaf_vector":"1"}},{"base_weights":[4.008966E-2,-8.452213E-2,3.2428682E-1,-1.2315879E-1,5.282851E-1,1.2000235E-1,6.282151E-1,-4.6119805E-2,-4.3252924E-1,-0E0,4.5370378E-2,3.6690125E-1,-3.2811042E-2,6.847056E-1,-0E0,-1.3619485E-1,1.3236514E-1,-3.17025E-2,-0E0,-0E0,4.5310877E-2,-0E0,-2.9229522E-2,7.2152364E-1,-0E0,-1.7786689E-1,2.543457E-2,-3.2123648E-2,2.4230206E-1,-0E0,4.9097348E-2,-0E0,-2.285435E-2,3.6657232E-1,-2.8649388E-2,-4.242449E-1,9.95128E-2,-0E0,2.8002737E-2,-3.3310782E-2,-0E0,1.5837817E-2,-4.6492824E-3],"categories":[],"categories_nodes":[],"categories_segments":[],"categories_sizes":[],"default_left":[0,0,0,0,0,0,0,0,0,0,0,0,0,0,0,0,0,0,0,0,0,0,0,0,0,0,0,0,0,0,0,0,0,0,0,0,0,0,0,0,0,0,0],"id":28,"left_children":[1,3,5,7,9,11,13,15,17,-1,-1,19,21,23,-1,25,27,-1,-1,-1,-1,-1,-1,29,-1,31,-1,-1,33,-1,-1,35,-1,37,-1,39,41,-1,-1,-1,-1,-1,-1],"loss_changes":[5.9912598E1,2.3131632E1,2.4763584E1,2.08795E1,4.1693764E0,1.591678E1,1.0885468E1,1.4432475E1,7.6392517E0,0E0,0E0,1.511137E1,6.6681533E0,6.7209167E0,0E0,1.2418389E1,1.709618E1,0E0,0E0,0E0,0E0,0E0,0E0,5.347481E0,0E0,1.7966606E1,0E0,0E0,2.145731E1,0E0,0E0,1.4425677E1,0E0,7.870985E0,0E0,4.006093E0,8.124945E0,0E0,0E0,0E0,0E0,0E0,0E0],"parents":[2147483647,0,0,1,1,2,2,3,3,4,4,5,5,6,6,7,7,8,8,11,11,12,12,13,13,15,15,16,16,23,23,25,25,28,28,31,31,33,33,35,35,36,36],"right_children":[2,4,6,8,10,12,14,16,18,-1,-1,20,22,24,-1,26,28,-1,-1,-1,-1,-1,-1,30,-1,32,-1,-1,34,-1,-1,36,-1,38,-1,40,42,-1,-1,-1,-1,-1,-1],"split_conditions":[4.5E1,3E0,1E0,2E0,5.450355E4,1E0,1.5697427E5,1E0,1.6475756E5,-0E0,4.5370378E-2,5.1E1,6.4E1,7.2E1,-0E0,1.7493764E5,8.760968E4,-3.17025E-2,-0E0,-0E0,4.5310877E-2,-0E0,-2.9229522E-2,8.697796E4,-0E0,9.505902E4,2.543457E-2,-3.2123648E-2,1.4962088E5,-0E0,4.9097348E-2,3.1E1,-2.285435E-2,2.8E1,-2.8649388E-2,8.564681E4,3.8066626E0,-0E0,2.8002737E-2,-3.3310782E-2,-0E0,1.5837817E-2,-4.6492824E-3],"split_indices":[0,1,5,3,7,3,7,5,7,0,0,0,0,0,0,7,7,0,0,0,0,0,0,7,0,7,0,0,7,0,0,0,0,0,0,7,8,0,0,0,0,0,0],"split_type":[0,0,0,0,0,0,0,0,0,0,0,0,0,0,0,0,0,0,0,0,0,0,0,0,0,0,0,0,0,0,0,0,0,0,0,0,0,0,0,0,0,0,0],"sum_hessian":[1.615722E3,1.1046053E3,5.1111667E2,1.0590729E3,4.5532536E1,3.30263E2,1.808537E2,8.7888696E2,1.8018587E2,1.4684024E1,3.0848513E1,1.4502095E2,1.8524203E2,1.7422092E2,6.632781E0,6.195134E2,2.5937354E2,1.7011606E2,1.0069809E1,8.024647E1,6.477449E1,1.5946378E2,2.577825E1,1.690244E2,5.196519E0,5.95221E2,2.4292389E1,2.2050726E1,2.3732281E2,8.037001E0,1.609874E2,3.067856E2,2.884354E2,2.1532591E2,2.1996902E1,5.8199657E1,2.4858597E2,2.1483877E1,1.9384204E2,5.1988773E1,6.210885E0,1.6158502E2,8.700095E1],"tree_param":{"num_deleted":"0","num_feature":"9","num_nodes":"43","size_leaf_vector":"1"}},{"base_weights":[4.979407E-3,-2.6330495E-1,1.6073945E-1,-3.062127E-1,1.6727732E-2,1.000683E-1,5.389512E-2,-4.628181E-1,-1.0158084E-1,2.902756E-1,-2.2610988E-1,-0E0,-3.129649E-2,6.730254E-5,-2.4025829E-1,4.2747956E-2,4.0162686E-1,-4.9514648E-1,-0E0,-0E0,-2.8873626E-2,1.4039057E-2,-2.116895E-3,3.7200313E-2,8.898444E-3,-5.65656E-1,-0E0,4.9438505E-3,-2.816768E-1,-0E0,-4.5289468E-2,-0E0,-3.7814125E-2],"categories":[],"categories_nodes":[],"categories_segments":[],"categories_sizes":[],"default_left":[0,0,0,0,0,0,0,0,0,0,0,0,0,0,0,0,0,0,0,0,0,0,0,0,0,0,0,0,0,0,0,0,0],"id":29,"left_children":[1,3,5,7,-1,9,-1,11,13,15,17,-1,-1,-1,19,21,23,25,27,-1,-1,-1,-1,-1,-1,29,-1,-1,31,-1,-1,-1,-1],"loss_changes":[6.641257E1,1.3836395E1,3.329893E1,1.1980499E1,0E0,6.1690987E1,0E0,3.7949028E0,6.076355E0,1.3373901E1,1.9882668E1,0E0,0E0,0E0,5.806945E0,4.808746E0,1.1821358E1,3.9960823E0,4.9884367E0,0E0,0E0,0E0,0E0,0E0,0E0,5.655834E0,0E0,0E0,4.288846E0,0E0,0E0,0E0,0E0],"parents":[2147483647,0,0,1,1,2,2,3,3,5,5,7,7,8,8,9,9,10,10,14,14,15,15,16,16,17,17,18,18,25,25,28,28],"right_children":[2,4,6,8,-1,10,-1,12,14,16,18,-1,-1,-1,20,22,24,26,28,-1,-1,-1,-1,-1,-1,30,-1,-1,32,-1,-1,-1,-1],"split_conditions":[3.7E1,3E0,3E0,1.0759411E5,1.6727732E-2,4.204693E0,5.389512E-2,3.218876E0,1E0,4.2E1,5.450355E4,-0E0,-3.129649E-2,6.730254E-5,3.2E1,1.0535581E5,1E0,4.762174E0,1.3865048E5,-0E0,-2.8873626E-2,1.4039057E-2,-2.116895E-3,3.7200313E-2,8.898444E-3,4E1,-0E0,4.9438505E-3,1E0,-0E0,-4.5289468E-2,-0E0,-3.7814125E-2],"split_indices":[0,1,1,7,0,8,0,8,2,0,7,0,0,0,0,7,3,8,7,0,0,0,0,0,0,0,0,0,5,0,0,0,0],"split_type":[0,0,0,0,0,0,0,0,0,0,0,0,0,0,0,0,0,0,0,0,0,0,0,0,0,0,0,0,0,0,0,0,0],"sum_hessian":[1.5960145E3,5.626184E2,1.0333961E3,5.391312E2,2.3487156E1,9.687228E2,6.467332E1,2.7439597E2,2.6473526E2,6.302164E2,3.3850644E2,8.216094E0,2.6617987E2,1.1858812E2,1.4614716E2,2.2447841E2,4.0573795E2,1.4548044E2,1.93026E2,8.035253E1,6.5794624E1,1.0006878E2,1.2440963E2,2.1803154E2,1.8770642E2,1.22128365E2,2.3352074E1,1.4960555E2,4.342045E1,3.3757023E1,8.8371346E1,2.6850452E1,1.6569996E1],"tree_param":{"num_deleted":"0","num_feature":"9","num_nodes":"33","size_leaf_vector":"1"}},{"base_weights":[4.8412494E-3,-1.2305882E-1,2.9038066E-1,3.2001317E-2,-3.0538154E-1,-2.5141032E-2,3.7430343E-1,-3.4928855E-2,4.487296E-2,-4.0449783E-1,-0E0,4.3068907E-1,-2.4457041E-2,-8.294801E-2,2.6262084E-2,-4.5861167E-1,8.631923E-3,-0E0,4.7554988E-1,-0E0,-2.2368078E-1,-3.1362034E-2,-0E0,2.740654E-1,6.405959E-1,2.3636878E-2,-1.4143875E-2,-4.5819628E-1,5.4620607E-3,3.3656228E-1,-0E0,4.3167002E-2,-0E0,-3.4780275E-2,-0E0,2.4323313E-2,-0E0],"categories":[],"categories_nodes":[],"categories_segments":[],"categories_sizes":[],"default_left":[0,0,0,0,0,0,0,0,0,0,0,0,0,0,0,0,0,0,0,0,0,0,0,0,0,0,0,0,0,0,0,0,0,0,0,0,0],"id":30,"left_children":[1,3,5,7,9,-1,11,13,-1,15,-1,17,-1,19,-1,21,-1,-1,23,25,27,-1,-1,29,31,-1,-1,33,-1,35,-1,-1,-1,-1,-1,-1,-1],"loss_changes":[5.9214466E1,3.2801033E1,3.0126503E1,3.0951685E1,1.5371944E1,0E0,2.1731071E1,7.9162645E0,0E0,1.4814274E1,0E0,1.1287529E1,0E0,6.109536E0,0E0,6.419037E0,0E0,0E0,4.2405243E0,2.477946E1,1.7302021E1,0E0,0E0,6.4690647E0,3.8886642E0,0E0,0E0,8.145977E0,0E0,4.0274734E0,0E0,0E0,0E0,0E0,0E0,0E0,0E0],"parents":[2147483647,0,0,1,1,2,2,3,3,4,4,6,6,7,7,9,9,11,11,13,13,15,15,18,18,19,19,20,20,23,23,24,24,27,27,29,29],"right_children":[2,4,6,8,10,-1,12,14,-1,16,-1,18,-1,20,-1,22,-1,-1,24,26,28,-1,-1,30,32,-1,-1,34,-1,36,-1,-1,-1,-1,-1,-1,-1],"split_conditions":[1E0,1E0,8.614746E4,5.2E1,1E0,-2.5141032E-2,1.6371452E5,1.7029122E5,4.487296E-2,1.693996E5,-0E0,2.8E1,-2.4457041E-2,2E0,2.6262084E-2,3E0,8.631923E-3,-0E0,4.3E1,7.026383E4,7.319499E4,-3.1362034E-2,-0E0,1.451514E5,6.7E1,2.3636878E-2,-1.4143875E-2,4.828314E0,5.4620607E-3,4.406719E0,-0E0,4.3167002E-2,-0E0,-3.4780275E-2,-0E0,2.4323313E-2,-0E0],"split_indices":[5,4,7,0,6,0,7,7,0,7,0,0,0,1,0,1,0,0,0,7,7,0,0,7,0,0,0,8,0,8,0,0,0,0,0,0,0],"split_type":[0,0,0,0,0,0,0,0,0,0,0,0,0,0,0,0,0,0,0,0,0,0,0,0,0,0,0,0,0,0,0,0,0,0,0,0,0],"sum_hessian":[1.5638447E3,1.0609451E3,5.0289966E2,5.496317E2,5.1131335E2,4.0136574E1,4.627631E2,4.9334546E2,5.628624E1,3.8201187E2,1.2930148E2,4.449761E2,1.7786982E1,4.6942545E2,2.392E1,3.636515E2,1.8360376E1,3.149094E1,4.1348517E2,2.8952496E2,1.799005E2,3.5126382E2,1.2387675E1,2.206206E2,1.9286458E2,1.1053423E2,1.7899072E2,1.1690338E2,6.2997112E1,2.0076103E2,1.9859568E1,1.8551595E2,7.348629E0,1.10728935E2,6.174442E0,1.8743776E2,1.3323276E1],"tree_param":{"num_deleted":"0","num_feature":"9","num_nodes":"37","size_leaf_vector":"1"}},{"base_weights":[4.0491126E-3,-2.1485086E-1,1.6278706E-1,-0E0,-3.9150438E-1,3.19248E-1,-0E0,-2.8303722E-1,1.3981366E-1,-2.7336964E-2,-0E0,1.4216708E-1,5.212955E-2,-5.4683555E-2,3.6288235E-2,-2.435155E-2,-0E0,2.1219242E-2,-0E0,2.4108772E-1,-0E0,7.8901134E-2,-2.213412E-1,1.8330734E-2,-0E0,-1.3372107E-1,2.8073944E-2,-0E0,1.4921754E-2,-0E0,-3.3687815E-2,-3.5071462E-1,-0E0,-0E0,-4.8541725E-2],"categories":[],"categories_nodes":[],"categories_segments":[],"categories_sizes":[],"default_left":[0,0,0,0,0,0,0,0,0,0,0,0,0,0,0,0,0,0,0,0,0,0,0,0,0,0,0,0,0,0,0,0,0,0,0],"id":31,"left_children":[1,3,5,7,9,11,13,15,17,-1,-1,19,-1,21,-1,-1,-1,-1,-1,23,25,27,29,-1,-1,31,-1,-1,-1,-1,-1,33,-1,-1,-1],"loss_changes":[5.4341377E1,2.1652105E1,2.49806E1,1.3649551E1,6.912243E0,3.2605732E1,1.2579473E1,4.4248943E0,4.0509434E0,0E0,0E0,6.4884844E0,0E0,1.10028715E1,0E0,0E0,0E0,0E0,0E0,3.9012632E0,7.5136423E0,4.3164134E0,1.2672282E1,0E0,0E0,6.1689053E0,0E0,0E0,0E0,0E0,0E0,7.2366276E0,0E0,0E0,0E0],"parents":[2147483647,0,0,1,1,2,2,3,3,4,4,5,5,6,6,7,7,8,8,11,11,13,13,19,19,20,20,21,21,22,22,25,25,31,31],"right_children":[2,4,6,8,10,12,14,16,18,-1,-1,20,-1,22,-1,-1,-1,-1,-1,24,26,28,30,-1,-1,32,-1,-1,-1,-1,-1,34,-1,-1,-1],"split_conditions":[3.8E1,1E0,1E0,9.214015E4,4.3307333E0,5.1E1,3E0,4.248495E0,1.1241481E5,-2.7336964E-2,-0E0,3.9512436E0,5.212955E-2,1E0,3.6288235E-2,-2.435155E-2,-0E0,2.1219242E-2,-0E0,1.5145788E5,4.634729E0,1E0,4.204693E0,1.8330734E-2,-0E0,8.697796E4,2.8073944E-2,-0E0,1.4921754E-2,-0E0,-3.3687815E-2,4.4E1,-0E0,-0E0,-4.8541725E-2],"split_indices":[0,2,3,7,8,0,3,8,7,0,0,8,0,2,0,0,0,0,0,7,8,6,8,0,0,7,0,0,0,0,0,0,0,0,0],"split_type":[0,0,0,0,0,0,0,0,0,0,0,0,0,0,0,0,0,0,0,0,0,0,0,0,0,0,0,0,0,0,0,0,0,0,0],"sum_hessian":[1.5618984E3,6.310694E2,9.30829E2,3.052324E2,3.25837E2,4.8132043E2,4.4950854E2,1.13956345E2,1.9127606E2,3.166884E2,9.1486E0,3.7427472E2,1.0704571E2,4.2151758E2,2.7990986E1,9.2063805E1,2.1892534E1,6.5853806E1,1.2542225E2,2.3666669E2,1.3760803E2,2.0570201E2,2.1581557E2,2.1733766E2,1.9329033E1,1.1750531E2,2.0102726E1,1.0762139E2,9.808061E1,1.3667844E2,7.913712E1,6.0534313E1,5.6971E1,4.0636307E1,1.9898006E1],"tree_param":{"num_deleted":"0","num_feature":"9","num_nodes":"35","size_leaf_vector":"1"}},{"base_weights":[-0E0,-5.0387755E-2,4.9407374E-2,-1.5784174E-1,2.0260379E-1,-0E0,-2.9296175E-1,2.7362898E-1,-2.5597166E-2,-4.6376802E-2,3.141676E-2,-1.2809402E-1,-5.335627E-1,3.9783746E-1,-0E0,-0E0,-4.1990414E-2,4.512822E-3,-2.2881033E-1,-5.0204277E-2,-0E0,3.7543323E-2,1.550619E-1,-1.5495243E-2,1.0016287E-2,-2.2812474E-1,9.700533E-3,-3.502618E-1,-0E0,1.9623533E-2,-5.316166E-4,-3.4214565E-1,-0E0,-5.3542525E-1,-0E0,-0E0,-4.351883E-2,-0E0,-4.1033775E-2],"categories":[],"categories_nodes":[],"categories_segments":[],"categories_sizes":[],"default_left":[0,0,0,0,0,0,0,0,0,0,0,0,0,0,0,0,0,0,0,0,0,0,0,0,0,0,0,0,0,0,0,0,0,0,0,0,0,0,0],"id":32,"left_children":[1,3,-1,5,7,9,11,13,-1,15,-1,17,19,21,23,25,-1,-1,27,-1,-1,-1,29,-1,-1,31,-1,33,-1,-1,-1,35,-1,37,-1,-1,-1,-1,-1],"loss_changes":[5.731728E1,3.9784435E1,0E0,2.133392E1,1.7414766E1,9.778968E0,1.5471615E1,1.368178E1,0E0,1.488982E1,0E0,8.82493E0,2.1468563E1,4.5845337E0,5.1001935E0,1.5626953E1,0E0,0E0,7.6849594E0,0E0,0E0,0E0,6.3387933E0,0E0,0E0,3.815714E0,0E0,8.881369E0,0E0,0E0,0E0,9.871947E0,0E0,5.687109E0,0E0,0E0,0E0,0E0,0E0],"parents":[2147483647,0,0,1,1,3,3,4,4,5,5,6,6,7,7,9,9,11,11,12,12,13,13,14,14,15,15,18,18,22,22,25,25,27,27,31,31,33,33],"right_children":[2,4,-1,6,8,10,12,14,-1,16,-1,18,20,22,24,26,-1,-1,28,-1,-1,-1,30,-1,-1,32,-1,34,-1,-1,-1,36,-1,38,-1,-1,-1,-1,-1],"split_conditions":[3E0,4.6E1,4.9407374E-2,1E0,6.7E1,1.693996E5,2E0,2E0,-2.5597166E-2,1.4865948E5,3.141676E-2,7.225264E4,1.0812239E5,1E0,8.181849E4,3.5E1,-4.1990414E-2,4.512822E-3,1E0,-5.0204277E-2,-0E0,3.7543323E-2,5.7E1,-1.5495243E-2,1.0016287E-2,1.0759411E5,9.700533E-3,1.2999176E5,-0E0,1.9623533E-2,-5.316166E-4,2E0,-0E0,3E1,-0E0,-0E0,-4.351883E-2,-0E0,-4.1033775E-2],"split_indices":[1,0,0,2,0,7,1,1,0,7,0,7,7,3,7,0,0,0,5,0,0,0,0,0,0,7,0,7,0,0,0,1,0,0,0,0,0,0,0],"split_type":[0,0,0,0,0,0,0,0,0,0,0,0,0,0,0,0,0,0,0,0,0,0,0,0,0,0,0,0,0,0,0,0,0,0,0,0,0,0,0],"sum_hessian":[1.5453768E3,1.4615173E3,8.385946E1,1.0533477E3,4.081697E2,5.0457376E2,5.487739E2,3.8238855E2,2.5781162E1,4.7542673E2,2.9147032E1,3.5539972E2,1.933742E2,2.6320258E2,1.1918597E2,4.4552878E2,2.9897932E1,8.994304E1,2.6545667E2,1.226804E2,7.069381E1,1.2228643E2,1.4091614E2,4.777882E1,7.140715E1,1.6961464E2,2.7591415E2,1.7142702E2,9.402965E1,9.968548E1,4.123065E1,1.0364223E2,6.597241E1,9.985561E1,7.15714E1,6.092329E1,4.2718937E1,1.6989378E1,8.2866234E1],"tree_param":{"num_deleted":"0","num_feature":"9","num_nodes":"39","size_leaf_vector":"1"}},{"base_weights":[-1.1493539E-2,-1.3879159E-1,1.8369529E-1,3.2191467E-2,-3.139423E-1,3.4125996E-1,-2.5645511E-2,1.001423E-2,-7.772195E-2,-3.4616414E-1,5.8384296E-3,4.0770277E-2,1.9688724E-1,-3.1561896E-1,2.812129E-1,-3.6090055E-1,-0E0,-2.1299478E-1,-3.6543872E-2,-6.0822453E-2,3.586805E-2,-4.1492E-2,-0E0,5.341017E-1,-2.573139E-3,-3.1931337E-2,-0E0,-3.3153483E-1,-0E0,-1.0853042E-2,1.595954E-2,-0E0,4.8519444E-2,-3.9952618E-1,-0E0,-1.50168E-2,2.534382E-1,-0E0,-2.9458413E-2,3.2303102E-2,-0E0],"categories":[],"categories_nodes":[],"categories_segments":[],"categories_sizes":[],"default_left":[0,0,0,0,0,0,0,0,0,0,0,0,0,0,0,0,0,0,0,0,0,0,0,0,0,0,0,0,0,0,0,0,0,0,0,0,0,0,0,0,0],"id":33,"left_children":[1,3,5,7,9,11,13,-1,15,17,-1,-1,19,21,23,25,-1,27,-1,29,-1,-1,-1,31,-1,-1,-1,33,35,-1,-1,-1,-1,37,-1,-1,39,-1,-1,-1,-1],"loss_changes":[3.7444942E1,3.1122019E1,2.187062E1,7.0286574E0,9.062313E0,6.1692505E0,2.1336971E1,0E0,7.3490167E0,6.0034065E0,0E0,0E0,2.9512947E1,1.0456302E1,1.2800902E1,5.471349E0,0E0,1.1247859E1,0E0,4.4746957E0,0E0,0E0,0E0,5.281233E0,0E0,0E0,0E0,6.5853214E0,6.7872267E0,0E0,0E0,0E0,0E0,5.275425E0,0E0,0E0,8.005528E0,0E0,0E0,0E0,0E0],"parents":[2147483647,0,0,1,1,2,2,3,3,4,4,5,5,6,6,8,8,9,9,12,12,13,13,14,14,15,15,17,17,19,19,23,23,27,27,28,28,33,33,36,36],"right_children":[2,4,6,8,10,12,14,-1,16,18,-1,-1,20,22,24,26,-1,28,-1,30,-1,-1,-1,32,-1,-1,-1,34,36,-1,-1,-1,-1,38,-1,-1,40,-1,-1,-1,-1],"split_conditions":[4.3E1,1E0,4.2904596E0,1E0,4.59512E0,4.950879E4,4.691348E0,1.001423E-2,6.411938E4,3.988984E0,5.8384296E-3,4.0770277E-2,1E0,6.297464E4,6.2E1,4.1E1,-0E0,1E0,-3.6543872E-2,1.787427E5,3.586805E-2,-4.1492E-2,-0E0,4.8121843E0,-2.573139E-3,-3.1931337E-2,-0E0,1.5145788E5,3.5553482E0,-1.0853042E-2,1.595954E-2,-0E0,4.8519444E-2,3.3672957E0,-0E0,-1.50168E-2,1.2254964E5,-0E0,-2.9458413E-2,3.2303102E-2,-0E0],"split_indices":[0,2,8,3,8,7,8,0,7,8,0,0,5,7,0,0,0,5,0,7,0,0,0,8,0,0,0,7,8,0,0,0,0,8,0,0,7,0,0,0,0],"split_type":[0,0,0,0,0,0,0,0,0,0,0,0,0,0,0,0,0,0,0,0,0,0,0,0,0,0,0,0,0,0,0,0,0,0,0,0,0,0,0,0,0],"sum_hessian":[1.5077079E3,9.4238495E2,5.6532294E2,4.5359225E2,4.8879266E2,3.4474142E2,2.2058148E2,2.5220824E2,2.0138403E2,4.7477817E2,1.4014515E1,8.476335E1,2.599781E2,1.2867175E2,9.190973E1,5.8284733E1,1.4309929E2,3.3102866E2,1.437495E2,1.400567E2,1.1992138E2,5.0527092E1,7.814466E1,6.448929E1,2.7420443E1,4.9861668E1,8.423065E0,2.3435678E2,9.667189E1,1.2866365E2,1.13930435E1,2.6345995E1,3.8143295E1,2.001925E2,3.416427E1,3.4061092E1,6.2610798E1,2.27918E1,1.7740071E2,4.2322132E1,2.0288668E1],"tree_param":{"num_deleted":"0","num_feature":"9","num_nodes":"41","size_leaf_vector":"1"}},{"base_weights":[-7.104342E-4,1.6804825E-1,-1.8200462E-1,-0E0,2.6568085E-1,-3.280426E-1,5.58353E-3,-5.529413E-4,2.7167035E-2,1.8322552E-2,-0E0,-1.2575303E-1,-5.0783235E-1,1.4118779E-1,-1.5215892E-1,-1.7147576E-2,-0E0,-3.5363063E-2,-0E0,-0E0,2.3296529E-1,-2.3751102E-2,-0E0,1.72297E-2,-6.210774E-3,2.1756165E-2,-0E0],"categories":[],"categories_nodes":[],"categories_segments":[],"categories_sizes":[],"default_left":[0,0,0,0,0,0,0,0,0,0,0,0,0,0,0,0,0,0,0,0,0,0,0,0,0,0,0],"id":34,"left_children":[1,3,5,7,9,11,13,-1,-1,-1,-1,15,17,19,21,-1,23,-1,-1,-1,25,-1,-1,-1,-1,-1,-1],"loss_changes":[4.7813583E1,1.0927488E1,2.4275774E1,4.1085496E0,3.9243774E0,1.0591602E1,6.9251804E0,0E0,0E0,0E0,0E0,4.782363E0,6.8476524E0,3.8489184E0,6.1152163E0,0E0,3.9078007E0,0E0,0E0,0E0,6.0105557E0,0E0,0E0,0E0,0E0,0E0,0E0],"parents":[2147483647,0,0,1,1,2,2,3,3,4,4,5,5,6,6,11,11,12,12,13,13,14,14,16,16,20,20],"right_children":[2,4,6,8,10,12,14,-1,-1,-1,-1,16,18,20,22,-1,24,-1,-1,-1,26,-1,-1,-1,-1,-1,-1],"split_conditions":[1E0,3.8E1,4.2E1,1.7493764E5,7.2E1,1E0,4.2904596E0,-5.529413E-4,2.7167035E-2,1.8322552E-2,-0E0,1.0448817E5,3E0,4.6E1,9.966013E4,-1.7147576E-2,1.1546598E5,-3.5363063E-2,-0E0,-0E0,1.3747912E5,-2.3751102E-2,-0E0,1.72297E-2,-6.210774E-3,2.1756165E-2,-0E0],"split_indices":[2,0,0,7,0,3,8,0,0,0,0,7,3,0,7,0,7,0,0,0,7,0,0,0,0,0,0],"split_type":[0,0,0,0,0,0,0,0,0,0,0,0,0,0,0,0,0,0,0,0,0,0,0,0,0,0,0],"sum_hessian":[1.5429258E3,7.7317035E2,7.697554E2,3.1373383E2,4.5943655E2,4.570158E2,3.1273956E2,2.984478E2,1.5286008E1,4.51406E2,8.030527E0,2.4534035E2,2.1167546E2,1.9989633E2,1.12843216E2,1.1698101E2,1.2835934E2,2.0414029E2,7.5351725E0,6.051935E1,1.3937698E2,5.8133446E1,5.4709774E1,3.384824E1,9.45111E1,1.1571906E2,2.3657923E1],"tree_param":{"num_deleted":"0","num_feature":"9","num_nodes":"27","size_leaf_vector":"1"}},{"base_weights":[1.0139728E-2,-2.2120213E-2,4.322782E-2,8.5499756E-2,-2.4782962E-1,-8.3113066E-4,3.54793E-1,-3.3892974E-2,-0E0,-9.438051E-2,1.616651E-1,4.1264154E-2,2.0630194E-3,1.0483945E-2,-2.5124493E-1,-1.9363215E-2,2.3009367E-1,-3.68735E-1,2.4279311E-2,-0E0,3.2772267E-1,-0E0,-2.5632786E-2,2.6280606E-2,-0E0],"categories":[],"categories_nodes":[],"categories_segments":[],"categories_sizes":[],"default_left":[0,0,0,0,0,0,0,0,0,0,0,0,0,0,0,0,0,0,0,0,0,0,0,0,0],"id":35,"left_children":[1,3,-1,5,7,9,11,-1,-1,13,15,-1,-1,-1,17,-1,19,21,-1,-1,23,-1,-1,-1,-1],"loss_changes":[3.8409267E1,3.678095E1,0E0,2.5509768E1,3.376715E1,1.0250235E1,1.7340157E1,0E0,0E0,2.0839184E1,7.01635E0,0E0,0E0,0E0,2.5259348E1,0E0,5.705635E0,4.5415993E0,0E0,0E0,7.525076E0,0E0,0E0,0E0,0E0],"parents":[2147483647,0,0,1,1,3,3,4,4,5,5,6,6,9,9,10,10,14,14,16,16,17,17,20,20],"right_children":[2,4,-1,6,8,10,12,-1,-1,14,16,-1,-1,-1,18,-1,20,22,-1,-1,24,-1,-1,-1,-1],"split_conditions":[3E0,2E0,4.322782E-2,3.871201E0,5.450355E4,1E0,1E0,-3.3892974E-2,-0E0,6.781672E4,7.788653E4,4.1264154E-2,2.0630194E-3,1.0483945E-2,1.693996E5,-1.9363215E-2,3.5263605E0,3.1780539E0,2.4279311E-2,-0E0,1.5234155E5,-0E0,-2.5632786E-2,2.6280606E-2,-0E0],"split_indices":[1,1,0,8,7,5,3,0,0,7,7,0,0,0,7,0,8,8,0,0,7,0,0,0,0],"split_type":[0,0,0,0,0,0,0,0,0,0,0,0,0,0,0,0,0,0,0,0,0,0,0,0,0],"sum_hessian":[1.5149727E3,1.4381821E3,7.6790535E1,9.496129E2,4.8856924E2,6.992008E2,2.5041212E2,2.2582576E2,2.627435E2,4.8166586E2,2.1753491E2,1.1409288E2,1.3631924E2,1.6044724E2,3.2121863E2,7.355608E0,2.101793E2,2.8556674E2,3.565188E1,5.742502E1,1.5275429E2,1.0898201E1,2.7466855E2,1.4199423E2,1.0760057E1],"tree_param":{"num_deleted":"0","num_feature":"9","num_nodes":"25","size_leaf_vector":"1"}},{"base_weights":[-0E0,-5.1998314E-2,4.832205E-2,-3.0405638E-1,3.9412417E-2,-2.982248E-2,-5.5925217E-3,1.926517E-1,-1.0371615E-1,6.4832255E-2,4.3252215E-2,6.1989394E-3,-2.656011E-1,1.8972772E-1,-1.3662592E-2,1.0976365E-2,-6.982558E-3,-5.1439357E-1,-0E0,3.2405218E-1,-0E0,-0E0,-3.8975686E-2,8.747782E-2,-4.6200618E-1,3.0172063E-2,-0E0,-1.2695055E-1,1.1108361E-2,3.0187443E-1,-0E0,-0E0,-3.925751E-2,-2.717437E-2,-0E0,-0E0,2.7907655E-2],"categories":[],"categories_nodes":[],"categories_segments":[],"categories_sizes":[],"default_left":[0,0,0,0,0,0,0,0,0,0,0,0,0,0,0,0,0,0,0,0,0,0,0,0,0,0,0,0,0,0,0,0,0,0,0,0,0],"id":36,"left_children":[1,3,-1,5,7,-1,-1,9,11,13,-1,15,17,19,-1,-1,-1,21,23,25,27,-1,-1,29,31,-1,-1,33,-1,35,-1,-1,-1,-1,-1,-1,-1],"loss_changes":[5.396297E1,3.517742E1,0E0,8.515244E0,2.3350885E1,0E0,0E0,2.4991247E1,1.1320171E1,1.5259957E1,0E0,5.8083067E0,1.1528763E1,5.62302E0,0E0,0E0,0E0,7.2335453E0,8.892385E0,1.0953833E1,4.2798085E0,0E0,0E0,4.676853E0,4.7171183E0,0E0,0E0,4.575045E0,0E0,4.636534E0,0E0,0E0,0E0,0E0,0E0,0E0,0E0],"parents":[2147483647,0,0,1,1,3,3,4,4,7,7,8,8,9,9,11,11,12,12,13,13,17,17,18,18,19,19,20,20,23,23,24,24,27,27,29,29],"right_children":[2,4,-1,6,8,-1,-1,10,12,14,-1,16,18,20,-1,-1,-1,22,24,26,28,-1,-1,30,32,-1,-1,34,-1,36,-1,-1,-1,-1,-1,-1,-1],"split_conditions":[3E0,3.5E1,4.832205E-2,1.0759411E5,1E0,-2.982248E-2,-5.5925217E-3,5.1E1,4.060443E0,4.3307333E0,4.3252215E-2,1.1150166E5,8.697796E4,1E0,-1.3662592E-2,1.0976365E-2,-6.982558E-3,4.1271343E0,1.381663E5,1.2815282E5,1.0448817E5,-0E0,-3.8975686E-2,1E0,3.7E1,3.0172063E-2,-0E0,3.7376697E0,1.1108361E-2,4.1431346E0,-0E0,-0E0,-3.925751E-2,-2.717437E-2,-0E0,-0E0,2.7907655E-2],"split_indices":[1,0,0,7,3,0,0,0,8,8,0,7,7,2,0,0,0,8,7,7,7,0,0,2,0,0,0,8,0,8,0,0,0,0,0,0,0],"split_type":[0,0,0,0,0,0,0,0,0,0,0,0,0,0,0,0,0,0,0,0,0,0,0,0,0,0,0,0,0,0,0,0,0,0,0,0,0],"sum_hessian":[1.4912628E3,1.4094202E3,8.184264E1,3.9696616E2,1.01245404E3,2.0075842E2,1.9620775E2,5.1861084E2,4.9384323E2,4.311373E2,8.747354E1,2.6486304E2,2.2898021E2,3.2146344E2,1.0967386E2,1.4034712E2,1.245159E2,9.886684E1,1.3011337E2,1.5858945E2,1.6287398E2,9.173981E0,8.9692856E1,1.0016671E2,2.994666E1,1.22618774E2,3.5970673E1,6.6258514E1,9.661547E1,5.2550076E1,4.7616634E1,3.1394145E0,2.6807245E1,2.4794949E1,4.1463566E1,6.0054846E0,4.6544594E1],"tree_param":{"num_deleted":"0","num_feature":"9","num_nodes":"37","size_leaf_vector":"1"}},{"base_weights":[-0E0,-3.839991E-2,4.528364E-2,-1.2532477E-1,1.9914481E-1,-0E0,-2.7270845E-1,3.1443108E-2,-0E0,4.911779E-2,-1.374221E-1,-5.6146444E-3,-4.0517437E-1,1.3901543E-2,-1.0504241E-2,1.1048762E-1,-2.4288866E-1,-2.1020597E-2,-0E0,-2.1060084E-1,-4.896083E-2,-0E0,3.1033894E-1,-3.524787E-2,-0E0,-2.8567243E-1,-0E0,1.6467998E-2,-1.3324064E-1,-4.8235327E-4,3.1475887E-2,-2.2195531E-2,-0E0,-1.6599808E-2,1.2533991E-3],"categories":[],"categories_nodes":[],"categories_segments":[],"categories_sizes":[],"default_left":[0,0,0,0,0,0,0,0,0,0,0,0,0,0,0,0,0,0,0,0,0,0,0,0,0,0,0,0,0,0,0,0,0,0,0],"id":37,"left_children":[1,3,-1,5,7,9,11,-1,13,15,17,-1,19,-1,-1,21,23,-1,-1,25,-1,27,29,-1,-1,31,-1,-1,33,-1,-1,-1,-1,-1,-1],"loss_changes":[4.5700848E1,2.9260178E1,0E0,1.845258E1,2.1096233E1,4.7517567E0,6.970989E0,0E0,7.8763857E0,6.676358E0,6.9624643E0,0E0,6.8668365E0,0E0,0E0,8.121281E0,6.612007E0,0E0,0E0,4.483552E0,0E0,9.252765E0,1.1906868E1,0E0,0E0,3.7920837E0,0E0,0E0,5.4766903E0,0E0,0E0,0E0,0E0,0E0,0E0],"parents":[2147483647,0,0,1,1,3,3,4,4,5,5,6,6,8,8,9,9,10,10,12,12,15,15,16,16,19,19,21,21,22,22,25,25,28,28],"right_children":[2,4,-1,6,8,10,12,-1,14,16,18,-1,20,-1,-1,22,24,-1,-1,26,-1,28,30,-1,-1,32,-1,-1,34,-1,-1,-1,-1,-1,-1],"split_conditions":[3E0,4.7E1,4.528364E-2,1E0,1E0,3.912023E0,1E0,3.1443108E-2,4.060443E0,1.5034838E5,8.465179E4,-5.6146444E-3,4.158883E0,1.3901543E-2,-1.0504241E-2,1E0,1.6807883E5,-2.1020597E-2,-0E0,4.2E1,-4.896083E-2,5.450355E4,1.0448817E5,-3.524787E-2,-0E0,1.540072E5,-0E0,1.6467998E-2,1.332372E5,-4.8235327E-4,3.1475887E-2,-2.2195531E-2,-0E0,-1.6599808E-2,1.2533991E-3],"split_indices":[1,0,0,4,4,8,2,0,8,7,7,0,8,0,0,5,7,0,0,0,0,7,7,0,0,7,0,0,7,0,0,0,0,0,0],"split_type":[0,0,0,0,0,0,0,0,0,0,0,0,0,0,0,0,0,0,0,0,0,0,0,0,0,0,0,0,0,0,0,0,0,0,0],"sum_hessian":[1.5134764E3,1.4325463E3,8.093016E1,1.079764E3,3.5278223E2,6.0979346E2,4.699706E2,1.4172327E2,2.1105896E2,4.2077332E2,1.8902011E2,2.2981757E2,2.4015305E2,8.724388E1,1.2381507E2,3.776957E2,4.307759E1,9.312756E1,9.5892555E1,1.7956685E2,6.0586197E1,2.5234544E2,1.2535029E2,2.4490173E1,1.8587418E1,1.489508E2,3.0616034E1,8.744562E1,1.6489983E2,2.8908785E1,9.6441505E1,1.3281366E2,1.6137148E1,1.2138187E2,4.3517952E1],"tree_param":{"num_deleted":"0","num_feature":"9","num_nodes":"35","size_leaf_vector":"1"}},{"base_weights":[1.2366427E-2,-9.7100385E-2,2.0832236E-1,1.5623037E-4,-2.1225542E-1,2.5548142E-1,-1.5580425E-2,-3.00775E-1,-0E0,5.8174465E-2,2.3747398E-2,-1.8496324E-1,-4.050319E-2,-0E0,1.5843784E-2,-3.7803966E-1,-2.3186137E-3,-0E0,-2.9749386E-2],"categories":[],"categories_nodes":[],"categories_segments":[],"categories_sizes":[],"default_left":[0,0,0,0,0,0,0,0,0,0,0,0,0,0,0,0,0,0,0],"id":38,"left_children":[1,3,5,-1,7,9,-1,11,-1,13,-1,15,-1,-1,-1,17,-1,-1,-1],"loss_changes":[3.3261726E1,1.2643436E1,1.2665178E1,0E0,8.973072E0,7.7846756E0,0E0,4.3376694E0,0E0,4.185664E0,0E0,4.157095E0,0E0,0E0,0E0,4.2972536E0,0E0,0E0,0E0],"parents":[2147483647,0,0,1,1,2,2,4,4,5,5,7,7,9,9,11,11,15,15],"right_children":[2,4,6,-1,8,10,-1,12,-1,14,-1,16,-1,-1,-1,18,-1,-1,-1],"split_conditions":[4.3E1,1E0,6.6E1,1.5623037E-4,1.2975369E5,4.8E1,-1.5580425E-2,2E0,-0E0,1E0,2.3747398E-2,3.3E1,-4.050319E-2,-0E0,1.5843784E-2,3.2580965E0,-2.3186137E-3,-0E0,-2.9749386E-2],"split_indices":[0,2,0,0,7,0,0,3,0,5,0,0,0,0,0,8,0,0,0],"split_type":[0,0,0,0,0,0,0,0,0,0,0,0,0,0,0,0,0,0,0],"sum_hessian":[1.4877968E3,9.270461E2,5.607507E2,4.586576E2,4.683885E2,5.290371E2,3.1713581E1,3.2851132E2,1.3987715E2,2.2548819E2,3.035489E2,2.722234E2,5.628795E1,1.5053487E2,7.495332E1,8.65472E1,1.8567618E2,1.0434922E1,7.611228E1],"tree_param":{"num_deleted":"0","num_feature":"9","num_nodes":"19","size_leaf_vector":"1"}},{"base_weights":[-0E0,-4.500382E-2,4.3155383E-2,6.2270895E-2,-2.7308077E-1,-1.4786159E-1,1.5844974E-1,-3.2551475E-2,-5.1234122E-2,-0E0,-3.4522974E-1,4.7309555E-2,3.5037497E-1,3.1211128E-2,-2.987553E-1,-2.663206E-2,-0E0,1.9710736E-2,-1.068927E-1,3.9230242E-1,-0E0,-1.2681451E-2,1.0783837E-2,-0E0,-3.9605845E-2,-3.2252702E-1,1.7640701E-1,-0E0,2.8885216E-2,-0E0,-3.0761842E-2,2.2760713E-2,-0E0],"categories":[],"categories_nodes":[],"categories_segments":[],"categories_sizes":[],"default_left":[0,0,0,0,0,0,0,0,0,0,0,0,0,0,0,0,0,0,0,0,0,0,0,0,0,0,0,0,0,0,0,0,0],"id":39,"left_children":[1,3,-1,5,7,9,11,-1,13,-1,15,17,19,21,23,-1,-1,-1,25,27,-1,-1,-1,-1,-1,29,31,-1,-1,-1,-1,-1,-1],"loss_changes":[3.95701E1,3.6606712E1,0E0,1.9260479E1,1.9277145E1,8.369009E0,1.0682255E1,0E0,8.116466E0,0E0,3.8425217E0,2.069524E1,6.0501976E0,5.684775E0,9.303312E0,0E0,0E0,0E0,1.869281E1,5.0663834E0,0E0,0E0,0E0,0E0,0E0,6.6755333E0,4.9819727E0,0E0,0E0,0E0,0E0,0E0,0E0],"parents":[2147483647,0,0,1,1,3,3,4,4,5,5,6,6,8,8,10,10,11,11,12,12,13,13,14,14,18,18,19,19,25,25,26,26],"right_children":[2,4,-1,6,8,10,12,-1,14,-1,16,18,20,22,24,-1,-1,-1,26,28,-1,-1,-1,-1,-1,30,32,-1,-1,-1,-1,-1,-1],"split_conditions":[3E0,2E0,4.3155383E-2,3.5E1,5.450355E4,1E0,1E0,-3.2551475E-2,1.2926405E5,-0E0,1.5514352E5,8.181849E4,1.6371452E5,3.4E1,1E0,-2.663206E-2,